{"layers":[{"weights":[[0.17755814417151639,0.5154314867758338,-0.3361201329790615,-0.02521429724302804,-0.7875242241600175,0.9491107240082279,0.9089542440646114,0.004719048275015902,-0.3920686894059501,0.19102347231983363,-0.09072901452459814,0.5009013086095924,-0.6077125294169935,-0.33176429352339554,0.40479684407114847,0.5317641699368898],[-0.9179560662796517,-0.0050190310017294015,0.17186440395743796,0.6921574891042697,0.007172257177146202,0.20654343962974075,0.3400050081964605,0.01884783293066916,0.9553027972370864,-0.04959457137137402,-0.6030999830007087,-0.19644345678223463,-0.7989415003913183,0.8473601713065804,0.039261607005848465,0.7063857101399384],[-0.8562287845910661,-0.5155051869878104,0.08240716861673025,-0.6460126562258288,-0.4384533601992081,-0.5990610279138484,0.9340334804421446,-0.7633638688192534,0.610014813770547,0.2684884785062114,-0.8113828077034013,-0.6378536464822728,0.5825153577991367,0.8129777050637537,0.7667892956020261,-0.45125928402471327],[0.5339415583451939,-0.34354534621515564,0.26068273152256505,0.914416435134791,0.2111130641825092,-0.926098526421049,0.8510869247145425,-0.4464524627879506,0.11278672288767377,0.7906134881966811,-0.8773151318902686,-0.1972263004617888,-0.8536122058767882,-0.6286411805211758,-0.11138705961005158,0.9768183380257425],[-0.9014485682833234,-0.24414947407513365,0.2552305624146156,0.5826017575257465,0.6688340816967349,-0.5921456066854975,0.5475210303196316,-0.2718732167370027,-0.02619817900760013,0.9602321889066288,-0.6853933100054941,-0.7303838877614512,0.37277695973067404,0.6754878729933351,0.5680054256543543,-0.6405096257294107],[-0.348075885953417,0.04313706096407821,0.5733872827018551,-0.00941233942723474,-0.3229794499105678,0.5372689708775231,-0.9755636835357006,0.812800259242207,-0.6064422110125619,0.3107176773765672,-0.9007880016699378,-0.39969473397345034,0.43483602322397563,-0.45805726361370513,0.06063864522643314,0.6425508566398876],[0.9701817035536195,0.9051847578516159,-0.9735395675401853,0.9021912030420225,0.9341934844545059,-0.04470420491169402,-0.6428187692737295,-0.3245918356462344,-0.9971109591411011,-0.9352288599755749,-0.629093671044844,-0.19810590576292286,-0.9911618018481703,0.5944719107795842,0.4211245362745246,0.17983798551365648],[-0.3959053351524776,-0.23695834597431042,-0.30196170569488856,-0.3558749851565226,-0.8941162796198001,-0.3956690269502201,0.41795447721050794,-0.507337440507178,-0.9826595233672576,-0.02729739575986634,-0.025046959065388452,-0.6361044578422348,-0.04669962033941388,-0.5078921371641998,-0.32829121189578025,0.49974056030611536],[-0.9005802040456702,0.9577087247547269,0.7860895915823474,-0.15452722700057886,-0.7685781269187937,-0.5982363855458035,0.21094543450090364,0.2204041672965531,0.3833716499541755,-0.6660146190160954,0.0880789463818441,-0.8023671870130893,-0.4140972175701043,-0.45301229667524445,-0.25715875497886853,0.7108604245404062],[-0.7258602416728903,-0.20742721539336595,0.08182206893424593,0.7646153968594109,0.9556982824372586,-0.4356083857992703,0.17428140769446343,-0.8486464590992063,-0.9206974105540185,-0.24611363897384775,-0.32782848427436706,-0.5121956837885993,-0.15673606524091965,-0.6450842943252457,-0.9579416708824885,0.9145072437424713],[0.20349296983494103,-0.09094965508717567,-0.9880604343433215,-0.8370550721125003,0.4697186227281198,-0.14642023907342006,0.09141169818649608,-0.7143032912697193,0.9297196808875163,-0.26798770076967204,0.20798943434282635,-0.4787531101511573,-0.5384521621924137,0.19632665496148483,-0.9603589866125766,-0.46962321618088676],[-0.3243420353738321,-0.3865412293870659,0.5080900134090753,-0.8924155868088899,-0.9878824893328745,0.9701578281680856,0.8291430742615569,-0.48692816658268134,-0.6466775255495112,-0.8653805646418503,-0.4548625459218689,-0.13022354577212758,-0.5776050666242861,0.3766699188280245,-0.9720330098513668,-0.0072286990504845106],[-0.9533229600420794,-0.683146594876026,0.15380703152800312,-0.5665887424566731,-0.11458693776027618,-0.11529793269713318,-0.8430726816146973,-0.9223815006773832,-0.026276337460743426,0.034941955951481196,-0.7442035031245107,-0.22620023564724268,0.8022640272054189,-0.14178569388659001,0.15958402452971043,-0.5676850534825051],[-0.6872394893724656,0.9233623584375541,-0.7973575125436101,-0.39682568767891535,-0.49335060524444585,0.6740410782741575,-0.0912050069734478,-0.8675755550468227,-0.4455991580363359,0.9924681214580631,0.5219478809842597,0.5145016869131949,-0.6695745697568984,0.3442021717057573,-0.8453473904381261,-0.9144221953649178],[-0.8169840089124553,-0.8307915133567487,-0.15151620803005816,0.306877894935607,0.7194808012430933,-0.8208292153760927,0.09403975545151155,0.5336202446062213,-0.5214803170047143,0.41204109015503954,-0.6246459258835045,0.7295914831243415,-0.7808323669158073,-0.04253891810893029,0.743648795291618,0.7807191171593588],[0.8225568094395832,-0.5741991100712676,0.6866746124283758,-0.040139309614961594,0.915585564410121,0.20383183714180797,0.37702742562490865,0.06659329639123435,0.22113729232043844,0.41649177084513567,0.7844198438266385,-0.5371895076414521,-0.4490971227405114,0.8883123360054159,0.41972172978321165,0.31022287221170175],[0.8294613258119026,0.0864703064255743,-0.3267641241321173,0.5521576579437395,-0.17301452028239817,0.41994562345554387,0.9730759886899385,0.7210955041093265,-0.6682440683563445,-0.12648156058345061,-0.27359059698581256,-0.673526723717119,-0.68399241272546,-0.612409810355124,-0.13769416377772303,0.5617887059048696],[-0.0526899122878397,-0.6442991698367051,0.34261595147783686,0.12308436870718586,0.2857068540927521,-0.15635265743190085,0.12435475230419768,0.5383311880465276,0.20179179459893692,0.6943308607183074,0.8609557290845344,0.5386892461863761,0.39673744486492946,0.17314664422215276,-0.6756148141229594,-0.2881106656455019],[0.9885281491971241,0.1189883654559909,-0.40534884641196056,0.28275364510843226,0.18833690378271828,0.9607340982000967,-0.8887217798683428,-0.030079520787149483,0.3309169212965839,-0.573806225123725,-0.8604813291972881,0.43289191342559263,-0.21654768344785447,0.13359833747781735,-0.9143308437961764,0.9128898707744153],[0.05264184021048335,-0.23264674806624963,0.6106539115359326,0.5006157250612115,-0.09346926356361684,0.39922177949884063,-0.24009363690395547,0.8945816996947777,0.7968305450849378,0.702649104270455,-0.0631973282728332,0.8929488984369436,-0.5418344054100264,-0.3697649973303848,-0.26358229260127164,-0.6896043893367072],[0.15293347982360683,-0.17961536682192947,-0.84179441157812,-0.9101018467499418,0.9942189957919618,0.5529434995506628,-0.8266387757969269,-0.027799868503492253,-0.41709939642674265,-0.6817219879858765,-0.5138249041111325,-0.5734768181915753,-0.6065391505167537,-0.4166032715777882,-0.9395298436002479,-0.79358576787337],[0.6009833224122334,-0.5623272031370211,0.6833529116973993,0.010506975003754304,0.9165052957444011,-0.060811631875490546,0.9824757538654263,-0.6328480446864143,0.2576318221435099,-0.005679471886567478,0.739656548825864,-0.19079668409693828,0.20427648499807183,-0.6620252969032272,0.4633201749358886,-0.685454729797996],[-0.9330986775146326,0.11940025683464484,0.30219326322069073,0.4508522997847071,-0.4049041547835358,0.3124713140132238,-0.5491732394086073,-0.8753861821607622,0.1448038356121648,-0.09441996789277529,0.4639687889553461,0.021126020243915633,0.7447806772518812,0.18412831201410307,-0.21024210062354898,0.5102886518045742],[-0.053648946366109396,0.8678356864805499,-0.11401301394869245,-0.06614202403749436,-0.21486530788935032,0.3200283093936873,0.6496578611664743,0.3044189928585752,-0.9975453726935878,-0.1996492460368431,-0.7029320791843031,-0.6773006011160558,0.06951350582275229,0.1731579132253107,0.0831432151995335,-0.8292860238949238],[0.3638434556144492,-0.23696999588840173,-0.3191895770464044,-0.548237069299555,0.7968181221731092,0.5059462010422471,0.04518065277728289,0.6858684540194777,0.5947816668054005,-0.8246661563518765,0.1513749692362616,0.7499712909338863,-0.22184993197296277,0.7756129604650721,-0.7856734543040736,0.9611179418680806],[-0.04254902109622449,0.6543099021791992,-0.12142171297288584,-0.5108188220815821,-0.44115694399976957,0.612010088568558,0.7268978756512039,-0.5172631924586665,-0.4444720649367534,0.4831790465317569,0.8307449937941251,0.9499477399280052,0.045719108099918415,0.3492502976903926,-0.5830951433550078,0.9068636241866572],[-0.5029772704015381,-0.2427691254963955,0.9909296827348553,0.7687614512484342,0.9698192411893136,-0.5689268454764629,-0.22985961624880302,0.20479528568908356,-0.055387016877246564,0.7183276767462154,-0.981468911274089,0.7427164473304135,-0.3049121933546439,0.6998685718047752,0.7763487695606186,0.671148444372764],[0.11583954147800779,0.8302281777515208,-0.9469433473176059,-0.4348511842241749,-0.9148605260601549,-0.22749802713631562,-0.4420140513414582,-0.3134370545453564,-0.5475254960113789,-0.8334106122299147,-0.9884832613116518,0.6819597974801248,0.7440086238756816,0.016001108575612877,0.9259162842882407,-0.5116391710525561],[0.5809900768012692,-0.9028261573532718,-0.9883747491931425,0.4738415309571855,-0.7766331014114586,0.21686254405270455,0.6046742394588303,0.8994165081062431,0.8968724105026911,-0.44949606966669486,0.9270396669986842,0.034385770109661706,-0.28948548682475717,0.8707655490705584,-0.45577086669195954,-0.4667575226476218],[-0.29212817423610393,0.21092630886050245,0.1250591637217715,0.1831326145600214,0.32265196150292264,0.18810551016968935,-0.821955592288615,-0.1669464247147303,0.9098398852673546,0.34954840193947234,-0.8914942601190388,0.2870373266223061,0.5586586769477737,0.7394895692074157,-0.07501758126309965,0.03364816914948077],[0.46795248494853836,0.4065493668460052,0.956269651631019,-0.9891406660848953,-0.8972269622130445,0.23016152681324709,0.30546746929430757,0.3149238989292289,0.29029745202991064,-0.1718485072124044,0.459687801757682,-0.37065325182427333,-0.7004362203648482,-0.0927764694638441,-0.7139800618002099,0.952340643830756],[0.2854502523715843,0.017370038208258443,0.5146528219406739,0.8385200825699233,0.8353145410471199,-0.3417914823357907,-0.2906464251180395,0.6533141386012147,0.10511488053254547,-0.7801962801163067,-0.777585007146739,0.20059916805503852,-0.7952686565906129,0.6105444056962357,-0.29301580008725436,0.2260397035749815],[0.9064698218863783,-0.1679213322549692,-0.6788826061780018,0.569300960548828,-0.20437332391942542,-0.3935596921451202,0.8158006052560176,-0.3277072745038696,0.11414838634158886,-0.5956234706545358,0.6739470277325934,-0.6367540553383315,-0.12899156060488504,-0.8352013257496065,0.04518937833848846,-0.347257349336174],[-0.01936667273722903,-0.4095891944177399,-0.3480672712195978,-0.5766858596246158,-0.4984721110660919,-0.9871119335233756,0.5526205643790869,0.14066789724895168,0.6366910727865487,-0.3920368521437221,0.5822523141197173,0.9179592718919549,-0.015413203749532478,0.3607369052994702,-0.051352715609293775,0.678614204599808],[-0.07886356468260301,-0.41128399295973295,-0.12375070599382514,-0.25883531128448695,-0.36793219560285545,0.17065375283596365,0.1494942663994275,-0.8261723763814464,-0.7916111033270354,-0.2462117137450514,-0.12082680914788348,0.8573763832178642,0.7164287580113162,-0.7038188066543474,0.7821585188628253,0.7806993462269122],[0.5966577374431224,0.14369021849404484,0.7936511398517283,-0.30820717018265786,-0.18460575190590803,0.1545518840940287,0.014592157484516406,0.8378430731635166,0.9214329403168982,0.10859039395249404,-0.8713072802992732,-0.3973376557067326,-0.03344480946495161,-0.38626139660441905,0.5989318181084204,0.12775215272661392],[0.2678373000512359,-0.9441548098358973,0.9040334947250285,-0.26643246170507373,-0.7067093388567172,-0.27097797091984005,-0.8596929797394424,0.8733299995739722,-0.4764233249423534,-0.7565685453597119,0.4026043646853536,0.48665406525478727,0.43528495509189324,-0.49757087228561264,0.21717578428197634,-0.5861590260384498],[-0.5802149269973271,0.23618830113154562,-0.3425145789177633,-0.7282773704312302,-0.15646429060220612,-0.8776652906333806,-0.02912210767765571,-0.9489530541964826,-0.7055878293948857,-0.5968553785390773,0.23109125178837403,-0.19927231353202998,-0.7150821887784404,-0.6143613041443962,-0.23141336093485768,0.6960398766353558],[-0.872912217972362,0.5826107233683631,-0.815638422346275,-0.5668053907709276,-0.023400122353093803,-0.6788690990342374,-0.1329559286111756,-0.07532819655209229,-0.15296672317316992,-0.23579888992060144,-0.739180316277463,0.7152501464117134,0.7602612023497667,-0.647168419073429,-0.4887820561135943,0.3191258702567035],[0.42281116727835544,0.6949242818470688,-0.5938265665279123,-0.5866739245725222,-0.6935624213076766,0.42986040209487947,0.6303967153929569,-0.042902603691651255,0.7385877758389927,0.7357975670999302,0.6469425299780568,0.09348765769166607,-0.8847123623045092,0.9959312438465854,-0.17251251504316972,0.32402648161865705],[-0.5966326610307715,-0.10617547297358303,0.188118877511443,0.206749299365258,-0.21717660798496474,0.7773286598711422,0.4736446605187637,0.13154869541789052,0.013057034812218538,-0.3703782641861707,-0.299557727250193,0.0685245870807107,-0.21096301483721286,0.49515175459884003,0.26731374067845853,0.8414217217751426],[-0.5921829199593713,0.7522743227077259,-0.5507878237766053,0.41902271094416765,0.9300360097786167,-0.8331083959926054,0.4208807502700427,-0.29840980854992166,0.6080809768709254,0.5782009646781909,0.2945665738094484,0.8689891763094411,-0.9506406510755747,-0.8789324887841361,-0.14764949906976127,0.7672045068442587],[0.8561072578536388,-0.16740447978056586,0.803470919320838,-0.9454398864469825,0.7055240892922516,-0.3643832913778333,-0.48565538652216517,-0.9009680672808871,0.2746057356908719,-0.6465434133058489,0.06966010945735306,0.6941869780762071,-0.9675047993901732,0.6452501634449257,0.6990169406534187,-0.0564068420751557],[0.7039886905350499,0.5432064173167759,0.8036766286174074,0.5423967974940477,0.2883806463929056,-0.2522945230068578,0.2694523233233308,-0.005388260118004279,0.2498410189594437,0.18235627229195647,-0.6471860682390356,-0.4228942608177588,0.6372059083475691,0.38630125843179697,-0.09965155618863154,0.891089997014459],[-0.09201210201552056,-0.740062274735287,-0.24396388393221055,0.675581038918767,0.7895959622519748,0.5564467843031131,0.7774808487654467,0.007373933090227352,-0.048536947004744396,-0.48000346277905653,0.6312931516257211,0.37939143979454454,-0.07336820890208112,-0.14293734013450268,0.1613721741337231,0.6471712444088099],[0.9526582281634136,0.15388182755251117,0.81844677741096,-0.4109472775580118,-0.013294497936192268,-0.35053954839836543,-0.9429299729234926,-0.9138215579881818,0.9460814728446212,0.6679346094753421,-0.39999548220031406,-0.13282596398274626,0.0897248447653347,0.993431803778853,-0.9786417411358599,-0.876660597458275],[0.611162224364548,-0.6533777495104461,-0.357791492679336,-0.8196763635847498,-0.7197393882736158,-0.35019767556246756,-0.14228222929615664,0.8511486913347648,-0.30516252147492445,-0.8554301486088689,-0.8582217039956533,-0.7023807219931206,0.7870352074605986,-0.42725549098153487,0.17119602346193571,-0.33613016514442123],[0.2657140654670986,-0.6390342252780213,-0.4127629375536195,-0.8316887464451096,0.6493974450703884,-0.6668306558058278,0.655339534970693,-0.30147665805451085,0.6912232738741374,0.0785062088186749,0.5671345318977514,-0.7684092734920479,-0.3304399002190607,0.2547378558486889,8.39153202078555E-05,0.8608972806844909],[-0.42505095189308784,0.7290459994885744,0.9618233505876588,0.5206101407581217,0.2621401159375868,0.8226799858186172,0.36682866926896035,0.21343684006751315,0.9494728413890896,-0.08294389793429664,-0.5687150828774775,0.12258326547213243,-0.7386880528996669,0.6502405314533686,0.8359808472015894,-0.4803654470406328],[0.660723323906797,-0.22978396670426984,0.3830124073054925,-0.37547976879089384,-0.053039795327839354,-0.6966442024566578,0.28702485770230723,-0.20000355362361086,0.5228240372460896,-0.1178781572935764,0.49666039622233915,-0.5642474464447925,0.009345890337702502,0.7070903116244027,-0.91746466095391,-0.7077038280324086],[0.12068568315388895,0.6066459853233053,-0.7611030916502248,0.20356698855923816,0.4012786389334493,-0.05495345734756141,0.4595498170049628,-0.812773245299595,-0.9249440906219856,0.5454324463128264,0.9707570755718076,-0.13809905812987078,-0.6864144754067131,-0.061487534577719605,-0.865630022187545,0.7913200528320483],[-0.34054703979778433,0.1378963948869596,-0.8936765603226035,-0.3743113909728413,0.5377052098222568,0.5611862929357152,-0.039446298517028966,-0.23039688879176834,-0.4280857310761166,-0.8795368931626607,-0.25049174448963807,0.12389681820007814,0.28338634189375966,-0.3963208568265293,-0.3104916593574414,0.017273141544905002],[-0.7963610886579198,-0.39731465810784816,-0.9285699631686183,-0.44720882803537365,0.7247231843530775,-0.6341934481794915,0.16382039485677158,0.7945926011514814,-0.28765922285973056,0.4408315575871764,-0.4684007789326835,0.6124845275713524,-0.9595328718235404,-0.04059289630530072,0.799134341906353,0.3763347525970706],[0.2105695433963879,-0.6406948955919104,0.811634586104953,0.5171656597019945,-0.15902954487084853,-0.26973302069573335,0.5848719689924604,-0.751856447081946,-0.48844995325824714,0.5274332815443321,0.8690364788607865,0.6970746068735953,0.33356086971869736,0.2812824348366272,-0.2082311730870191,-0.31688795206923404],[0.3827286546038131,0.5840143559426136,-0.9752443954233286,0.45298175674536356,0.2799765380471835,0.8092108032709038,-0.5945397436593378,0.22915027347819428,-0.020635441420895684,-0.05142109331275391,-0.49340956075741427,-0.3182578968434864,0.2592447396643669,-0.7954775541068416,-0.15614038387133755,0.20079141724891558],[0.576574821759283,0.07775868991285506,-0.019473044676460827,0.9642787277532177,-0.7040295199044186,0.009922355883718703,0.9264784901991852,-0.3624329070385699,0.35029948845053993,-0.8032970557935988,0.1696144366495378,-0.30830200729346924,0.1880109855849348,-0.6697389966201684,0.9414766691352598,0.21721889973488584],[-0.984857388765019,0.8755807121636257,0.8696711407367472,-0.7586948106804373,-0.5879235880393179,0.8940721256165169,-0.1108217523949322,-0.1057659849085687,-0.18950103837507826,-0.9551746034785987,-0.06706877195605487,0.7824305229738497,-0.5437221776431995,-0.3367681407075227,-0.7504962923706027,-0.8039029416646356],[0.1974201617750433,-0.3833408734683603,-0.8035798174345772,0.42012936781166554,0.7764119476901423,0.08091066269246427,-0.7156243807243297,-0.06778286167782865,0.6075601864641347,-0.5318622754569455,0.8915492714809017,-0.960553045366217,-0.48699814802361563,-0.36018020816155716,-0.31635391959750747,-0.6219732601297895],[-0.8299018972692555,0.8934246496732461,-0.42012769143103046,0.46265350443434605,0.4142949420094,-0.43204472746329603,-0.1940937280627404,-0.1323209168074284,0.5180050560822733,0.6152796445485575,-0.028690101126530254,0.05280240860432506,0.36823772609617444,-0.404254140986248,-0.3257136053059779,-0.9842996038423384],[0.14110045281290096,0.10154062374566708,-0.6233477246124985,0.09342057960732864,0.10999102569650443,-0.20415569525405564,0.8206231546684275,-0.7546100242783362,-0.5817261140708467,-0.5229468576251282,-0.5161383037996191,-0.6803316276894564,-0.6729421483692444,-0.6737624246970575,0.15110056900936208,-0.547373249916068],[-0.84509901932123,-0.7148132728719327,0.5830386661866176,0.22182658222587173,-0.29281874725721274,0.10539375364557617,0.2534494273475856,-0.3919937097125908,0.4489448016059709,0.5925728487930635,-0.9193190901915171,-0.14241126411577265,-0.2610551083188787,-0.15792094370142543,0.28503828569751294,0.9714747372683035],[-0.14571796480870233,-0.9252026438225103,0.973400002417651,0.33708741380010077,0.8490164808354626,-0.8172127368551098,0.7991818298537654,0.9888351835722591,0.5504128057933468,0.8981817717776447,-0.6405990467618348,0.11993747764857815,-0.7354354102535331,-0.4214845331469607,0.49527581648497254,-0.3086369755116823],[0.0229387131873174,-0.33650157004694187,-0.3135855812176237,0.1728523027879234,0.8772111587025531,0.3867122807819127,0.8105216634101078,-0.40645978836718194,-0.8796763988300788,-0.5751370959676877,0.05024704908284787,0.329292237140542,-0.7582673537805,-0.37480813766340343,-0.8712767848082837,-0.03630217612220484],[0.3908753059370399,-0.25706832732511103,-0.33695240507500757,0.6737973619597087,-0.105999245836205,0.21099781803029044,0.023325199060792175,-0.6109498506820509,0.47294523960010343,-0.01168407197512586,-0.012992695598854397,-0.08992768395468091,0.0195658125415506,-0.1855670451453798,0.820524186724865,-0.3296636131283272],[-0.19493049409241903,0.3829831413247025,0.13126113276175871,0.7682467498348351,0.8357116687184208,0.3295206108068395,0.8558909657343527,-0.16133415851128916,-0.21169603761053873,0.9305525321351289,0.22162589052096796,0.8581195260035582,-0.46850390499459205,0.454649110751334,0.7570939981414992,0.9567693980209316],[0.9145180583267569,0.8847574577470766,-0.49915735184536153,-0.6641191780689142,0.611134037010754,-0.8137317468783084,-0.6364910849305403,-0.3628303146068437,-0.17645284552363558,-0.4771284390486948,-0.0005353870201931524,0.32186199278285255,-0.7563166904746607,0.5999943980785373,0.3328934198642401,0.2979355219620751],[-0.25416744095890065,0.7410819185541156,0.21303645171869598,-0.4386488348326954,0.14366968098748256,0.3472991332888173,-1.0566528053418616,0.8539725184537149,0.2350457320248883,0.7978407551195149,-0.10281620973082661,-0.48915582894281745,0.5228192651688651,0.24931349390274976,-0.006861212504841073,-0.6764904111732409],[0.0313013237774441,0.6573304302072666,-0.46323211685031135,-0.9355341155580508,-0.7353255448755318,-0.15466129448138236,-0.5037436277333535,-0.04060134361025627,0.3332356363710738,-0.49329880163039785,-0.2861720582478481,-0.14098005108682643,-0.21553367216308802,0.5599070032581628,-0.7533375010378766,-0.2723134808710853],[0.36672597779103794,0.25646305571007216,0.3335943683462461,0.946733616231879,0.7588495862259569,-0.5195109001462523,0.6680046526747181,0.9828935338002273,-0.6555237815195496,0.3101655617744731,-0.29333298695496995,0.658554400901918,-0.41587997880795197,0.1314641488112595,-0.5766505321389759,-0.7263879153613133],[-0.4366506915284305,-0.04405551212661779,0.06622505423188536,-0.2771249734356566,-0.20890249526215043,-0.0012766370176072821,-1.0015329090075533,0.7118801089226134,-0.44439623145948703,-0.615212348917738,-0.6811009396404252,0.12337418691228592,0.22554422070168162,-0.5728200795244712,-0.8099724296247058,-0.37327745095380177],[-0.4765535188324329,-0.6830303503990999,0.8061118035326619,-0.6643828078681623,0.5294003979262757,-0.5551498500308961,0.17246387847274733,0.20180141634181553,-0.30575799959062233,0.23881620081512778,-0.5534559020900879,-0.011286701477652143,0.08721474751535205,0.4580137970925921,-0.757599019353132,-0.14292436241104164],[0.35986780639446647,0.8145553477523803,-0.9407671288915158,0.3819986846476027,0.9019848123661721,0.26463382463564955,-0.04917773260046561,0.6767338143096742,-0.9696102686452852,-0.47582929466240315,0.5440608862572653,0.548748836466079,-0.9864584352304396,-0.8884377633687482,-0.8856646008212776,0.7982777774890805],[-0.23940848492260797,-0.2686969530618691,0.2196793109581912,-0.20003554065566784,-0.7782197159089582,-0.5148173844315617,-0.7962929314191466,-0.3798099660445055,-0.6551745854345808,-0.010603692338144568,0.633254270834983,0.8443280621526607,0.5874044697752758,-0.01831934928996587,0.8053452757562569,0.30355281876592205],[-0.494158860674903,0.3731518181605185,-0.7359370128882579,0.0033571094175263157,-0.1929326188038996,-0.5102162958930991,-0.5762640063558577,-0.9790572939392799,0.5764864818948409,-0.2457446876053663,-0.4767436033672987,-0.6311116202777136,-0.4066401426306512,0.31137757153599477,0.2518835054885947,-0.48951078044820767],[-0.3912894957814554,0.8297789552530285,-0.5192904984654896,-0.5651279553357635,-0.9372597606803147,0.5874831795283032,0.23739687551845698,-0.23049203253065403,-0.2197350310603616,0.10441063467525624,-0.7215084359427633,-0.16651567253843821,0.5888471921448121,0.30237640594565796,0.4610121281803597,-0.5975798936004493],[-0.29207202846201863,0.03733904594998746,0.7456296807127012,-0.24091863077815961,-0.9790768739609115,0.3617825298750163,-0.2879345353385423,-0.7285771832728092,-0.029262936378160156,-0.2467628189464602,0.23689639740512863,-0.4376680976052616,-0.7227377810378759,-0.4021068869922106,0.20883955303758092,-0.6039680387962765],[0.7172090101038386,0.5875476709107691,0.8929616377749113,0.005262175488742803,-0.8143827786378082,-0.7140070041621819,0.44610776338307584,-0.7317314627780719,0.9789299170763469,-0.353411090402497,-0.2831946878456244,0.11772489556847923,0.12907568261538563,-0.2505517191235742,0.7802065592411831,0.3518506241324697],[-0.6560113332499704,0.5631778886342051,0.5132901684761807,0.9285979677127221,0.28725292549969245,-0.44652836013922437,0.160750695846352,0.13033932969262657,0.893279915594723,0.7281224538556338,0.13268494410416462,-0.5544566380596645,-0.9201605889896154,0.8147921895950512,0.9068432551692098,0.6039650408434086],[-0.9820035895377071,0.596676300064248,-0.8645710209724499,0.27398059142374376,-0.019669177905674302,0.7551513743300928,0.8590735633316395,-0.7046077595408718,0.045764948458830564,-0.7075045474711112,-0.32159570889928174,-0.05453854301886532,-0.8705432978406522,-0.6931639986743349,0.9435321857871355,-0.48899770850969276],[0.399576733190383,0.6037988192809987,-0.13029798945547527,0.8691819258458904,-0.19764365544203022,-0.1490725849394206,-0.0172679168929775,0.5991179744837284,0.6458431800852399,-0.4851596815207038,-0.44559767952990925,-0.11491422649942193,0.6805474517865692,0.7780260121228699,-0.7977558060647174,0.8315700387488925],[0.3431001515563622,0.30627878992342517,-0.7618702185393464,-0.6891688230010424,-0.7251299464512543,-0.03879680207282569,-0.13124978027379772,-0.36841310503110797,0.8606763519165049,0.3390504807006172,0.6889676062299143,0.6537231032827652,0.25484257863346543,-0.21887277661887924,0.24684128098691174,0.24001249255384108],[0.22849732787744026,-0.6042371781562628,0.40435086721756996,0.6021757664169072,-0.681861223504814,-0.9022246226213055,0.11423682752728315,-0.49373067333071063,0.25338024704408846,-0.3596537277845916,-0.5486054353176641,0.512236965593061,-0.9759104708097458,-0.5538494789757996,-0.22375218068424252,0.8096012258015579],[-0.4610777317830723,-0.8988853161683703,-0.9083034367804897,0.045728543328926285,-0.17807299046687453,-0.05025025692314389,0.1906979676292735,0.4731243399312368,-0.49700793693634115,0.2500912944088183,0.5802299434227076,-0.43983094926915645,0.48230453835907605,0.36572370462386106,-0.9101959773852472,0.9683376690225385],[0.9202438145504537,0.32695774609547,-0.3713873240032174,-0.15067867056963902,0.2764030645025908,-0.08649367982824041,-0.6823507061611631,0.09942008419866677,-0.6259519269810765,0.6683926413154195,-0.5696207292236484,-0.40136678675253257,0.7011686655232536,-0.8363275098783558,-0.5383042830686571,-0.7590537014226679],[0.5871861426100071,0.6042803235371972,-0.11383774462800367,0.9795656260007832,0.9213733225694734,-0.7569410324827494,-0.2815054092935777,-0.35417317941513526,0.8347839758893401,0.804115955626646,-0.8622513356908463,-0.5748636152478231,0.2450731523544869,-0.1990228962148647,-0.20938755907555462,0.24232811631743245],[-0.1915004752536772,-0.7313470280409544,0.8499462119536223,0.3851707248879461,-0.4349321720353012,0.6689752338775319,-0.6550862321886636,-0.45467921227900276,-0.2816168168939729,-0.2923116140497437,-0.28982045375267995,0.5054499299756483,0.01617743774139213,-0.6964556126373147,0.5965115975572315,-0.0649324977141491],[0.08181134102950405,-0.5853153036838934,0.44322278510929225,0.2857289106052969,-0.8894086433059576,-0.7075980341562993,0.5455331800251888,0.8587215374497332,-0.607225896607724,-0.2210278377034831,0.6908157717859447,0.5881146404836861,-0.8357357847670726,-0.3488626979984635,-0.09215014199360749,0.8497049509779107],[-0.30409972151000975,-0.5272264366630588,-0.49051719228295476,-0.9478646991531666,0.9546562209514231,0.8761733285506133,-0.7690713637364429,-0.5758508274219236,-0.3974016604001641,-0.1230567521988678,0.8049105488718071,-0.333828662211927,0.5374475696764176,-0.11648376058623366,-0.7465794485744924,0.9696306027330601],[0.5978726180895123,0.005003782094885111,-0.3722209351007699,-0.025713785085759125,0.21988432160273494,-0.7966236511618277,0.14359105666942018,0.9115314818692076,-0.34269274930437893,0.659460672397702,0.0757443081787725,0.23621989405099572,0.7242652865510703,0.16392076791,-0.895400925892501,-0.524037658130273],[0.34446219709142667,0.5118153055864536,0.8925983664166885,-0.22155736512582241,-0.6617909282347438,-0.8398704784843708,0.22754532173130235,0.5360284285028465,-0.1420234102751581,-0.44465332179662453,0.7094460975742335,0.166207379564336,-0.4663811665915059,0.9604681020177286,0.842391561830331,-0.43774216559323803],[0.580589561362314,0.27090129345511077,0.917299675709658,-0.5467371216202296,-0.6034636324074061,0.25488364286524084,-0.8662103918501071,-0.054956634248125115,0.1100314594943227,0.06485504864681746,0.20447906211209968,-0.1782856442585574,-0.48244852498210083,0.9355828821225994,0.3575611226581762,-0.07653017608825098],[-0.9311809657738166,0.4415919379654524,0.703246545597918,0.3451995120305402,-0.5072825987111188,0.6329371200713568,0.859651086796977,-0.05376903797377743,-0.08650744544771252,0.7823635446872286,0.5322054230167069,0.4526732392339395,-0.07253581345906197,0.8535337883640219,-0.45102158111528445,-0.9763235147552488],[-0.7528168628305135,0.35065708513954513,-0.9316704800769898,-0.1407247957117804,0.4064250863587958,0.5372033778054663,-0.8297539625501273,0.19303771406896983,-0.22683161736796856,-0.19928057776150804,-0.7133110222917971,0.7600854976020112,-0.048919177738203444,0.7519398844194668,-0.8766309551640633,0.6705703065099778],[-0.025385294019461047,-0.5314578723135597,0.8021784530322309,0.3875687937142666,0.8342548630911013,0.48861735480391366,0.025451568572508534,-0.3033256015732091,-0.5733087491460562,-0.684876237429781,0.7996317691066537,0.4224574253111904,0.48387356519998453,-0.9954718996978321,0.3952151368067067,-0.14047726992285528],[0.23139007019863508,0.36366595574833516,-0.166033267446492,0.22906548712379673,0.5059563247869049,-0.7187108317363902,-0.6922947441568146,-0.6226110633378964,-0.7153731349567916,-0.7715014695961996,0.6095264015524225,-0.7220831796164461,0.42124849887341137,0.18547417364109767,0.5911710718872323,0.3403043104360633],[0.501153093225844,-0.24394640247267946,0.20384219790850805,0.9541587588394167,-0.18958852515336103,0.5477663771576665,0.584359035311899,0.18353082526097328,0.4482135014940921,-0.1639257359415807,-0.5699253828260963,0.9991363763843505,-0.4115171702656571,-0.041063232077682324,0.8446053944937807,0.1292807247716583],[0.34399439453210473,0.02779769368432887,0.6966127254604133,-0.6354085247445982,-1.0440909716560423,-0.26746598355405227,0.5348622097742595,-0.8673247979597892,0.4751773557775415,0.2693347264526592,-0.6171945880515439,-0.40058029602815187,0.9143749106217385,0.4713022661943686,-0.17666183038416855,-0.21321304288458365],[-0.5877487265423298,-0.960400720175835,0.07804851000509383,-0.43964243078195336,-0.27472705229808175,0.36651909177762865,0.404611002929491,0.7193818706303448,0.7863151422696323,0.5046983068473673,-0.7610659985864728,-0.1175266355207366,0.16238848968599914,-0.19196461256206876,0.9798791616487733,-0.7617708964731095],[-0.1875442947065574,-0.8889729484149926,-0.34244950421968134,0.963522624737341,0.3564573582915404,0.3472619843266469,0.33556708870782803,-0.8367146256491332,-0.5591626643375088,0.4048742692467206,0.2785836776079925,-0.12988058337788866,0.2723017046488866,0.946980706831865,0.23530912433255327,0.8700799736137614],[-0.1164131090711825,-0.6520328803688258,-0.6958716389071851,0.5041914550112921,-0.9483178062337804,0.29807259054065316,0.3724074915219794,-0.6183840491136753,-0.8962962123355008,-0.8562202743264887,-0.29112147853355974,-0.7587621053241043,-0.1780078618297197,0.33447777032197856,0.85077845031504,-0.7600547272188432],[0.06284270629578928,0.3583740576356958,-0.21065615060034562,-0.669881492718971,0.6217113626513701,0.23084763341421924,-0.9005543907352073,-0.7538464307635927,-0.3373526727340975,1.028822199888109,0.7562374718684519,-0.432628122374197,0.5867134799793865,-0.05740753626644548,0.07009483952796426,0.6273452157360329],[-0.5620996761637558,-0.4338664182281949,-0.6599211469402093,-0.42185680155674465,0.6877338249260745,0.7049954588492103,-0.7216641115692383,-0.08838877329849217,0.32272317345145063,0.7731807973850476,0.5185874454641848,0.6186540315684373,-0.11595867752539842,0.36357762256701076,0.01913964979343747,0.7340232573989384],[0.7801604630391176,-0.05748372139242634,0.3981417972515251,-0.31849906491583485,0.5836904860430774,0.7525246926275936,0.8334229222750973,-0.2591442752735313,0.3313656382148003,0.8719465285365694,0.03758849977972166,-0.33381710832877237,-1.0961608843893826,-0.5313004714909608,-0.2705406093423664,0.41858295424382],[0.9090856010716933,-0.3672995463920674,-0.002695319694354697,0.21262007914372652,-0.7650205843953249,-0.2650198951579047,0.20793099367256607,0.5135945739747789,0.37723502819761745,-0.39098127611191086,-0.6915692891583893,1.0332254787225994,-0.1373391154766505,0.43537894125433224,0.8203701170698986,0.7707411978119664],[0.04698272078134823,-0.6522014190890129,0.6645038240893086,-0.46696572187258945,0.256201184950118,0.7759271192316612,-1.027800065569216,0.6044993675061818,-0.18330906181312126,0.7145893694467136,0.21094259271832436,0.4860797791504269,0.7876729966778612,-0.6027263319709943,0.9797623396694516,0.3449061715881267],[0.6732643311912873,0.7207675973105248,-0.7612065823512035,0.9208760902386185,0.3964415033052014,0.6251866896356627,-0.6020512115946023,-0.48188371961191256,-0.9630552648900257,0.08639167978638146,-0.4675796483216053,0.3516732883867966,-0.7779159567318585,-0.04885772647690683,-0.9146201336581583,0.9074580173356597],[0.8311763721094702,-0.6445346702272574,-0.05899622913258359,0.907094671291894,0.24402834617909108,0.03360166305345643,-0.32649757448447525,-0.8443767965108518,-0.7817836845099979,0.19462850056239053,0.16410808761409518,0.2957648813513142,0.6440771966850733,0.767423710390114,-0.1231958658405341,0.6175281886834217],[0.6359037349561558,0.17791046261954754,0.8712993894135069,0.6455493228472253,-0.133703681879121,0.8352866600997065,-0.32848275731793036,0.7777328577314004,0.12194615384450802,-0.26464310843194927,-0.9649619303243953,0.2680033475989473,0.3742747609693756,0.8441527626074099,-0.488830944905611,-0.21023355543996686],[-0.4398308585978113,-0.5135341725033388,0.38818171434376936,0.2298236253150711,-0.2683856212854356,0.10836030483679898,-0.7062853203505843,0.4830843739645718,0.7280328500970421,-0.5545681325870423,0.6303474831923858,-0.12999456068771736,0.6640354684067062,-0.828847228785689,0.31473443931132844,-0.7863155904581761],[-0.3596043119150655,-0.4821868749508517,-0.6887282270979849,-0.2174932143607725,0.22153018462298396,-0.5752171003382083,0.6574050616394504,-0.04161928862405317,-0.9955059610825233,-0.795795111241496,0.3127078047358933,-0.8772034440271327,-0.0835400693334587,0.7480786960141643,0.6345799156279308,-0.23676910133672266],[0.8389438064018935,0.4727295690554798,0.10256662364237323,0.005103393925867783,-0.9129618797045955,-0.29151369505166713,-0.5465913161386695,-0.6305844120823705,0.36716550000345594,0.5552378620743927,-0.5021828392065051,0.5763212459051614,-0.9843901358472137,0.6564799815679341,-0.8249020882998137,0.844964419419395],[0.6587481469189507,-0.7025906023115807,-0.6261786732944561,-0.6728273824196436,0.10920328232888288,0.3305833746355882,0.706999210504349,0.7643644911071121,-0.08406518636460658,-0.6789721696073991,0.8182175121354951,0.3365527220706235,-0.6555716635918113,-0.1410071370848488,-0.6440093292128338,-0.4113330149144554],[0.1729635126762854,0.009388391398539975,-0.9274846408178492,-0.851653134381237,-0.2095698375299433,0.31949709510407276,-0.5924594782257729,-0.3627378630278343,-0.43922314766758264,-0.8190626277677076,0.22003866323271715,0.09328907220311877,-0.6336007563553754,-0.6662427828024341,-0.2509719930826556,0.8674070545786092],[-0.2339400403359626,-0.7138969459169996,0.7149751008092309,0.5942914335030556,-0.38942379848539077,0.7135397846407907,0.8161674727761035,0.26863840560831065,0.871441367022433,0.10488605550717844,-0.58162839877495,-0.8313200575445406,0.6821676127995213,-0.18207817952245386,-0.5241765405629653,-0.8177478070453498],[0.7979967148691114,0.7951328860723096,-0.8618390715889349,-0.2173907413718901,-0.16489641940369104,0.8340123344542303,-0.04835308664632581,0.6138007212286457,-0.44239271768441457,0.13813684126443518,-0.2051058870503762,-0.3334117499875412,0.07226651869657488,0.5450373884580566,0.904479716180746,0.21083585452534953],[-0.07231288366893425,0.8899587332693129,-0.8240816357071918,0.6149857153752252,-0.6108771742945548,0.009321928835766338,-0.8590319944142933,-0.8980132878131083,-0.8044470732077599,-0.048706196466493004,0.6277305083796648,0.344344603641841,-0.28472335264630666,-0.6042253399134552,-0.4927988936761738,-0.8351432359497958],[-0.6832886723554745,0.9696230881242489,0.8814133836423272,-0.7114030913598306,0.024419558074056307,0.2341392217458786,-0.3959222526618999,-0.4835764010378099,0.04736732104937152,-0.3518187865313761,-0.22320211914965138,-0.4433797106629588,-0.22050951139920763,0.2252618418275318,0.40571077384808285,-0.273497805935612],[0.10531884867958255,0.3364393598881207,-0.946527922487061,-0.6940590562961938,-0.39060437476727033,-0.5212419245237618,0.5062811207564405,0.4928714866456309,0.7460682946293649,-0.24652096794421083,-0.3805046021882195,-0.26353415500869976,-0.43508556537314214,-0.534665906595799,0.6722605482198054,-0.2724194042933633],[0.8026070115310412,0.16174403619317834,0.7403340782362191,0.6604237795502788,-0.00919286340329089,-0.03404066988764536,-0.6512036916191869,0.7402050601102569,0.6371320095035122,0.18123277158971215,-0.14602392979662018,-0.49443714453405757,0.8281193509755431,-1.0272502057778392,0.06316770054657214,0.4331544242872108],[0.9946279566428007,0.15491031818950982,0.17985119550411785,-0.6353961012794317,0.2866165019856117,0.6545196067638794,0.5835664695600532,-0.7122689162663203,-0.9329762865753848,0.21615664070853916,-0.4662537323856496,-0.6083898505708362,0.616117916294247,0.08597316419745439,-0.7486158787854661,0.015194982549689859],[-0.17642601861982538,0.5127167200670334,-0.08265429544180655,0.0531557237692311,0.523310342819709,0.8651683309479726,-0.09147979274822915,-0.22691032763208155,-0.5783334390162717,0.7471437382922921,0.34230417397417645,0.8001754638305462,-0.7498620293442272,-0.18703543327132618,-0.4251724591602363,0.4480026229389191],[-0.9647272987188245,0.293073518409216,-0.5477671747232402,-0.53646182352667,0.20940604891908537,0.4372683679911437,0.8202934390991197,0.42654432571259177,-0.3814618770801105,-0.07374837335781492,0.12217747585002733,0.9351848450170529,-0.7889130951655792,-0.7989421967384239,-0.05899961025757861,-0.6118249948028146],[0.4034311021418397,-0.35378206526467104,0.5577546182101877,0.016729014611860982,0.02155789055058974,-0.3698743573413704,0.43823469268183435,0.043901093823902386,-0.35360163221617097,-0.0456473155723522,0.6886767593717443,0.7420616361176428,0.3289330817863529,-0.8781877167390755,-0.589000862699397,-0.6731312515736787],[-0.9962765072513194,0.7169109192923295,0.028748799177047372,0.20594643425192938,0.3601394253805542,-0.7094445814747334,-0.49756449401476555,-0.5454654102558462,0.4379619181556874,-0.0785378960863243,0.12919730830922715,-0.3537648408812397,-0.6474064733881191,-0.22224867572543427,-0.096893915821322,0.811522357904947],[-0.02023676504126592,0.629663082121319,-0.298725907744542,-0.599795923828268,-0.5947949710076759,0.6523143460988763,0.9582895189628722,-0.20679430708272198,0.39913556333525047,0.5379384549830083,0.3158022580093946,-0.4493677409749157,0.07535915404387854,-0.9445705785376819,0.12115737154981066,0.8121486250233013],[-0.5769800745786372,-0.15715601843703814,-1.3159059822626598,0.19476874632490798,0.07996789472323837,-0.3249689922420126,0.39226659393313595,-0.7044794235900262,0.7396716805385422,0.7301285272123935,0.08744804601969008,0.8401774862790714,-0.43338412428145046,0.1904687716213456,0.8348601106871982,-0.02016192449749392],[0.046558558924023184,-0.5345430699442076,0.6069157273408152,-0.36826839010490314,-0.4331770155150969,0.5320827859314055,-0.1383264553167378,-0.46729674811699046,0.24590435912508019,0.9918842465133522,0.338533853555848,1.1236985122846046,0.49881496720210533,-0.9492587872832615,0.9463104481733557,-0.7326265126305035],[0.6841890718161812,-0.7459873016693765,0.12010139858553974,0.46558270129411367,-0.6471213092782138,-0.23169012927574575,0.30007522038447915,0.9763324899111989,0.9186127088494669,-0.0745741095672644,0.7858432842288094,-0.2224421700831366,-0.5632122344628193,-0.22400164157498528,-0.6043731030345405,-0.48261471869715744],[0.11292990096194643,0.9599361189802094,0.3339636668891257,0.9155225693030888,0.08603872031412318,-0.9750581798863075,-0.8165018794431496,0.6922113205464708,0.27599102357121746,-0.1713541767878616,-0.12815391257137926,-0.5080557554021525,0.32588847388514697,-0.8959662685430227,0.7059902681306155,0.08279424059567116],[-0.04720365044749491,-0.028610519808757333,0.20302535188260518,-0.19571378758403715,0.011688134091560078,-1.0732773450776183,0.6587614916558835,0.6229497746980868,0.307894109240942,-0.4696037268533241,0.9953573951333426,0.14348375470155186,0.07390780643935806,-0.764717122175761,0.8278791256049921,0.140483737713412],[0.3108193601859645,0.8642248975268126,0.9206608253455993,-0.21665423994486882,-1.0830119196376677,-0.44647650968489144,0.06059963758645468,-0.8401189993422332,0.5253810470151238,0.688017275379393,0.17921004997185808,-0.9008515331086592,-0.5335990994492226,-0.21068949240639995,-0.3132157070383563,0.48768228270849096],[0.3309319875681659,0.3695639836790317,-0.2676045494343303,-0.12547312754680476,0.36368387798499047,-0.1263831896600135,0.8081936982593163,-0.4559388762405504,-0.7402874969858233,0.3317491848356506,-0.2087066369498008,-0.7974330737915017,-0.9521380305392362,0.5848288440027197,1.069087957506224,0.0047509890521901235],[0.5847669433327851,0.3184322861501111,-0.15017104405897136,-0.6851544038197083,0.8618059934995085,0.15902121171012173,0.6200878003835736,-0.04551130008213332,0.5357783074470747,-0.4976681563899533,1.0922080806146766,0.5274829077801522,-0.17700846240921922,0.621252375055616,-0.039274916230515135,0.6157489211787207],[0.14519542305231756,0.19300408318979886,0.82349859728923,0.9385833210086542,-0.17056567970166794,-0.5787167508734968,-0.6151852196881163,0.9008162283386386,-0.0004941616042754765,-0.7065983894951137,-0.9319704776373265,-0.2381335122850005,0.3154335868543688,-0.1112197503683712,-0.7302974019304765,-0.8776223103289286],[-0.7070451099303918,-0.756089735456927,-0.7931629476462106,0.7193511548305089,0.07106560434984527,0.5856305256483151,-0.1397305272762154,0.340313970249757,-0.02311850369682245,-0.4559675131545379,-0.20128721581188405,-0.5173151541757036,-0.8981084358382554,-0.033039176548859385,0.15264227892668084,-0.9778475725156565],[-0.16390518800177226,-0.29945913632711646,-0.8888979217759967,-0.9073863226624881,-0.5884387221931263,0.1761456732170198,-0.44029346676108627,0.7105549386763841,-0.48864392200307016,0.5965005913831702,-0.8368124462183933,-0.7932473043907493,-0.7316002484235361,0.7403298892398092,-0.7445191550925702,0.2992598071597363],[0.35989116403604837,0.3708927402058268,-0.8585685529614309,0.27945585853939525,-0.4495678601790867,-0.7278043771048002,0.18300684867166475,0.7650428104102056,0.9120169666871679,-0.20513446490089066,0.5109752621411354,-0.053916105309628176,0.9585563268536739,-0.720077844177684,-0.8647840290282925,-0.7646667804627985],[-0.45189973655860366,0.3959708480682826,0.18877323064830287,-0.8616736308859111,-0.5360904416436637,-0.8474087818809071,0.8929243940289071,0.954933055382943,0.11036134940467986,-0.36658595291250323,0.3889748260326165,-0.43153836512819366,-0.5274189517653759,-0.9285866102825674,-0.6047451764668728,-0.9020391189271947],[-0.1857910603164321,-0.073485707686754,0.028271107440218844,-0.5491582666497158,0.9513900026533174,0.08505012279436822,-0.7330316101959116,0.4926839791485933,0.5487842834831701,0.959632384747614,0.3154487319266135,0.1391325997668901,0.8075365501974396,0.843074790071854,-0.41832268032260717,-0.15503921416800084],[0.8761808890272775,0.8474360405688341,-0.3369498734068823,-0.9434812376012472,-0.49924872978555446,-0.4058681136955824,-0.7410284978062979,-0.8709750742982025,0.7970717464560046,-0.2709216770114944,0.6624683689616939,0.08901892746287343,-0.04023215595643603,0.8683223910016578,-0.25057765340925087,0.3149812814383681],[-0.03379366595009048,0.8977340599045782,-0.09184189936697573,0.45180248816115887,0.320348612647666,-0.3772701413264825,0.6248632537316825,-0.6076087409665849,-0.4997813149819995,0.5294449941857928,0.5631733469493563,-0.7947383214695092,0.3513254836906332,-0.4572989574900358,-0.2809487019111163,0.3016365698080681],[0.43746985189498866,0.22745679189798262,0.5706616693971034,0.6108171612074678,0.24805778975042414,-0.5508149487668719,-0.16880456878282346,-0.9185466924302963,0.27090969368392126,-0.9445531135166777,0.6557075612506398,-0.6851088039973325,-0.21826196052984426,-0.1564921434766111,-0.628172482190734,0.05146115880993252],[-0.8672619738833751,0.9815883065493162,0.1279879861388119,-0.16536349344161502,0.22313604113481608,-0.2380231146206969,0.9124185274273077,-0.05882459843738335,-0.12567186067947833,-0.5665025332416808,-0.8250702672089995,0.7931734697435856,0.8677866442329406,-0.25248702476378465,-0.06712201921542055,0.7473508526543955],[-0.03985505289503912,-0.5133211847889725,-0.6962641715264941,-0.8399640542466308,-0.9952330772143754,0.7919187907618935,0.4891273180045827,-0.04666749428281401,-0.3470784030540986,0.4526656574175549,0.7612015794289992,0.11264118324231592,-0.1865326419819372,0.41237166603634595,-0.5352514364630876,0.7251874282033054],[0.5091729259110658,-0.9634990487569942,-0.22033075311447253,0.7401244005816033,-0.7461256266171842,0.47425241399231693,-0.23245802404485666,0.1650031261720868,0.4901674832417598,-0.004922305288543475,0.20946291890893404,0.5954430882884888,-0.48187364133874544,-0.6765032869648362,0.66247619042028,-0.26997915495830394],[0.9258765065833221,-0.012871396777126027,0.508639756560799,-0.9395710449030025,0.3140137659587184,0.9614202486467937,-0.5577239635794439,0.16939099146481082,-0.8075027376651427,-0.27572510962753205,0.3744914918613967,0.512676412390465,-0.7960274873093992,0.07852823981078799,0.01110923039064618,-0.6359316689222924],[-0.1280906147436288,-0.5168734988994605,0.5311450325328387,0.08942459151043719,0.7583812152139509,-0.6460227432983533,0.5253678617665917,-0.7114589986800148,-0.6504397312714802,0.5673007153461943,-0.698167464676312,-0.5828719462559792,-0.345418840784292,0.4552676063498023,0.8716294431671223,-0.8053287413910498],[0.4358647051859806,0.1306571522505103,-0.8241293338038103,0.17038706762308295,-0.14616305457043574,0.8630161234557221,-0.5168740026111557,0.8920135274140171,-0.12364329481705881,0.6501326576159773,0.8866520371790144,0.6833621219263699,0.4075310869458466,-0.14814878804388876,0.7865538695065554,0.5251307376374456],[0.11293258851902964,-0.2549586233801046,0.39012612032387994,-0.5200863968935684,0.05326766281110751,0.7073992794476119,-0.7896386425250567,0.02784738980337734,0.8175313258236317,0.1350766368558012,-0.0013904979509624267,-0.10735740857304199,-0.3494744363921256,-0.6891908183301023,0.691564493838609,0.7122061381306701],[-0.7754999420502521,0.5058687093533254,-0.7080053429109244,0.42509531021441355,0.17297425785640447,0.36321971429558836,-0.7030501010223206,-0.8059973663233723,-0.9496411473110504,0.2674475963179835,0.9458957498758601,0.14515433797680702,0.0022572513759771223,-0.486359540560241,0.32400185145013616,0.3051477007978589],[0.08123347329468214,-0.25991895537870807,-0.05978890177329785,0.46723361544663816,0.7579765250728375,-0.6091468315155693,0.045334729330767556,-0.43257703734438435,-0.6345348644881209,-0.6714349611418585,0.5881133856541447,0.688409555244014,1.088952056716496,0.37296718385994926,-0.2825351483673771,-0.3726327360432339],[-0.8206485858141529,0.565938050214833,0.22607074012377523,0.9716235680817088,0.24307807769426054,-0.7343081319800666,-0.9561783644384181,-0.4243820866109208,0.697526795573073,-0.20710602491042682,0.77067160741445,1.1598460480850943,0.6805638879592004,-0.3668276399760812,0.3689415893090991,-0.6627634036214471],[-0.42999097087231414,-0.27819311715897765,-0.04476048567726209,-0.12486603855458701,0.68449131270705,-0.677036150064377,0.06220623814649639,0.9459690821953134,-0.8620834702875253,-0.2745919363168025,0.42933307036589424,-0.26053422262944437,0.6132254509044851,-0.640182435565412,0.0853228948983031,0.13173724931376016],[-0.19114757660057607,-0.13256781170907755,-0.008650027204930235,0.603787985399018,-0.8542261624922859,0.5298367226085798,0.8163026120040635,0.8805786065096494,-0.6177335097973367,-0.40078678178580507,-0.24072415338088524,-0.2348362630505804,0.8852487196864365,-0.5827935507749432,0.10161246585276706,0.28163996495947347],[-0.9583788889242169,-0.24369882624927022,-0.10793699859596058,-0.5130385453466001,-0.3404717809784921,0.1784631501389624,-0.44306089707193097,0.6122868727205106,0.6948336188400752,-0.1491737048739834,0.3455589791195324,-0.28439087385201417,-0.12701849679877145,-0.8657881960101,0.2892958018980773,0.19578595643469007],[-0.150894535245955,-1.0429138396303972,0.7891663146865231,0.8365983694376496,-0.5221215070018148,0.5185035292143891,-0.6879669602337056,-0.20575506823746842,-0.9186589227691344,0.5190222691319716,-0.47094559055884677,-0.06209784342717172,0.7069088041367141,-0.6257098011017723,-0.8115137263743271,0.6164764263014858],[-0.2976569997304425,0.8577401411350457,-0.6948366106124767,0.47508958654918276,-0.3231109245064368,-0.09684424564756332,-0.10633869737874499,0.7993110586749813,-0.3073550951680466,0.33774100271829693,0.638730719749268,1.3089965712814984,0.9514776771910386,-0.3170095880293336,-0.23156608950246282,0.6820858463971372],[0.48655167930193793,0.207566312528753,0.8901914202218635,0.42379967721200773,-0.684462490496092,0.4059149754300181,0.4293938053561604,-0.7969293991086772,0.8545939239647433,0.5203367932758632,0.7995433762440154,-0.53497966773859,1.0628238256380953,-0.08715870643853979,-0.9217648390717064,0.8048390432167345],[-0.11891239574863488,-0.044835016105817145,0.7448834664004749,-0.17239738854269412,1.0353657776301828,0.04842738337626763,0.28175818073311265,-0.31595930113105486,1.0239585931669761,0.6512366097737382,0.14458437662976806,0.7565139277017473,-0.637423153206542,-0.29998111693122353,-0.06725570912411748,-0.8730546840221785],[-0.22378933098800186,0.3964497188205203,0.4733526800409794,0.5805587256705638,-0.6334228593527564,0.10162333976578788,-0.5266203567738438,0.28875168069172513,0.20725418589356728,-0.45502608233804115,-0.6702563383283981,0.6859483499784168,0.6079158446482503,-0.3214077690304211,-0.7355372485024053,-0.5048742637503533],[-0.20954391864889432,0.1928018613751056,-0.7048715653333893,0.47541904366446297,0.004487318681305081,1.0074794987741067,0.38596652333588166,-1.0443862289815506,-0.056495052141633334,0.5273899493160986,0.2312625645013236,0.25355138754428563,-0.014260182982651972,-0.354970369535583,-0.7997757619026666,0.6766075895508762],[-0.7704885603803242,-0.8809584995570486,0.6995846814117516,-0.3815224656833097,-0.07617890305517439,-0.8243715869792732,0.37016285731079124,-0.8530166801326723,-0.5910114041314364,-0.4126769657348734,0.14830555743393942,-0.25297634574067496,0.3231907972570298,-0.07006998423663063,-0.3825155533555461,0.03121431984045406],[-0.49837345584722204,0.2467057635776767,-0.32893503384204814,0.9121383821749961,0.6914503384454772,0.7535566758699801,-0.4608386179597331,-0.946219961015292,0.8704606023270322,-0.8836069185217927,-0.18450204777054544,0.20371821948287222,-0.9227532615713517,0.868549266145357,-0.17152022604983497,0.5054700503171964],[0.5420132079284977,0.4835124259675275,-0.653454560406558,-0.2796557611249449,0.6210776457763821,0.17460720455389053,-0.35158207386512513,0.8343739659328796,-0.578088095539941,-0.9275624876345625,0.4461435749592654,1.0679887118986744,-0.4792294024964093,0.9899735476066206,0.5872892345181782,-0.14843839355220134],[0.3140043441579915,-0.4529121594445919,-0.5670525999293635,-0.7001255038862851,0.24096392743421507,0.8794991098615734,-0.5305658440493551,-0.207950202505947,-0.47956596945834107,-0.41494190119123947,-0.7434794756229618,-0.8507209690288744,-0.6172326951411305,-0.12476430319868052,0.11934739354019852,0.09052871284760013],[-0.4199360694277321,0.9493715135731549,-0.6268714211320613,-0.6088787905927268,-0.3167732908269088,0.8601914257932279,-0.5610944476703892,0.8107631645988824,0.1858414040035101,-0.7266836191853184,0.8832773706153582,0.24764805001572296,0.8520192775502078,0.8596851601114429,-0.7333346820507842,-0.2673106873671252],[-0.7895533914455797,-0.12534794747624503,0.5572209751222279,-0.8180288640670021,0.24574916073732514,-0.8091856413214847,0.9218829748319688,-0.20842866737737628,0.4831246791960233,0.850721076467831,0.8379613868536112,0.6048882553545133,0.324217490727603,-0.010669272961830994,0.5977114763694457,-0.07551356764062077],[-0.8476414493506967,0.7710023009083244,-0.7865940452490905,-0.785785008122113,0.9691972024595352,-0.07867297394139361,0.9214700646332792,-0.2806114429983364,0.6450600110204239,0.8946788422272909,0.1885109260624791,-0.7969750155680697,-0.1141089615943418,0.30900773187587394,-0.3697217383280963,0.7125445798563512],[-0.44736101359471725,-0.9468902358537961,0.4790184886562725,0.7710467696986378,0.5834660081115859,-0.8530625104219944,-0.13147194177446508,0.9156463965380781,-0.0660784324007474,-0.4708101849401417,0.5926795488189345,0.6438757915254103,0.5367909602526533,0.8260154592925755,0.3104465228088418,-0.8635549218689813],[0.0031655891813178183,0.11018722649206736,-0.9591871136609404,-0.3598351531475015,-0.5397173061686182,-0.349351421626914,-0.6637124613224121,0.8964080791438036,-0.9452639091505035,0.5167106601953091,-0.42584037195231783,-0.5453459506599911,-0.20947016086870351,0.8347416593854975,0.6180494770491727,0.8804132537359433],[0.5736433449017543,-0.4761441840852518,-0.9664050746386046,-0.6833130627277311,0.8533178198384509,-0.2583807476452451,-0.07507715245356918,-0.6646034835257374,-0.7125931935841905,-0.8521824079956567,-0.9004501113799509,-0.5926861269479199,-0.2490352466428035,-0.8469344622747531,-0.640716748772399,0.9096827551093407],[0.7653498882761506,-0.4225145196066241,-0.3160013193239933,-0.8987676585138575,-0.41714568414110487,0.10151652710276113,-0.2885055951123598,-0.44053812071339693,0.936946209316639,-0.9934706296371408,0.38165690553039494,0.9959732855453115,-0.6759091777070844,0.15149447519946152,0.001331929196123131,-0.36356291971480276],[-0.7094695298799539,-0.5784280947811286,-0.009696550654012013,0.8125049029388371,-0.3257158292339903,0.42928445476885885,0.23800427044310912,-1.0080481108752117,-0.8030303404184417,-0.21492256040169547,0.2976764272778899,0.6083255528222994,-0.2521833041040491,-0.3768951000978058,0.08777853457949904,0.9012586697112336],[0.9237573537719812,0.33456802429348453,0.04530382045806503,0.5420239339960118,-0.491617023945497,-0.5601456175702935,-0.9120679881012513,0.59261894305464,0.8377638249413143,-0.5745048075266124,0.17068951727132578,0.4325273130185585,-0.1422542368910603,-0.8934424178488929,-0.6707553661784615,-0.8550793192391491],[-0.009706085491537633,0.31252065833437964,-0.7647903477266891,-0.17475594754165613,0.9966432504087772,0.1074005479703637,1.0006538435804495,0.8717712537230317,0.5473914948385895,0.6196857911551186,-0.04976366109594708,-0.7816639341805365,-0.7285921859005022,-0.47882250516471436,0.5880120234094285,0.7585590135875555],[0.3251182709710492,-0.6290196803674087,0.32275379201032983,0.3408454208968283,-0.6778519040531396,0.5023067497895958,-0.8641984645786753,-0.35552641357609494,0.09778652105655161,0.6337130877332309,0.6373011776146301,0.5604751121325965,0.5021603799669524,-0.9956308480371175,-0.7737650248688083,-0.5723122368615675],[0.8623968840539996,0.4187478844106385,0.38077283540438284,0.41422006654687965,-0.9109450576731103,-0.17830992268881957,0.9241553951025767,-0.6188520072591671,0.691276071167593,-0.5866209017567042,-0.2262960852792327,-0.7301852068827442,-0.5411045218492572,0.507334041358043,0.9084780921417511,-0.3032922000186212],[-0.6438901762162603,-0.7608577440977556,0.3763676893960455,-0.42776200373559853,0.15156692944154102,-0.012550845066676372,0.9355422186165495,-1.0544088702130001,-1.01829147406222,0.38748490583212114,0.7748524984485565,-0.15039349723646167,-0.29840036265511877,-0.08444455162981318,0.7165657237649256,-0.31016700675445324],[-0.6810928520961584,0.6657346421172079,-0.4808269074698564,0.13555223095956753,0.17867619903120074,-0.09088349483665402,0.6157961748494122,0.11349750952738373,0.9609815806453492,0.8674349312470229,0.7894607347131274,0.2855350556462159,1.0667560562442573,-0.16448471898949735,-0.10285543410619274,0.20610178145639366],[-0.17129772018696446,-0.4170786518634615,0.4308516517209681,-1.006840409610097,0.12415205883274599,0.8088389542294776,0.34715774036286534,0.4546222286620521,0.23892968451731922,-0.19727359879011913,0.8402903576020033,0.18082768533272084,0.16687143639281882,0.14963878773180583,0.857451704187402,0.6747831693172052],[0.37649409997246225,-0.6619130113924346,-0.7900997541105024,0.6526738374860048,0.4087023201789006,-0.49467529911768665,0.808954346430156,0.940366806426814,0.44095314224216875,1.0857591259124584,-0.3210909285362803,0.437301241194015,1.1709430106406769,0.7029468957656304,1.0341838535287367,0.019690779143375962],[0.5811027850585513,0.3273121092798499,0.11852625952487528,0.11024294509175933,0.8720157269289963,0.9026374780592302,-0.6557255883408327,-0.29119911909730445,-0.6225654990662214,1.197824096188911,0.4064744137658377,-0.7676669596275478,1.2019016200175672,-0.016171923890426383,-0.39679362380876787,0.02887154772640632],[-0.41731202460318234,0.4569540656800354,0.10450854951744135,-0.24243603847358128,0.4642486137631049,0.30100387572044285,-0.11653965298485051,0.05008425454144029,-0.9554511560175281,0.6347537752785808,-0.1615425131161305,0.5487572868592994,0.9598560312260113,-0.7036498772925803,0.18825720603211182,0.159825940313302],[-0.2881981883719396,-0.6656480883283399,-0.8551955785710983,-0.6831561417348205,-1.0026492972491934,-0.16773190075197275,0.6526447281129889,0.5181851067810551,0.16922637957384762,0.48437663031864275,0.0758192498906556,0.07622219296258066,-0.3775769564806262,0.26819794577384726,-0.18739042060959632,-0.6961363673635602],[0.45155871369405404,-0.7322920198206251,0.3999415952955321,0.05603722961233598,0.3099232080174685,0.6256452095883294,-0.5332156119283724,-0.05241831129651833,-0.11771690569841867,-0.5583743626781503,-0.6426505350042787,0.5303155520114597,0.48222164877402707,-0.6439677444349199,0.39429166027580886,0.08312644458891996],[-0.34498829650091717,-0.5016372476351346,-0.933410475638074,-0.5416693150431493,-0.1349097873727498,-0.5897058802847944,0.1346508122899268,0.36926890677572005,0.705731866640519,0.4421061058692263,0.025758048626551375,-0.5736716072745448,0.5615285536085064,0.5846977199369253,0.3175441576122627,0.6505394662837468],[-0.48455149168830486,-0.2289718894051354,0.20177731611316613,0.6558790825759881,0.9212148908829685,-0.3304540027068789,-0.15758829636253582,-0.581879614152832,-0.9036353058003068,0.38516892439472394,-0.025677822688876917,-0.999404706457828,0.22560193645460694,-0.2764086081291067,-0.15261366504052543,-0.6394878705700868],[-0.2681677169590629,-0.5700604457573252,0.2952251831143273,-0.3810991716884614,0.9449809537227514,0.6569892191304322,0.7548590240211351,-0.008590666141893622,0.2064870525719855,-0.2099637732349496,0.128966150406349,0.07472351433405144,0.48309818398922644,0.061109112304552946,0.6236904326526475,-0.1689261733536693],[0.07258814338515053,-0.6334852187454868,-0.5185805425392096,0.5375354099359793,-0.5876199588329063,0.12015828343411522,0.7336787842125034,-0.7781775367535905,0.3724192742493752,-0.6878598238652244,-0.4291800813409137,-0.7278900987842196,-0.163302896968267,-0.25681751004848014,-0.2025984145695413,0.27613803670775516],[0.30171574283570884,-0.7436905434070151,-0.6339554951710101,-0.8390660299302367,-0.31428083440064136,0.9522577938867732,-0.4480474356678846,-0.5706302804392646,-0.03553534204795289,0.571809553661246,-1.0690537254734775,-1.0776438264167767,-0.45950906344840226,-0.2966053245762412,0.04413830086666509,-0.4443049651904941],[0.8974248165120726,-0.1346290714730309,1.1667392320442722,-0.2073281576524461,0.7813534592617762,-0.7316713662526592,0.665274534607534,0.7699352349522048,0.8700696920078642,-0.3864130341319483,-1.0594430104799448,-0.5709807484874391,-0.5586387961026842,0.22037090281931412,0.3416063507762994,0.5755223078530912],[0.6404746387483654,-0.8383340719541834,-0.39428116420155856,-1.1123849522765772,-0.6115772413320844,-0.08481314218974167,0.6435484600304118,0.4391646381251438,-0.9384495544637026,0.6305716545873742,0.22895313050757474,-0.05080438186422512,1.00917535952054,0.4283277992395541,-1.1369818858902059,-0.6234256609726863],[0.6391808692955652,-0.6121756351244334,0.4770538782083165,0.2635201136090613,-0.35483014125197887,0.20852672255017293,-0.5931443883785571,0.20629718026991506,0.17147258908810897,0.26863691869739265,-0.8102392053199164,-0.09520406621648876,-0.7904311541655575,0.38705973613453193,0.35557137482554957,0.9364343533329166],[-0.7776828001427257,0.42148105110576994,0.478454457982293,-0.12506484063065262,0.7508897494875953,-0.866533156083176,0.5264217797876017,-0.8521467480303987,-0.4931210123512588,0.6352410511744089,0.08512719830542431,0.1994111939022681,-0.8848917299848804,0.14372212827725173,-0.7014781876344992,-0.6910841702120339],[0.33388854540536134,-0.41171996432312585,-0.6204960580083703,-0.42927957025362967,0.6367126753900663,-0.29885348782654375,-0.3809633473809309,-0.8969942917245235,0.021184998423405828,0.3419281498717585,-0.5746746421214824,0.519314889838189,0.7838099837008948,0.174938625298397,-0.3101853605219225,0.5769444379743817],[-0.047620445010284417,0.8013954163585245,0.3301273721384369,-0.14253877834176532,-0.5036014254176728,-0.4413931423052929,-0.921666795120779,-0.818099937758788,-0.7939640711087715,0.02155321310799223,-0.7535098776262601,0.32867503862268943,0.8530831511938941,0.626941893073048,-0.7095026308413726,-0.8153561661045382],[0.07809644242659974,-0.9619384165676024,0.08364484230226132,0.6307368211591322,0.6287678627431244,-0.20339087080368345,-0.8411593129118715,0.9769183145728513,0.44802590340749626,0.9327303999721679,-0.445256389419202,0.1448868229728597,-0.32861033143876606,0.047909554582047154,0.5606499004925833,0.4679118289928472],[-0.3338331819203837,-0.4647477620582784,-0.032233305756111275,-0.9487718138605225,0.6539847132069918,0.6635621980128634,0.166502389668721,0.08280526897069307,-0.5322668037993213,-0.6470504150013674,-0.5545485706788249,0.7952836313262972,0.3338193154585638,-0.14924231504520513,0.3135476211614663,-0.1712133191391888],[0.6658986416742271,0.950971358831859,0.9624785105474217,0.8181601797271595,-0.20337644141573988,0.9586965992679901,-0.03586656005822005,-0.8430411675674239,-0.8643245857229424,-0.16116294110136126,0.39884673196759285,0.010738246036258593,-0.5708577295292399,-0.37132065251579194,0.3233565710207104,-0.41150764262000267],[-0.07080102816064389,-0.898236134705276,-0.5914246376706732,0.30858840164434054,0.5865063491139082,0.6380069021654612,-0.6773261140016869,0.3513142334120938,-0.693419918858249,-0.2864081024359087,0.2809963695868714,-0.6590558836896683,-0.3307537878036067,-0.5565988627758789,0.3824475368663297,0.9939304734927308],[0.7143671607611327,-0.8622613642539915,0.9274659015895185,0.8919938699473526,-0.9281376735351577,0.7879421074126259,-0.4722104860140457,-0.6272129190919451,-0.28866888423077364,-0.12739865168544512,0.5395021458702036,0.869723404579099,-0.1622633191874457,-0.9672914276977849,0.440910969205528,0.4503049031443328],[-0.26793844527925936,-0.2595472050001748,0.3191706923361772,-0.11075085545977276,0.7721032028163023,0.4733838765305913,0.5855127201039821,0.5602054622925752,-0.2976889678410067,0.6695291422983977,0.12491601405147788,-0.8420328820553842,0.6837268314717005,-0.8876226759257253,0.25536042120218383,-0.5259969550291509],[-0.0973863453809967,0.12107326469398659,-0.2597585323138467,0.31615687485519994,0.28026720821340034,0.772631170109321,0.6125650397906262,0.9625011041308739,0.9383159919178512,0.09587988987485514,-0.7193089361967396,0.9735063296995953,0.7624084811852007,0.03338075343496463,-0.5696119458537457,0.3764195780408299],[-0.8393984081241538,0.6969728827651429,0.49622495187377835,0.718723511948887,-0.35041704906741894,0.15700747828601305,0.8991129311856141,0.10571989188319632,0.7537661433792394,0.5830569125066977,-0.6142827756830479,-0.6250170169896455,0.7475778791866813,-0.3160406419360637,0.9225492179433861,0.7244634444128218],[-0.23589358529540566,0.13343437936699404,-0.39044991893992015,0.011228634012504941,0.42831357845666884,-0.299939239761037,0.4049374178731749,0.8052307401390676,0.7491889939708396,-0.01254732988611108,0.6127443918817007,-0.3350772474583148,1.161383045188907,-0.14619409731065128,-0.43285981220551295,0.2569151911596206],[0.347391413130932,-0.6756833068375562,-0.1911810359685612,0.22874272583287286,0.3262614944184625,0.33963394790731155,-0.6495966904226158,-1.067446167844517,-0.5616281253305712,-0.8810409703198127,-0.9075752855693816,0.6440137071375022,0.7591883423923024,-0.0917849434036885,0.10660367682681779,0.8425935886572364],[0.7764966564565999,0.24310092347879864,-0.1574469082434218,-0.96704837780984,-0.262909181591466,-0.07873092782891745,-0.189236221472384,-0.4866387245290168,0.5122537577107726,0.7148123731353146,-0.6777966229535373,-0.5178298875344767,-0.08428265375119594,-0.13357686942542926,0.6993798515561703,-0.6460635866704636],[-0.4819613900110375,0.5547124175721069,-0.7545182365598524,0.07302174186847436,0.35641065149530793,-0.8112397811183369,0.005869294426242723,-0.6286379121825637,-0.6854648598423078,0.8365015646287908,-0.9783196967565871,0.009374793486565251,-0.192044025292578,-0.15989231371863882,-0.5194738403428886,-0.07910682024904932],[0.7295946368550901,0.8578350833336214,-0.0913670892270577,-0.6658926279784604,-0.627320010482282,-0.1255310792532014,0.9081900753144471,1.1327515465834983,-0.1697237127807861,-0.5855520745406162,0.4192463990166926,-0.8880264381311479,0.7354765878665589,-0.9022482601604828,0.6610160368620863,0.38463050931678305],[-0.22014636137262425,-0.26435278018887115,0.3974692252774352,-0.39523537090926675,-0.4000633996686315,-0.6743761644755221,-0.5275609870171708,0.18882374458646664,-0.4593467452293473,-0.43900805983221414,0.4379448958880003,-0.40663216654830114,0.4978636534141065,-0.9461311339760786,0.6824162083978909,-0.26350118574312],[0.1828536099478784,-0.30371936296837293,-1.12613788802941,0.6501027946544771,-0.45465730403212096,0.47026683030355837,-0.748907284594084,-0.3552754119981173,-0.7030794327061768,-0.4723534645939951,0.7896954349708692,-1.0558899236805304,0.4420532728970753,-0.18627502895572895,-0.006049291040118143,0.09166104390464017],[-0.5196933103395989,0.4895758201698993,-0.9437886862824406,-0.8055762359160882,0.5095855943395905,-0.4941946238795706,-0.42376480588612586,1.0390786678912383,-0.36218283038464083,0.5033099099688444,-0.5842462663546624,-0.26155775260836706,0.46759417841302664,0.9068582686227659,0.6538916084772883,0.3966026100477796],[0.05465377430842608,0.38261157002025575,-0.42072164641004905,0.7652281665056752,0.07392524597854992,-0.27385899584810597,0.35029144821598684,0.17458427321059344,0.8477404475978163,0.2763875720830861,-0.39087558374745673,-0.2711165747575187,-0.5946187366407316,-0.5003306358509592,0.2687073769983574,0.0412257164257096],[0.7012813886942092,-0.5807558280732408,-0.9786871843321631,-0.45614895697288343,0.05881393945246006,0.42911823043934716,0.8211662124915662,0.13358067370302473,-0.3249359740848539,-0.23633035294749968,0.3874104206052213,-0.3464430270755253,0.9314327180344949,0.4211615610228696,0.07222979834025395,-0.14284418853268913],[0.12519317906729008,0.23369821665782453,0.12389084635160247,0.5452467820578366,0.21442313751625372,-0.15049085448583893,-0.13263265711574307,0.23767879944863518,0.6919819533317502,-0.3492109327523255,0.21128585613120432,-0.43790361670661965,-0.7326601175951152,-0.41484301683574715,-0.7724093560145404,0.9027918999225866],[0.1605100664248549,0.8784713652688961,-0.35663703125241325,-0.9180569708236371,0.40587249634528916,-0.6904315811831155,0.1544978792466419,0.32745721214673124,-0.4409291742305012,0.6440315975632399,0.33802838720399686,0.002006345923551657,0.28097345976085314,0.35084522812920443,0.48440700890934074,0.18962780119395184],[0.582015093735546,-0.5344170969818502,0.506538229468862,0.6227673915709115,0.7247080369313377,-0.011217294684223368,-0.5419939083672851,0.24709441787726566,-0.6098559679207711,0.14684609163744466,-0.6895963055093238,-0.20493704886433067,0.6295061041775496,-0.6630593042223861,0.5631672208251087,-0.5624932011159083],[0.5758863945659976,-0.2271348110583818,0.5867689285331628,0.6932787165441392,0.8293649645261312,0.0039799942763405005,-0.10715344866207377,-0.38978160478255075,-0.29992785858331145,-0.29777929547163806,-1.052806684773841,0.836458476164024,0.5135389349573513,-0.5120844375370228,-0.654671106010215,0.616048857698913],[0.7337545154702891,0.303333774932751,-0.5765693635918785,0.657394811163198,-0.47662669720657985,0.6716588711882161,-0.8003704722742507,-0.16054359017078504,0.5351230095556568,0.7219568456136509,0.09637629375157533,-0.4406732915558147,0.23993794275212912,0.5304795081211292,-0.8021545065455891,-0.9330488608444365],[-0.6277671733507181,-0.7303938419631916,-0.7273443372979019,0.5313632972303595,-0.19657420852437968,0.6788695159634702,0.3169598473597445,0.28087748459404066,-0.21136498703921436,0.34937610736402014,-0.17668805182335165,0.9848453823043034,0.15632352156390358,0.25050042953461743,0.4233430841233676,0.6014185132768872],[1.107088874860692,0.272331041344648,0.02234061102446105,-0.6056055583673741,0.16625742296080465,0.5076544948696363,0.45717571791786143,0.26220958683819084,0.17453089104726896,0.1559367612731364,-0.45832044357102214,0.23932843403668977,-0.09538535043879105,0.19441502714789008,0.05397478549741161,-0.5071835125017503],[0.7246988035887898,-0.5701808409118542,-0.9006533484114546,0.35366243982475537,0.5861832299608952,-0.1561747391123646,-1.0354683023203783,0.7095008056707502,-0.556196657996219,0.3902701564555354,-0.5039128315332962,-0.7705191532211928,0.8640854765424555,1.0393678117477356,0.7419582653076581,-0.8040596696256226],[0.31158020013022986,0.4036446186431893,0.5440844011303523,-0.4624628763293061,0.8088951173363795,0.9951753604708146,0.9846639485689663,-0.5842733513020315,-0.5687900412192964,0.8709294601453828,-0.4877262828519659,0.6222804392482951,0.9749476239526139,-0.3380723387434647,0.8975517838037569,-0.5159424320740189],[0.4567042727914781,0.883243438428666,0.19510600430985034,0.5019218067169082,0.07444948233185919,-0.6193741940773362,-0.82143339349247,0.39307471662451,-0.9311300562160411,0.03659851308377302,0.42900427271662306,0.636521073332107,-0.0822481584734669,0.2950501008373772,-0.5522096254756117,0.5102773290185452],[0.2884989517221688,-0.673345018026114,-0.7930196969737391,0.6262284413102215,-0.17680157775841732,-0.4224877978779784,-0.4826034016360544,-0.9322205902692957,-0.7700124344648851,-0.15502615047387136,-0.7762239369453042,-0.9358763498886844,-0.6102914705920459,-0.14624430106312236,-0.8151825702819893,-0.8145153149098695],[-0.9467638651871515,-0.635399288332758,0.7173049683163703,-0.7563646632016248,0.5537931578241225,0.9628227832131803,0.07265233118018961,-0.11350406271361262,-0.7634176459297577,-0.5017550875320078,-0.4387849193335266,0.5497298175491585,-0.2469463809361178,0.02652011372603164,-0.6927389330935272,0.48033155043331355],[-0.7984508239894875,-0.8501843705839697,0.2711871391967556,-0.26930444438237944,0.9826400206750192,0.9709811550516192,-0.8408334624991975,0.3687765418699148,-0.2273828120206219,-0.27436008833396514,0.10948246058149308,0.11722418443063091,-0.8941507170951007,0.9689043438340619,0.5155354870913312,-0.3230949922941184],[-0.9014412782315766,-0.024250693235873238,0.4758913106531184,-0.11498496816181664,-0.07000274690198498,0.3286411206027053,0.6423442639577104,0.8585846946144168,0.6938737228318819,0.14636700065817076,-0.7732054041091434,-0.6326048294512615,-0.3759119887114961,0.4810496111588081,-0.2519987726566841,0.5873960367557636],[-0.3950025162521712,-0.2517091238086564,-0.37205320873570535,-0.002625707324762196,-0.13165898024832168,0.7285581217050826,0.4616721717891737,0.4955268560513844,-0.17895990122695796,0.12828581524049856,-0.21529292861569937,0.8446220684647441,0.02424675712197476,-0.14715479321826125,0.6486067685163117,-0.4407215426078662],[-0.9310988021269518,0.5091725424845007,-0.06868538435057507,-0.9788791895747161,0.49775296160101595,-0.4651172020985389,0.9036548530400056,0.6863179028210342,0.34887274918038047,-0.2913797852865213,-0.287079689796775,-0.16804274125624988,-0.6770798897473687,-0.144016124281355,0.21734965834903053,0.5253745783054867],[-0.7060267611160195,-0.6676585858009249,-0.7047966259830716,0.658550193426292,-0.3214012774621051,-0.2502057728970016,1.0210429261993383,-0.3346560280136953,0.6779104295691298,0.7788887319564642,0.06362577791970295,-0.6954334270676551,-0.30505848063746965,-0.004281191299999302,-0.48346629642335476,-0.12170390813537522],[0.2388305483121777,-0.01663625100659516,-0.36706070937474966,0.4160209245861132,-0.5857529943088896,0.17775716030824876,-0.03721527175860703,0.3238926935437041,0.23615060384130074,-0.9024822405282774,-0.7020900258420478,-0.6395669212777696,-0.10598984488788277,-0.10041166672990684,-0.5089732400151734,0.6274656066134925],[-0.18524347043787387,-0.5141372484935317,0.7261372592402147,-0.17994113792998281,-0.6296959912161229,-0.02454837494165046,0.18577744495143866,0.8295459255141177,0.82986416195127,-0.564057062744285,-0.7693821743994514,0.6225449650140055,0.9288299699296334,-0.23950319855437038,-0.8925078182651304,0.8263312429584602],[0.4928990190828115,0.761678560934561,-0.5348656031284553,0.9041777951760748,0.6375025448224675,0.20120581432027923,0.5494598335628241,0.8123057084810237,0.6338287970273326,0.039989331731977794,-0.6668376490757448,-0.2573165906305608,-0.032596576232541453,-0.12803584661792872,0.12051266734000673,-0.0022340698898356878],[0.16541506046871443,-0.30352972583846305,0.4630308921807427,-0.7828306873961739,0.09469403323883634,-0.9250913347879749,0.1575964386717655,0.18588492423106173,-0.5004602362097121,0.7125782799191033,-0.9633476016615338,-0.06754618599093347,0.7065854691109053,0.4577630746080982,-0.6779595565590762,1.126895667651394],[-0.32375582721679325,0.9576156456717302,-0.20782541510960786,-0.16595277806128653,0.6982314615547933,0.1792772473663889,-0.4386878618542134,-0.5203276678005766,-0.3030817854460898,-0.758317235200487,0.15955714375834912,-0.1684055670102274,0.914541782305031,0.7440492546919643,-0.12729167931331337,-0.5483283983977184],[-0.21062641863006362,-0.3084268782946159,-0.5089022971073949,0.5297521462397304,-0.3165256186468085,-0.5734570988851999,0.16388566181178543,-0.22393034988944985,-0.6386169211054595,-0.17937923033946868,-0.18896405274411016,-1.0452238420027673,-0.8610562947230849,-1.0575630765395412,-0.5744250446095646,0.38973542604186],[-0.3573908409669269,-0.7689292329614066,-1.1248545974393331,-0.4166657964427455,-0.10628237197922238,-0.39061399296297644,0.4082687863603214,0.9218947591432304,-0.8096021721995279,0.799940015939879,-0.7876252169193609,0.009365222914328399,-0.9051444913783661,0.530531694766548,0.6444103570120114,0.23088982524650672],[-0.7250879779994966,0.3846850890590992,-1.2662133414606933,-0.29705376946509626,-0.4551773076371381,-0.29568414112550373,-0.5827085861320234,0.7141476789485861,0.35430761901245755,-0.5335619864976642,0.05034968828975403,-0.7916578047192476,-0.5481437151766042,-0.4943628971477344,-0.4099383802107073,0.13484352666511706],[-0.5962123564537363,0.6635267874446105,-0.2569258318036402,0.19076855506014384,0.801400941256794,-0.3389740581335683,-0.9882450270439178,0.10880695344922775,-0.5505761080208293,-0.7482654054507036,-0.8283666720419306,-1.4299484984437687,0.6313904203495758,-0.9723079114297507,1.3102435781305455,0.42306822173111563],[0.08615401678327425,-0.2217579258904538,0.14878184071983308,-0.8303708892359335,0.900880277461555,0.46371020016367603,-0.8209884386683765,0.10791858626893884,-0.746334620715964,0.5187109893572811,0.02803129540148566,0.5422217777931461,-0.39133361299762026,0.5773296840227629,0.39681061186914457,0.606779287692644],[0.902428361098295,0.06922986632856443,0.10601068461232975,-0.2735411978084742,-0.34586511635857975,-0.5391352440333095,0.9858265748548115,-0.7379884143490929,0.7452983911908022,0.3045027916350151,0.23659752981126103,-0.20111802671999757,-0.37349251420354557,-0.9836149389039349,-0.5698488800686639,0.6263230363725248],[-0.07434148413879665,-0.28980800177961574,-0.48279870113081713,-0.7258142382127158,0.878563270828014,-0.17306279055029783,1.1106864499141589,0.06520520453626441,-0.7033800179516996,-0.7503854955293634,0.46908809711662836,-0.15039014023649444,-0.9029288258894844,-0.4758789721573897,-0.8542288488052949,0.6142768891617433],[-0.6056008233173219,0.7648972532568054,-0.24003434976449742,-0.32450385545699106,1.1074492136689336,0.05052770391811031,0.44813859868144446,0.30635278189801335,-0.20609114399037057,0.5006708062840929,-0.21164314724193886,0.27987673197443036,0.5162772775136626,-0.8740370785547158,0.4157231545008972,-0.12742034861146415],[1.086170616148357,0.37112941798882976,0.4376145997248505,-0.8347991701107627,-0.6795075428333922,-0.17159753140832296,-0.5645003146933263,-0.8753386109713845,-0.33309284877442114,-0.16628766068033787,-0.522801978777105,0.17148415576920065,0.13348612673004157,0.12009372997253454,-0.26734586087672413,1.0336768802572884],[0.20275454496724094,0.10078656973944668,-0.12055246957258958,-0.5153089921784315,-0.6726561890948112,1.0123053510792692,0.1555696930844467,-1.0081302782795478,0.22149667360748246,0.0020398150680124463,-0.5886763030015667,-0.043138343648834586,-0.10763208173938062,-0.11137652182911707,-0.4772328091849954,-0.25145429938382147],[-0.6869739886113941,-0.26984784025287883,0.10165981023109198,-1.17647720669297,0.5438104823787383,-0.6164644063914068,-0.6908004889328677,-0.5924484228192508,-0.7859323758957399,-0.9306348263973252,0.1921242377488247,0.6746232427572162,0.7184014884821555,-0.1475926971084771,-0.2262908003223809,0.7585258584712601],[0.7769542054615882,-0.8032202992377462,0.28396147530445476,-0.6642390904125863,1.0808231607683092,1.0563550153115118,-0.3135681513460895,1.0449320855409348,-0.51859602696901,-0.6695722525564818,-0.32501411797401414,-0.9121408335129291,-0.4342300483802348,0.8303312633412688,-0.8508838122212123,0.29657014231595774],[0.2733147426800122,-0.6309146171319302,-0.5977396213203182,-0.02642938924969006,0.001340175085758467,0.6786309089219998,-0.26282006859559803,-0.21634259699551858,-0.1048678748002142,0.12481029849370245,0.3664128833339763,-0.5459354442012302,-0.9474982187092508,-0.48552088240980756,-1.127074161759239,-0.44157190167763066],[-0.4906738319592683,-0.28024295967259766,0.5861079758335941,-0.7182836865334731,-0.4603972679403302,-0.2582083388294908,0.4245503160006844,-0.32703952146788473,-0.3979645249837056,0.9127061195087296,-0.40867879567055776,-0.8646582546381155,-0.515036424005918,0.8037071449941516,0.0029744906355309085,-0.46461661994173487],[0.5861277629226717,0.2746867881513058,0.444737555870421,0.07787912715517799,0.020680063646517234,0.7887560423832453,0.5978332707104009,-0.14508456130118003,0.9643545728626628,-0.9638247488913004,0.780594268244724,-0.8444114235422766,-0.8519361008271615,0.08934191254699264,-0.1457839717512443,0.9004944559817503],[0.6557658266535802,0.31901769401459856,0.3469544040723491,0.7820903201504099,-0.9771618693960653,-0.9888540059276176,0.26102841145406863,0.30226107095473487,-0.171808456616387,0.2463689387060557,-0.5451364859683143,0.18741136285821502,0.16311464233468964,-0.47948047494491586,0.444091783577619,0.8974616499140213],[0.06067609091320825,0.282827347183054,-0.29570628483579786,-0.8698473292728175,0.32583027394759956,-0.7864183959487911,-0.09296234934263037,-0.7758073228298721,-0.03366596392992227,-0.4367849162951042,0.05737573237036164,0.2833446288869459,-0.8119803209844885,0.4992855198212367,0.030865925844230757,-0.2214932996879766],[0.45599235179168607,0.6306738019451624,0.8704291709086545,0.9903749987550079,-0.8751661092845403,-0.5714172304021556,0.44055450853449013,-0.09025370784277585,0.3646312201703415,0.42828384959365956,-0.6397500609168069,0.11477219064050322,0.29784290589247364,0.7641011379529832,0.6022108042433365,0.026562283797068736],[-0.041788979072980646,-0.2866487433020883,0.3976541280311668,-0.24432229423436086,-0.49918822655926076,-0.7817162808291869,-0.298754334022997,-0.8743555038252294,0.141052091037478,0.5219814290260534,-0.2888857112805535,0.13269980796324143,0.7634217444465836,0.5565480452686247,-0.8563438894677103,0.5343218981032419],[-0.9380340278287252,0.6318249453265327,0.7688870909652543,-0.5645779771601219,-0.47555135900626305,-0.011967387158679232,-0.4998281759990458,-0.3127530583431625,-0.7266035286261621,0.4697547540600744,0.01674037471976537,0.6186396813463285,-0.02799041378746762,-0.9181110516329193,0.6245951006881489,0.27873994195107754],[0.46302015087714143,0.2687366946362434,0.7202417117062754,-0.6495729566874706,0.9833653622329216,0.457782354369185,0.6066828469767632,0.15457943232137958,-0.7185392486804888,0.854351841821924,-0.4312460332290334,-0.4931186395190651,0.6561835568715397,0.4312982546919692,0.33824679675545843,0.9981646622853421],[0.46244691605024985,0.20576649791188406,0.5727418676806479,0.929380957262964,-0.8142533364707487,0.3633441775891122,0.4401871562233384,-0.43500884590881167,0.8903506044354139,-0.8069382749263858,-0.21786750809281347,-0.6927812947864784,-0.21238182928970614,0.7318072663255779,0.8768271416969255,0.8246127547680427],[-0.1586410653836532,0.3682310659201479,0.2829919683190563,-0.7784069397887486,0.782635185943895,-0.43748308417162857,0.4207381852567767,0.06242813203979831,0.559236334016381,-0.12375692907804567,-0.8056747461312544,-0.7738320623308875,0.23658862092297958,0.8130798394001886,0.588282149651265,0.5040911167502126],[-0.3291528764248732,-0.19277053136769115,-0.05124020351482719,-0.14319506977680083,0.7817416443521297,-0.2894758708698011,-0.5889815079354266,-0.027084935233150344,0.5247793940056052,-0.45865655169900643,0.16199203351931,-0.018143013450425537,0.13289488926277246,0.8343473062391431,-0.748147574801891,0.6404003611253469],[0.27240756989838066,-0.6730907046026462,0.45874494911219227,-0.4957381396008094,0.31334823591851146,0.26694045629460994,-0.6616536854444863,-0.3278990204728045,0.6518143035559726,0.23675243205536972,-0.09870161832003733,-0.7022730299666088,0.18887186787472382,0.09486790476584508,0.5152812056765577,0.01522292933464059],[0.8338156507645152,-0.5705280201784914,0.04011608610506317,0.02495356802988287,0.8134863243979665,0.4638136320904478,0.3733609352223824,-0.22780296897637553,0.7948072259637384,-0.4519208282392005,-1.0143732357526987,0.708541141269133,0.6558599392886021,0.15670040432910995,-0.03401609782624627,-0.23476878583931737],[-1.0051241787179146,0.0011331770425450152,0.1769703586206185,-1.0371364299942167,-0.4912051854098616,-0.6833038002418038,0.8047763006012569,-0.0975135097175576,0.46407390095480067,-0.2378187220057334,0.20473821406747947,-0.26266831217387765,0.07325569945458085,0.813496566611911,-0.07638652831468838,-0.6100866138152339],[0.7867176639903355,-0.3877918699834318,0.7620148012989211,-0.9266026061097187,-0.13065210373076938,-0.7579417336848909,-0.6602341341225186,-0.6486877727540036,0.4311032477982027,0.6555682334973377,-0.3258945722745664,0.03044909957425973,-0.22403518241870288,0.25955909171710406,-0.576170762365487,0.7305997496483698],[-0.38701852590117664,-0.349295598773435,0.2850991994803254,-0.4075314333617192,0.8496863937655116,0.45564428937807994,-0.18468312950539664,-0.6826658944220628,-0.21615298111078246,-0.27169042964455903,-0.7259843807762336,-0.7391720418345478,-0.7005958100760091,0.2878516130606914,-0.10656174898133874,0.5169077499582999],[1.1472098331588003,1.0358233943872193,0.618744301764897,-0.8852685238039034,-0.9666847102016489,-0.7551402033285199,0.7160155248608646,0.11710412741529266,-0.03867395945728818,-0.33241964415193964,-0.03472806765665674,-1.15819935036502,-0.8429096967038741,-1.0872081029713598,-0.7260136762279197,0.18809774288005976],[0.9233375708543288,0.2529209200357976,-0.3701920958999443,0.19838562177855892,0.009448158917689917,0.5640926765280628,0.7968565865604399,1.0239391264980906,-0.2742801793781744,0.3484462714412663,0.25741432622184796,0.38763925590392545,0.2732432848956877,-0.016521177146266556,0.3159783148061736,0.5366773946634369],[0.7518683804242674,0.5399115559745398,-0.553197336119092,0.8097357110367046,0.21723939546682122,0.5001800009344252,-0.5821152195308018,0.23701931707441432,-0.7634633869592525,-0.3023544544478494,0.5073227132833686,-0.6218639385764716,0.13673257610588968,-1.3583957414858852,1.0003961865891686,1.1641167833585864],[-0.2943354918536693,0.5122479608595003,-0.6085980008717696,-0.4902814958827996,0.6991105964909191,0.17596048669925443,0.37556075009852774,-0.9835375421242412,-0.7043218468500949,0.26390196456474435,0.02811334496977854,0.7461537315993166,0.730446962849095,-0.8734841827922004,-0.18658020668688213,0.030577834191801635],[-0.6303464388327097,0.40615668200022265,-0.828426114665853,-0.18650115342596724,0.6325464719577026,0.40589546017829026,-0.020978764407962248,0.034417500183335614,-0.027094235799247805,-0.593816555727101,-0.923751661590823,0.5820194464207566,-0.8335729655357196,-0.3705145629217663,0.5753654101852489,0.6234558474578517],[-0.5569231550909893,0.6558795920198607,-0.8188096512821658,-0.7117074705940523,0.06891853411508113,0.7694946087181056,-0.48721143931295946,-0.1999831663288363,-0.9205857965711106,-0.3813298899140612,-0.3421897288781102,-0.05364586452174374,0.14511321572666722,-0.12730474742275624,0.4428777903268088,0.7539856516924386],[0.17793475899208577,-0.37303920412825986,0.5758159863519403,-0.25040643967141524,0.05514350112476162,-0.4734764891981288,0.29199516942077675,0.5555698422280622,-0.9104400089385462,0.06045397079807238,-0.818683817530813,0.42887222201457625,0.41954865583986933,-0.7578034265304815,-0.5441106366545578,0.34010347506512867],[0.3132541605245378,0.26566088571568375,0.17262663086414087,-0.3193890546529489,0.29396541921295793,-0.380862275266097,-0.3030362923406806,0.12179797586956279,0.2832388590948891,-0.788646234681698,0.25156355861561025,-0.02251902979397027,-0.12954280608735785,0.04968875359501696,-0.49290827216127453,0.0981139626285998],[0.18532460767299402,0.37640059658214065,-0.09083600814608539,-0.9219275751285262,-0.26765368049712096,0.2409480488422255,-0.6191287680694799,0.896313721870393,0.09705681845027113,0.5624212955952251,0.24616268929835922,-0.6294604436757152,0.3576754169398681,-0.2107261465446358,-0.5421281469578276,0.22309321955052422],[0.14399209860788087,0.5249569090642494,-0.4123666543371398,-0.04184413768435043,0.13559724465061124,-0.6728253064824448,0.4643967672838841,-0.6738315431446334,-0.4225299222469374,0.7580542753854739,-1.0230380202349643,0.9458585594586345,-0.4651583363636843,0.19584852804191563,-0.8939197134687282,-0.6200853018711044],[-0.8527196784857375,-0.5535147784202339,0.9067591694160567,0.4183656688857152,-0.03761327358491546,0.1897914099456223,0.8709678273562443,0.03410601496043893,0.4631701569984388,0.8580300606960796,0.21078261507960105,-0.8848888015578977,-0.5688295190005475,-0.3269041968599889,-0.5025882223985669,0.04312934124794782],[0.034814343670134196,0.8674323209123381,0.6870889429598795,0.0247022494616388,-0.914892877667472,-0.8152628699137673,-0.9955929639612571,-0.40639905803947557,-0.7813354497089653,0.3819299841295456,-0.2071528378802658,0.0668947413268671,0.8181301319972442,0.1321944061554837,0.3995317990080733,-0.3025829582435763],[0.25208893378118935,0.6735253104560367,-0.4398233953071516,0.6992003579937022,1.0058353511939762,0.11535225553248725,-0.44985437265613887,0.033673237372460404,0.7513747943441637,-0.5434037952385393,0.5344790643442369,0.9508521329157694,-0.6462417805702525,-0.6976838524596213,-0.5595002495748048,0.736890943859157],[0.5463041004312029,-0.5573663310031993,0.2985334637599467,0.12386479524698339,0.039798610215874226,0.697146139564557,0.875171965175818,0.2284447903981463,0.5151934238521921,-0.7929625317770169,0.03971872618489128,-0.8973573884929499,0.6851353095219502,0.6494567606072491,-0.9206235990404704,0.6815243560180002],[-0.8567103994343013,0.21231721025533834,0.08033663457275209,-0.10792435105327725,-0.23847553377900066,-0.27512408107292097,0.5247353732235429,-0.9443560410031844,0.05647728548221154,0.8106904829902064,0.909238912122901,-0.011907437356145745,0.5846868798065403,0.6741646405654795,0.9692365927478468,0.5647157400682177],[0.8202461812207854,0.6326681684959382,-0.403634688903384,-0.9289340516707617,-0.7821423954424197,0.7820559428174529,-0.1783720464441886,-0.5000162398049178,-0.9539047595462513,-0.6868603727114506,0.28598536828261917,0.874604680407295,0.1559892843588141,-0.7597877195618544,0.48386367779705197,0.8330686713759794],[-0.4536156046255424,0.8765188825623403,-0.9295863380256489,-0.9562999676920044,-0.9521193970270408,-0.9426462162083018,0.4040566306448821,0.3726217515850628,-0.696610527824084,-0.6865376610597871,-0.7087723825781397,0.10810301081946429,0.5849175591556011,-0.5817299558987433,0.09880394464319353,0.49977891460805846],[-0.061672158402960364,-0.5236192273993798,0.0944565731232729,0.6686386246801155,-0.9633752432244337,0.7315732342091582,-0.2100684363764878,0.12915980188146609,-0.19505606638713388,-0.9958576179641306,-0.21032148724523594,0.9263276241440541,-0.42517319554215566,0.29128150208764547,-0.31158768565956085,0.11948926401355907],[-0.8463642751577951,0.9256573785871267,0.007732214629565011,-0.39648535495387977,-0.6147036026970243,0.03128922371391705,0.9792554549985273,-0.13903530682874704,-0.777741749825004,0.18071771262899508,-0.8686165062784535,0.6845588762659159,-0.4589016880595679,0.1696059549340415,-0.41897012807347156,-0.9239540370369353],[-0.4734404773708478,-0.8321495113114437,0.4930520758770206,-0.09369697739939983,-0.5011014904766499,-0.26257682171160024,-0.6787721128053658,-0.1530474228972529,0.4032526431161371,-0.33587381194515914,-0.16148402286924554,-0.3522851879306975,-0.8602500134251636,0.7869753940019243,-0.6836002528630325,0.6607279430449742],[-0.3261185715679634,-0.025269600003816676,-0.07264328167051588,-1.0152439378420235,-0.34341504709960907,-0.30674123583152996,-0.2771742316535141,0.3888215991789842,-0.11952205174567257,-0.4705294925528448,-0.4303462532300772,0.06316830940157259,0.4614386786650538,-0.44182594284534527,0.017352246786521197,0.016992511935669186],[-0.8148768142360353,0.6231241658974083,0.757774097139896,0.3886962756167521,0.08328231024985105,-0.08024293612080022,0.8627803196970407,0.17301569922214763,-0.6964001416764884,0.5163619991318339,0.39226670351157844,-0.04112635309639346,-0.3977826094420842,0.40870441085234044,0.2986168437642931,-0.06422278938367508],[0.39045818367898344,-0.22963398281268274,0.7373827256347075,-0.1378440476503379,-0.7835931836902912,-0.4370628148870373,0.556521366115261,0.015372817134962987,-0.5193302199949204,-0.06946061993209711,-0.9859283703240458,-0.6455423512148901,-0.5542611524153898,-0.07749029327243957,-0.5595537710140912,-0.17384628324160661],[-0.2902108649743447,0.01641838007708327,-0.2553728308071784,0.07986153562307362,0.1450483061048357,-0.03176023209308029,-0.2768992102973385,0.8454075910245636,-0.5188693618106709,0.34706865466757897,0.6182976597541212,0.28530218550486136,-0.13490777971095913,0.14633541191588323,-0.02810927896935336,0.49515697817480286],[0.3029747306147291,0.010574785049527602,0.5862913220543357,0.45137524481913066,-0.3769531900884119,-0.04658440024835602,-0.4858647763874574,-0.4244642360737843,-0.7924018358817898,-0.6790340673711693,0.011884449782961682,0.07424945888752771,-0.5807673735307122,0.29935378085336584,-0.6118586915493275,-0.15539849339015727],[0.37539043845216286,-0.32326396126126916,0.10926263826872586,-0.958256764926488,0.7971255688825544,0.5919041608974716,-0.2386925312164372,0.22662227866017784,-0.5985100384189438,-0.7030350606073928,-0.2377038010634459,-0.750657507676483,-0.9869653323103779,-0.35270007308341333,0.19291338675279018,-0.7243408582220304],[0.3325192827217065,0.4798927865137348,0.15350764034795605,0.17001386153137843,-0.48454918843342576,-0.11979436417480475,0.5367630791769643,0.9843072177304771,-0.5293754359245255,-0.43485653534041374,-0.9870828952565673,0.6469818558121527,0.1266235664406277,-0.1463551713045639,-1.0919257779042397,0.2745977334473503],[0.7074797490419618,-0.10485975133627506,-0.15032427901252307,-0.9125873128598639,0.07289653975492455,0.8188320370763982,-1.076435469034766,-0.3082023846175359,-0.37174911233020935,0.005778328873272405,-1.2669794960288017,-0.03462434019726118,-0.35661694233546826,1.2566979791578314,0.15286644132385935,0.28447641315032446],[0.7301606756355051,-0.10455976394205055,0.013905582124684993,0.6270206137663288,-0.27280576958636066,0.8401857292488657,-0.8999183630838652,-0.3542247427468653,0.8058366740491231,0.8442140308260916,0.37166786214842534,0.5086240269612641,0.07962458374971457,-0.2919415988291632,0.6365665037525787,0.07497837279803127],[0.417263689825143,0.6644264538980061,0.24695256890121606,-0.34898256142186396,-0.6167193458857081,0.24214860497507731,0.9235025909765668,-0.6600227450155114,-0.22324328094052487,0.0389098981424032,-0.09648856111998831,0.538662066552548,-0.8236706397484774,-0.4383975936649902,-0.5436759660291721,1.3949058699643198],[0.37573869804211996,-0.5772026328579261,-1.1228686324063646,0.2148425407952482,0.894245263032716,0.8862285378305296,0.2901500864082743,-0.8072578634111627,-0.4786151701198723,0.27918375851749133,-0.10995459420170227,-0.8920741803124526,-0.4662513827433258,-1.0579799799602454,-0.49387655485209087,0.11837258040284598],[0.9716391083717735,1.2004923829046696,0.3805532734621901,-0.369445313452875,1.0071186433506751,1.0164181560459158,-0.2143421062061079,0.328289618576997,-0.5799335697453436,-0.3330186548742212,0.9088596644145749,-0.9301782654274378,0.022455032779800918,-1.045459833786993,0.7324661447432665,0.47040491537556467],[0.08472057199032156,-0.42380792025817404,-0.763327332904379,0.5352428079206543,0.24023512726349175,-0.562980936450043,1.4457818960690432,-0.17862339508784497,-0.12935228573986673,-0.6898257016770938,-0.23231883941684253,0.7140752171605727,0.09772383079345683,0.07779373250225892,0.9141050211399683,0.7815748336794299],[0.8427866973685842,0.6312804660980205,0.6303503078357812,0.5172703947090529,-0.5201021484510021,0.47528798017832197,0.0790395171281747,0.12226543470092825,0.8678690155263331,-0.5410687826653131,-0.5580929520573238,-0.07587782854973252,0.03265441623379342,-0.32548618200332374,-0.43822742041784685,0.06797486240172658],[-0.8776856355303068,0.7443679889383062,-0.9743306862785924,-1.1523461829059352,1.250876912443239,-0.38908992096987716,-0.1848313884173582,0.14860056573544952,0.57337143244079,-0.8824705861385196,0.22584088801589927,0.07558878179543956,-0.31901324092085026,-0.1454090854222337,-0.3675268954285215,-0.17786573372897088],[0.3488751250860395,0.9427087387897064,-1.115945025693743,0.16441008524945983,0.1279779224152185,-0.3883361083850402,0.4857132722543532,-0.9373242076524444,-0.5595836001162361,0.7875136225465837,-0.13719536268621466,0.05300425081835083,0.18956526366109516,-0.1888508768932375,0.5504345097552159,0.6898299571208921],[-0.533359579409537,0.2496191497545147,-0.7587564706886922,-1.0647902068095176,-0.6785752699637372,-0.089100206276252,-0.6403575800381394,0.17359929064707444,-0.9739920296770347,0.5818918329080176,0.3155929788011312,0.03170823037134568,-0.7814589820249389,-0.8302060160000817,0.056471916128519595,1.0900387963574711],[0.04129541582208456,-0.03859046324551644,-0.24358740881381516,-1.1350986295767758,-0.46829010466911597,-0.13340424023304887,1.0264895919519659,0.9640405036425136,-0.6957845629863831,0.15441571845343274,0.4086306013076828,-0.8688718926585492,-0.37792273722486824,-0.0268073888274995,0.47199981710134936,-0.49106350787506603],[-0.06989088730466908,0.40348583570510776,-0.6434690977932754,-0.9022702805574991,0.7310382699517798,-0.7850989226639423,-0.4962190193261485,0.6856781269262735,0.9781463920136532,-0.16464458042486937,0.19847060000548541,-0.25417985846971425,0.9931507730794655,0.13259149264656273,-0.7948371382573798,-0.01973248292555509],[-0.6795878735189993,0.4317675517992134,0.5296976288291116,-1.1203035461191355,0.8522300796650741,-0.10212244998517349,0.2833734797333509,0.7663257551997303,-0.43737757763563617,0.4551292703056096,0.8681083084425572,0.054345660604166575,0.35870886773604876,-0.6666045275211431,0.3218947310738638,-0.16199037834102578],[-0.34291358275616146,-0.20005028923596288,0.5900576960582986,-0.8758637341878853,-0.6696192681418504,0.2612437702885884,-0.6208652504824457,0.22499627647116288,0.9559564048839451,-0.02600309805000994,0.7454885434325966,-0.5915089202222248,-0.3620865138932832,-0.6737335472901478,-0.47267804193315327,-0.2889623942977292],[-0.5956109565538192,-0.9255279636967788,0.7439773059901749,-0.21098381416174639,0.05858500382582987,0.5203505488406486,-0.210399217550633,-0.8498343064904285,0.5998996967544383,-0.021791935059266195,0.5304008852286661,0.9684616318750342,-0.6647526133666607,-0.31107119477782913,0.3337196155615902,0.055735160431610184],[0.8479478153623397,0.9534249435893376,0.7077967923636532,0.647817099302922,-0.11469845711938031,0.1268129549579755,-0.2437361056188755,-0.6992518164679649,0.8920209565628419,-0.00047416472829608924,0.833447007384825,-0.13713069778733455,-0.006585476457413919,-0.8503137239489302,-0.2727037962864637,0.7846708892773235],[-0.6858627451112701,-0.7976824177996011,0.370233540088278,-0.4109079273308209,0.23244966192564107,-0.7247088025558656,-0.9588755560218336,-0.40241174073237124,-0.2037242236999356,0.6032462976047186,-0.6771668801771494,0.21843080923520808,-0.09448400736680422,-0.6060727402896413,0.33553501706619815,-0.19143676263099346],[-0.15756962192225743,-0.7373983336789127,0.5156754981735987,-0.021266968989287732,0.691278341380499,0.156319137537857,-0.19102800807009826,0.12898244059535965,0.6752432413876336,0.6708751619115443,0.3980189641989914,0.057667615339494764,0.4022790400811693,-0.038726018184701054,0.34077537814700276,-0.36320594995272504],[0.06436357919153224,0.6987809658131565,-0.9463412586747804,0.18510980828057558,-0.4883063464132693,-0.11914614941221736,-0.5917587491502397,-0.8579272498486554,-0.9448609115166205,-0.8820061593394809,-0.8346176764630642,-0.46454324874459196,0.1882708909279358,0.15374484924103196,0.9766491834338118,-0.3320614218714719],[-0.7739331910949141,0.5502243754107105,0.18369453439788272,-0.44665291689446307,0.999414084032173,-0.6160137372262758,-0.01275666824495171,-0.8313192048720325,-0.4681255083319978,0.37951914247697194,0.022925067037924934,-0.4571973504896096,0.3356682496719928,0.288140786620855,-0.24430936767033318,-0.6820029210889652],[0.9618145354328604,-0.2802315423028097,-0.6648943239027416,-0.24668695500644314,0.15262808188454693,0.6412130248413822,0.5125071505037831,0.36736628812102695,-0.6081081664642447,0.9209687008197642,0.7056741392400749,-0.8160526391694252,0.06952694344215365,-0.7932663371141945,0.7378959222356676,-0.820681432017797],[-0.20282843746882018,-0.8948445339008271,-0.7311421477750198,0.2821288062634035,0.04669816497815978,0.7887727808065313,0.8240862131694305,0.038593074430206535,-0.46853698074714134,-0.04984687730432771,-0.7617994808215712,0.18177237925970877,