{"layers":[{"weights":[[0.17755814417151639,0.5154314867758338,-0.3361201329790615,-0.02521429724302804,-0.7875242241600175,0.9491107240082279,0.9089542440646114,0.004719048275015902,-0.3920686894059501,0.19102347231983363,-0.09072901452459814,0.5009013086095924,-0.6077125294169935,-0.33176429352339554,0.40479684407114847,0.5317641699368898],[-0.9179560662796517,-0.0050190310017294015,0.17186440395743796,0.6921574891042697,0.007172257177146202,0.20654343962974075,0.3400050081964605,0.01884783293066916,0.9553027972370864,-0.04959457137137402,-0.6030999830007087,-0.19644345678223463,-0.7989415003913183,0.8473601713065804,0.039261607005848465,0.7063857101399384],[-0.8562287845910661,-0.5155051869878104,0.08240716861673025,-0.6460126562258288,-0.4384533601992081,-0.5990610279138484,0.9340334804421446,-0.7633638688192534,0.610014813770547,0.2684884785062114,-0.8113828077034013,-0.6378536464822728,0.5825153577991367,0.8129777050637537,0.7667892956020261,-0.45125928402471327],[0.5339415583451939,-0.34354534621515564,0.26068273152256505,0.914416435134791,0.2111130641825092,-0.926098526421049,0.8510869247145425,-0.4464524627879506,0.11278672288767377,0.7906134881966811,-0.8773151318902686,-0.1972263004617888,-0.8536122058767882,-0.6286411805211758,-0.11138705961005158,0.9768183380257425],[-0.9014485682833234,-0.24414947407513365,0.2552305624146156,0.5826017575257465,0.6688340816967349,-0.5921456066854975,0.5475210303196316,-0.2718732167370027,-0.02619817900760013,0.9602321889066288,-0.6853933100054941,-0.7303838877614512,0.37277695973067404,0.6754878729933351,0.5680054256543543,-0.6405096257294107],[-0.348075885953417,0.04313706096407821,0.5733872827018551,-0.00941233942723474,-0.3229794499105678,0.5372689708775231,-0.9755636835357006,0.812800259242207,-0.6064422110125619,0.3107176773765672,-0.9007880016699378,-0.39969473397345034,0.43483602322397563,-0.45805726361370513,0.06063864522643314,0.6425508566398876],[0.9701817035536195,0.9051847578516159,-0.9735395675401853,0.9021912030420225,0.9341934844545059,-0.04470420491169402,-0.6428187692737295,-0.3245918356462344,-0.9971109591411011,-0.9352288599755749,-0.629093671044844,-0.19810590576292286,-0.9911618018481703,0.5944719107795842,0.4211245362745246,0.17983798551365648],[-0.3959053351524776,-0.23695834597431042,-0.30196170569488856,-0.3558749851565226,-0.8941162796198001,-0.3956690269502201,0.41795447721050794,-0.507337440507178,-0.9826595233672576,-0.02729739575986634,-0.025046959065388452,-0.6361044578422348,-0.04669962033941388,-0.5078921371641998,-0.32829121189578025,0.49974056030611536],[-0.9005802040456702,0.9577087247547269,0.7860895915823474,-0.15452722700057886,-0.7685781269187937,-0.5982363855458035,0.21094543450090364,0.2204041672965531,0.3833716499541755,-0.6660146190160954,0.0880789463818441,-0.8023671870130893,-0.4140972175701043,-0.45301229667524445,-0.25715875497886853,0.7108604245404062],[-0.7258602416728903,-0.20742721539336595,0.08182206893424593,0.7646153968594109,0.9556982824372586,-0.4356083857992703,0.17428140769446343,-0.8486464590992063,-0.9206974105540185,-0.24611363897384775,-0.32782848427436706,-0.5121956837885993,-0.15673606524091965,-0.6450842943252457,-0.9579416708824885,0.9145072437424713],[0.20349296983494103,-0.09094965508717567,-0.9880604343433215,-0.8370550721125003,0.4697186227281198,-0.14642023907342006,0.09141169818649608,-0.7143032912697193,0.9297196808875163,-0.26798770076967204,0.20798943434282635,-0.4787531101511573,-0.5384521621924137,0.19632665496148483,-0.9603589866125766,-0.46962321618088676],[-0.3243420353738321,-0.3865412293870659,0.5080900134090753,-0.8924155868088899,-0.9878824893328745,0.9701578281680856,0.8291430742615569,-0.48692816658268134,-0.6466775255495112,-0.8653805646418503,-0.4548625459218689,-0.13022354577212758,-0.5776050666242861,0.3766699188280245,-0.9720330098513668,-0.0072286990504845106],[-0.9533229600420794,-0.683146594876026,0.15380703152800312,-0.5665887424566731,-0.11458693776027618,-0.11529793269713318,-0.8430726816146973,-0.9223815006773832,-0.026276337460743426,0.034941955951481196,-0.7442035031245107,-0.22620023564724268,0.8022640272054189,-0.14178569388659001,0.15958402452971043,-0.5676850534825051],[-0.6872394893724656,0.9233623584375541,-0.7973575125436101,-0.39682568767891535,-0.49335060524444585,0.6740410782741575,-0.0912050069734478,-0.8675755550468227,-0.4455991580363359,0.9924681214580631,0.5219478809842597,0.5145016869131949,-0.6695745697568984,0.3442021717057573,-0.8453473904381261,-0.9144221953649178],[-0.8169840089124553,-0.8307915133567487,-0.15151620803005816,0.306877894935607,0.7194808012430933,-0.8208292153760927,0.09403975545151155,0.5336202446062213,-0.5214803170047143,0.41204109015503954,-0.6246459258835045,0.7295914831243415,-0.7808323669158073,-0.04253891810893029,0.743648795291618,0.7807191171593588],[0.8225568094395832,-0.5741991100712676,0.6866746124283758,-0.040139309614961594,0.915585564410121,0.20383183714180797,0.37702742562490865,0.06659329639123435,0.22113729232043844,0.41649177084513567,0.7844198438266385,-0.5371895076414521,-0.4490971227405114,0.8883123360054159,0.41972172978321165,0.31022287221170175],[0.8294613258119026,0.0864703064255743,-0.3267641241321173,0.5521576579437395,-0.17301452028239817,0.41994562345554387,0.9730759886899385,0.7210955041093265,-0.6682440683563445,-0.12648156058345061,-0.27359059698581256,-0.673526723717119,-0.68399241272546,-0.612409810355124,-0.13769416377772303,0.5617887059048696],[-0.0526899122878397,-0.6442991698367051,0.34261595147783686,0.12308436870718586,0.2857068540927521,-0.15635265743190085,0.12435475230419768,0.5383311880465276,0.20179179459893692,0.6943308607183074,0.8609557290845344,0.5386892461863761,0.39673744486492946,0.17314664422215276,-0.6756148141229594,-0.2881106656455019],[0.9885281491971241,0.1189883654559909,-0.40534884641196056,0.28275364510843226,0.18833690378271828,0.9607340982000967,-0.8887217798683428,-0.030079520787149483,0.3309169212965839,-0.573806225123725,-0.8604813291972881,0.43289191342559263,-0.21654768344785447,0.13359833747781735,-0.9143308437961764,0.9128898707744153],[0.05264184021048335,-0.23264674806624963,0.6106539115359326,0.5006157250612115,-0.09346926356361684,0.39922177949884063,-0.24009363690395547,0.8945816996947777,0.7968305450849378,0.702649104270455,-0.0631973282728332,0.8929488984369436,-0.5418344054100264,-0.3697649973303848,-0.26358229260127164,-0.6896043893367072],[0.15293347982360683,-0.17961536682192947,-0.84179441157812,-0.9101018467499418,0.9942189957919618,0.5529434995506628,-0.8266387757969269,-0.027799868503492253,-0.41709939642674265,-0.6817219879858765,-0.5138249041111325,-0.5734768181915753,-0.6065391505167537,-0.4166032715777882,-0.9395298436002479,-0.79358576787337],[0.6009833224122334,-0.5623272031370211,0.6833529116973993,0.010506975003754304,0.9165052957444011,-0.060811631875490546,0.9824757538654263,-0.6328480446864143,0.2576318221435099,-0.005679471886567478,0.739656548825864,-0.19079668409693828,0.20427648499807183,-0.6620252969032272,0.4633201749358886,-0.685454729797996],[-0.9330986775146326,0.11940025683464484,0.30219326322069073,0.4508522997847071,-0.4049041547835358,0.3124713140132238,-0.5491732394086073,-0.8753861821607622,0.1448038356121648,-0.09441996789277529,0.4639687889553461,0.021126020243915633,0.7447806772518812,0.18412831201410307,-0.21024210062354898,0.5102886518045742],[-0.053648946366109396,0.8678356864805499,-0.11401301394869245,-0.06614202403749436,-0.21486530788935032,0.3200283093936873,0.6496578611664743,0.3044189928585752,-0.9975453726935878,-0.1996492460368431,-0.7029320791843031,-0.6773006011160558,0.06951350582275229,0.1731579132253107,0.0831432151995335,-0.8292860238949238],[0.3638434556144492,-0.23696999588840173,-0.3191895770464044,-0.548237069299555,0.7968181221731092,0.5059462010422471,0.04518065277728289,0.6858684540194777,0.5947816668054005,-0.8246661563518765,0.1513749692362616,0.7499712909338863,-0.22184993197296277,0.7756129604650721,-0.7856734543040736,0.9611179418680806],[-0.04254902109622449,0.6543099021791992,-0.12142171297288584,-0.5108188220815821,-0.44115694399976957,0.612010088568558,0.7268978756512039,-0.5172631924586665,-0.4444720649367534,0.4831790465317569,0.8307449937941251,0.9499477399280052,0.045719108099918415,0.3492502976903926,-0.5830951433550078,0.9068636241866572],[-0.5029772704015381,-0.2427691254963955,0.9909296827348553,0.7687614512484342,0.9698192411893136,-0.5689268454764629,-0.22985961624880302,0.20479528568908356,-0.055387016877246564,0.7183276767462154,-0.981468911274089,0.7427164473304135,-0.3049121933546439,0.6998685718047752,0.7763487695606186,0.671148444372764],[0.11583954147800779,0.8302281777515208,-0.9469433473176059,-0.4348511842241749,-0.9148605260601549,-0.22749802713631562,-0.4420140513414582,-0.3134370545453564,-0.5475254960113789,-0.8334106122299147,-0.9884832613116518,0.6819597974801248,0.7440086238756816,0.016001108575612877,0.9259162842882407,-0.5116391710525561],[0.5809900768012692,-0.9028261573532718,-0.9883747491931425,0.4738415309571855,-0.7766331014114586,0.21686254405270455,0.6046742394588303,0.8994165081062431,0.8968724105026911,-0.44949606966669486,0.9270396669986842,0.034385770109661706,-0.28948548682475717,0.8707655490705584,-0.45577086669195954,-0.4667575226476218],[-0.29212817423610393,0.21092630886050245,0.1250591637217715,0.1831326145600214,0.32265196150292264,0.18810551016968935,-0.821955592288615,-0.1669464247147303,0.9098398852673546,0.34954840193947234,-0.8914942601190388,0.2870373266223061,0.5586586769477737,0.7394895692074157,-0.07501758126309965,0.03364816914948077],[0.46795248494853836,0.4065493668460052,0.956269651631019,-0.9891406660848953,-0.8972269622130445,0.23016152681324709,0.30546746929430757,0.3149238989292289,0.29029745202991064,-0.1718485072124044,0.459687801757682,-0.37065325182427333,-0.7004362203648482,-0.0927764694638441,-0.7139800618002099,0.952340643830756],[0.2854502523715843,0.017370038208258443,0.5146528219406739,0.8385200825699233,0.8353145410471199,-0.3417914823357907,-0.2906464251180395,0.6533141386012147,0.10511488053254547,-0.7801962801163067,-0.777585007146739,0.20059916805503852,-0.7952686565906129,0.6105444056962357,-0.29301580008725436,0.2260397035749815],[0.9064698218863783,-0.1679213322549692,-0.6788826061780018,0.569300960548828,-0.20437332391942542,-0.3935596921451202,0.8158006052560176,-0.3277072745038696,0.11414838634158886,-0.5956234706545358,0.6739470277325934,-0.6367540553383315,-0.12899156060488504,-0.8352013257496065,0.04518937833848846,-0.347257349336174],[-0.01936667273722903,-0.4095891944177399,-0.3480672712195978,-0.5766858596246158,-0.4984721110660919,-0.9871119335233756,0.5526205643790869,0.14066789724895168,0.6366910727865487,-0.3920368521437221,0.5822523141197173,0.9179592718919549,-0.015413203749532478,0.3607369052994702,-0.051352715609293775,0.678614204599808],[-0.07883338799215758,-0.40959121525664316,-0.1237642515125844,-0.2588876810628809,-0.3662525649534828,0.17104021322355234,0.15082573368604515,-0.8261735344789455,-0.7916042205291642,-0.24811291174101452,-0.12173463724199801,0.8575031945219621,0.7164354392233011,-0.705961118364776,0.7821938192266616,0.7811731187740558],[0.5967062030368683,0.14640892207779332,0.7936293849276612,-0.30829127922068406,-0.18190816328722098,0.15517256289833703,0.01673057464181042,0.8378412131887445,0.921443994507418,0.10553695474685588,-0.872765307238306,-0.39713398906681985,-0.033434079033581414,-0.38970207904843923,0.5989885126321599,0.1285130601508158],[0.2678423294996446,-0.9438726802187145,0.9040312371385686,-0.2664411900014722,-0.706429400415158,-0.27091356085524193,-0.8594710685250092,0.873329806557721,-0.4764221778093754,-0.7568854116923717,0.4024530600030015,0.4866752004721374,0.435286068627224,-0.4979279242373503,0.2171816676759487,-0.5860800639472586],[-0.5802334709610596,0.23664022166937526,-0.342547488258691,-0.7283594001462351,-0.15367673850442495,-0.8761871627463876,-0.026963969701754912,-0.9493237525578923,-0.7055878660092747,-0.5968739361721053,0.23094386930307156,-0.19932035056063585,-0.7122758366958367,-0.6182669280248405,-0.23086758039210495,0.6978137026917713],[-0.8701322008852328,0.5883820452157381,-0.8217596947509118,-0.569125464982766,-0.007490611215765314,-0.6713659106463071,-0.11648145650526007,-0.0782689184295516,-0.15197868010309282,-0.2477630052815843,-0.7413620596070318,0.7148518239249676,0.7781738642540109,-0.6697294504046519,-0.487582154186028,0.3279740463056777],[0.4288944990377149,0.703031494656272,-0.6039672518288857,-0.5947406949804929,-0.6742421301032508,0.4380147866423989,0.6611450028367032,-0.047227082234812506,0.7403917554675115,0.7091665910813157,0.6432882050264592,0.09345659148994435,-0.8745106648395063,0.9816904325178077,-0.17727507363060255,0.3346434992356828],[-0.594905292996058,-0.10132427203010644,0.18111026050412213,0.20158965445988594,-0.20342668468595032,0.7830283051430382,0.4930834953180583,0.12952090396155003,0.013157174288930153,-0.3810766176347562,-0.30204467779614363,0.06873001452984935,-0.20606816251046028,0.4848554609232631,0.26532305603540246,0.8492411357382711],[-0.5894121444902887,0.7548706627940759,-0.556571715226917,0.4163831910219133,0.935496177935354,-0.8310133936827461,0.427767659005587,-0.2985642418851478,0.6080064357221763,0.5740351787622509,0.29201464100006946,0.8682424458097407,-0.9478246735569985,-0.8780261540582219,-0.14889647168784262,0.7688443111581834],[0.8632486548475153,-0.1674198910693961,0.805262414117405,-0.9484389133060526,0.7073431449971989,-0.3623531758113429,-0.49093441962084156,-0.9009770706960757,0.27442762095288664,-0.6470141986285975,0.06794994997747593,0.6937990948907737,-0.9682053023826213,0.6641033852655442,0.6970025622545448,-0.0577331694467692],[0.7103631866838832,0.5411887856695977,0.8062341293594809,0.5367795820207284,0.2919892339632277,-0.25103756979197445,0.26844129145751316,-0.005235344691516469,0.2502062625151032,0.18181153631005464,-0.6506841705038929,-0.42473554520326107,0.6329564430072584,0.3798739122112742,-0.10366024542940243,0.9028417939326469],[-0.07832753141042127,-0.7395354121722786,-0.23762079216716303,0.6621942055124468,0.7987510991212157,0.558612164229815,0.7725935595759453,0.009560698816347562,-0.044475074303190115,-0.4865344594973432,0.6256378419113928,0.37666405996981916,-0.07713111423258465,-0.13280747188777306,0.1486351960778948,0.659976651604354],[0.9595564746820991,0.15557839983259603,0.8163769502576214,-0.41654429669000087,-0.00729881784490292,-0.34851736703774594,-0.9447843938835625,-0.9130739537927649,0.9481324147942304,0.6651903886032746,-0.4015408351943216,-0.13419169229057307,0.09194775997168161,0.9980091905487256,-0.984189299371273,-0.8724129328452499],[0.6141204788900341,-0.6522161585886881,-0.3587652586842626,-0.8214659010773567,-0.7162552031128882,-0.34980179695448316,-0.14214115881889344,0.8511482856562723,-0.3051515648037881,-0.8555753169231851,-0.8582226792714052,-0.703213374819093,0.790813089428897,-0.43181954465954986,0.17053142493948373,-0.33494730358172764],[0.2683368343060941,-0.6386511645559088,-0.41325363768983997,-0.8331895852752499,0.651487313070343,-0.6667098365752232,0.6557316787530123,-0.30147384278522965,0.6912312931035409,0.07819150275038501,0.5671363525669533,-0.7695382068195554,-0.3290364400385347,0.2537055066383913,9.873989319424551E-05,0.8615443691651141],[-0.4234614151899343,0.7290421874775612,0.9614777344856245,0.5195892908736315,0.26304363412349135,0.8227414350704134,0.3671473859716331,0.21343897432491069,0.9494780302982673,-0.08321919871994542,-0.5687133412223186,0.12179478774175553,-0.7383212675422319,0.6502394488645538,0.8361385435173563,-0.4799771292827185],[0.660723323906797,-0.22978396670426984,0.3830124073054925,-0.37547976879089384,-0.053039795327839354,-0.6966442024566578,0.28702485770230723,-0.20000355362361086,0.5228240372460896,-0.1178781572935764,0.49666039622233915,-0.5642474464447925,0.009345890337702502,0.7070903116244027,-0.91746466095391,-0.7077038280324086],[0.12068568315388895,0.6066459853233053,-0.7611030916502248,0.20356698855923816,0.4012786389334493,-0.05495345734756141,0.4595498170049628,-0.812773245299595,-0.9249440906219856,0.5454324463128264,0.9707570755718076,-0.13809905812987078,-0.6864144754067131,-0.061487534577719605,-0.865630022187545,0.7913200528320483],[-0.34054703979778433,0.1378963948869596,-0.8936765603226035,-0.3743113909728413,0.5377052098222568,0.5611862929357152,-0.039446298517028966,-0.23039688879176834,-0.4280857310761166,-0.8795368931626607,-0.25049174448963807,0.12389681820007814,0.28338634189375966,-0.3963208568265293,-0.3104916593574414,0.017273141544905002],[-0.7963610886579198,-0.39731465810784816,-0.9285699631686183,-0.44720882803537365,0.7247231843530775,-0.6341934481794915,0.16382039485677158,0.7945926011514814,-0.28765922285973056,0.4408315575871764,-0.4684007789326835,0.6124845275713524,-0.9595328718235404,-0.04059289630530072,0.799134341906353,0.3763347525970706],[0.2105695433963879,-0.6406948955919104,0.811634586104953,0.5171656597019945,-0.15902954487084853,-0.26973302069573335,0.5848719689924604,-0.751856447081946,-0.48844995325824714,0.5274332815443321,0.8690364788607865,0.6970746068735953,0.33356086971869736,0.2812824348366272,-0.2082311730870191,-0.31688795206923404],[0.3827286546038131,0.5840143559426136,-0.9752443954233286,0.45298175674536356,0.2799765380471835,0.8092108032709038,-0.5945397436593378,0.22915027347819428,-0.020635441420895684,-0.05142109331275391,-0.49340956075741427,-0.3182578968434864,0.2592447396643669,-0.7954775541068416,-0.15614038387133755,0.20079141724891558],[0.576574821759283,0.07775868991285506,-0.019473044676460827,0.9642787277532177,-0.7040295199044186,0.009922355883718703,0.9264784901991852,-0.3624329070385699,0.35029948845053993,-0.8032970557935988,0.1696144366495378,-0.30830200729346924,0.1880109855849348,-0.6697389966201684,0.9414766691352598,0.21721889973488584],[-0.984857388765019,0.8755807121636257,0.8696711407367472,-0.7586948106804373,-0.5879235880393179,0.8940721256165169,-0.1108217523949322,-0.1057659849085687,-0.18950103837507826,-0.9551746034785987,-0.06706877195605487,0.7824305229738497,-0.5437221776431995,-0.3367681407075227,-0.7504962923706027,-0.8039029416646356],[0.1974201617750433,-0.3833408734683603,-0.8035798174345772,0.42012936781166554,0.7764119476901423,0.08091066269246427,-0.7156243807243297,-0.06778286167782865,0.6075601864641347,-0.5318622754569455,0.8915492714809017,-0.960553045366217,-0.48699814802361563,-0.36018020816155716,-0.31635391959750747,-0.6219732601297895],[-0.8299018972692555,0.8934246496732461,-0.42012769143103046,0.46265350443434605,0.4142949420094,-0.43204472746329603,-0.1940937280627404,-0.1323209168074284,0.5180050560822733,0.6152796445485575,-0.028690101126530254,0.05280240860432506,0.36823772609617444,-0.404254140986248,-0.3257136053059779,-0.9842996038423384],[0.14110045281290096,0.10154062374566708,-0.6233477246124985,0.09342057960732864,0.10999102569650443,-0.20415569525405564,0.8206231546684275,-0.7546100242783362,-0.5817261140708467,-0.5229468576251282,-0.5161383037996191,-0.6803316276894564,-0.6729421483692444,-0.6737624246970575,0.15110056900936208,-0.547373249916068],[-0.8450987000581398,-0.7144071776751898,0.5827356456506101,0.2218262242403139,-0.29279977248599554,0.10611441090285843,0.2537617793795437,-0.39199496277202533,0.4489448053383157,0.5925657232499484,-0.9193190903956462,-0.14241123882853207,-0.2602859464641793,-0.15790519149812904,0.2843042445236428,0.9714023835774939],[-0.1456680955793083,-0.9250628780208859,0.9734033973320299,0.3370445387749777,0.8490469183800184,-0.8172067405223236,0.7991914793357067,0.988846582184981,0.5504146771643502,0.8981817737788313,-0.6406098619064635,0.11993070775198392,-0.7351793135924041,-0.4215128218413613,0.4952081694126029,-0.3085229910803733],[0.023077348048623793,-0.3341445775073621,-0.3136342488312094,0.1703326124205781,0.8823848563097022,0.387454401875256,0.8131897261305834,-0.40674214055252095,-0.8795225825924914,-0.5777441017342387,0.047974744982068364,0.3294550961085099,-0.7572096054543213,-0.37860364729041146,-0.8725168828232892,-0.033507034178987365],[0.39145623370698374,-0.25330807255584403,-0.33916549336825075,0.6625706082878606,-0.09154738466910663,0.21355487677288698,0.03262035490040023,-0.6125949622358434,0.4735578441680518,-0.015484593823078582,-0.02022879914603302,-0.08953758711333655,0.02729267472182479,-0.19249077044716803,0.817953902914365,-0.32279755764511203],[-0.19392429435085323,0.38587130267269126,0.12541581335850974,0.7540517114442296,0.8525554886094356,0.3340550970478699,0.8685268069475576,-0.16348140582359705,-0.21097809966168501,0.9258251995239898,0.21275890689774984,0.8583029505785713,-0.45632948616170566,0.44763210783413626,0.7561960783620286,0.9621523257708371],[0.917567300489795,0.8911825803331264,-0.5029497385459409,-0.6750571670518517,0.6341648559178329,-0.8051473333163438,-0.6185407608113684,-0.367304037722768,-0.1754429437516354,-0.4875122553840247,-0.014087257828913834,0.32062170559458264,-0.7423225150320183,0.5857376426566694,0.33285260529407057,0.30427360082415283],[-0.23324192627621262,0.7791063024308482,0.18701937349337253,-0.4604776374981983,0.21317136245826648,0.3627926920173305,-0.9890901360996188,0.8420166335393389,0.23895795836984632,0.7317195411399173,-0.12806998588561053,-0.4938801100724776,0.5527143971086319,0.21211793497863993,-0.017129854876575545,-0.6603413200294768],[0.0624625921167045,0.7222084108576202,-0.4980977765909753,-0.9870215660942739,-0.6239003065767261,-0.1297431435943981,-0.3999541189794873,-0.0613605580691883,0.33684221068508235,-0.5709787582776417,-0.3253189400127972,-0.14513514526028568,-0.1812907107313011,0.4977744386808158,-0.7889088691014792,-0.24690499287627218],[0.3881948126256809,0.32863551772805494,0.32470060615413104,0.8674272674172385,0.8646790497142927,-0.4983451597140289,0.7533203093649682,0.9603491526647968,-0.6541772827383542,0.24330005363593046,-0.3544699322251267,0.6560313082558701,-0.3857836243361615,0.050487897863533186,-0.6271986629736074,-0.6964851998597894],[-0.41747555696096944,0.01782846075021278,0.055521641536349524,-0.37505282417694136,-0.10827003309137812,0.022718496485580723,-0.9310809390369506,0.6971287336055932,-0.44313807801593336,-0.6895801293256533,-0.7495391217648812,0.1253644617324437,0.253265914111013,-0.6518258544372343,-0.8562653734672502,-0.3493489943975799],[-0.44969219853126247,-0.6341959203076962,0.7862442100145095,-0.7616502146032431,0.6107237012543701,-0.5275626654931507,0.22692952440604597,0.19426381328603293,-0.3028523026015572,0.17898074558582328,-0.6154612855999967,-0.024426016470241233,0.11513243439628454,0.3885148340949833,-0.798762344365931,-0.10551320391904319],[0.40452962273121795,0.8457752942121578,-0.9733932453918894,0.29283849360092357,0.9652296170218212,0.29257249218199,-0.008753814920135475,0.6717130305846652,-0.9630274129095349,-0.5191407394239769,0.4972090716568233,0.5246933009856446,-0.9747872434592804,-0.9886619329565888,-0.9106081121432458,0.8624347345502913],[-0.19014320766491977,-0.23855797096468395,0.1818328150751324,-0.29726094683962995,-0.7284354416078187,-0.4887899099162454,-0.7676935066092081,-0.3808061270465275,-0.6465376289531812,-0.042286064158700794,0.603197988766562,0.8212102440214187,0.6155631758149246,-0.14831381388807857,0.8044794522462597,0.38267204226592794],[-0.4470242111841897,0.40675717367022196,-0.7864613349530211,-0.11420520120149692,-0.15292582706810343,-0.4800003742589177,-0.5553792186290883,-0.979019974671298,0.5902315458197844,-0.26954989219754183,-0.5036788716773255,-0.6637391738068057,-0.34472119910312704,0.15923133661931238,0.25448538623633093,-0.4225928423910161],[-0.35852326427975534,0.859407235456902,-0.5591449020309148,-0.6924954972485817,-0.9011110990593301,0.6144426523619912,0.2608654065294609,-0.23202663883722172,-0.2164840004603498,0.09372571083214062,-0.7610243514043669,-0.17899364448410868,0.6625221068741577,0.15175050724275066,0.4650904083573492,-0.539259205604392],[-0.26370529938223725,0.05902970129027384,0.7189058645324108,-0.32084706667336815,-0.9513967458646406,0.382982762610724,-0.26006193664088306,-0.7285006354151655,-0.025313124934101896,-0.25072960986673437,0.19436811456446612,-0.4433143129405151,-0.6603156962345567,-0.5354060987459751,0.20836900912642098,-0.5625846942987685],[0.7331995069760693,0.6005264407367731,0.8790620814115103,-0.03925051829197659,-0.7994650473083253,-0.6994724166314586,0.46766024421220204,-0.731745865088293,0.9829674745858717,-0.35668344230533877,-0.32802281353089735,0.11493541185024889,0.1713130385133493,-0.325872301109262,0.7669431491769279,0.37223481686992493],[-0.6464511242088596,0.5743129581180447,0.49696792580598176,0.9145576687245511,0.29680701919983243,-0.4371080206738478,0.17786461330034023,0.12993453819198866,0.8945059619484839,0.7252934723781128,0.11490772717266248,-0.5543648375545281,-0.8888563705673292,0.8043102748590849,0.8938858772927178,0.607421011059689],[-0.976616311015434,0.6054180100912941,-0.8754206168940729,0.2718615072304439,-0.015691960273843907,0.7611410749761478,0.8750108506267931,-0.7049996604741646,0.046741086896426726,-0.7119901861796564,-0.32830590964737,-0.05399418708974973,-0.8537070285816586,-0.6937344103699956,0.9348094776570212,-0.4893820071203152],[0.4039630913617577,0.6070940119231929,-0.13498773373826967,0.8683986272700942,-0.19640963737338146,-0.14565034673087265,-0.010487714446798706,0.5990473261116402,0.6465348632169828,-0.48941383051926707,-0.4470205523091653,-0.1159353602536015,0.6859591371570658,0.7778399431703452,-0.8015441062588612,0.833447685750136],[0.34311288388472905,0.30638874870247246,-0.7624783934165797,-0.6892104826119292,-0.7251117114584551,-0.03820661858701054,-0.13108293807661608,-0.36841062008418973,0.8606776992578186,0.33892226073791115,0.6889676231631042,0.653039510805778,0.2548537617028414,-0.2189016076765318,0.2463163852970462,0.2417920682726701],[0.22849732787744026,-0.6042371781562628,0.40435086721756996,0.6021757664169072,-0.681861223504814,-0.9022246226213055,0.11423682752728315,-0.49373067333071063,0.25338024704408846,-0.3596537277845916,-0.5486054353176641,0.512236965593061,-0.9759104708097458,-0.5538494789757996,-0.22375218068424252,0.8096012258015579],[-0.4610777317830723,-0.8988853161683703,-0.9083034367804897,0.045728543328926285,-0.17807299046687453,-0.05025025692314389,0.1906979676292735,0.4731243399312368,-0.49700793693634115,0.2500912944088183,0.5802299434227076,-0.43983094926915645,0.48230453835907605,0.36572370462386106,-0.9101959773852472,0.9683376690225385],[0.9202438145504537,0.32695774609547,-0.3713873240032174,-0.15067867056963902,0.2764030645025908,-0.08649367982824041,-0.6823507061611631,0.09942008419866677,-0.6259519269810765,0.6683926413154195,-0.5696207292236484,-0.40136678675253257,0.7011686655232536,-0.8363275098783558,-0.5383042830686571,-0.7590537014226679],[0.5871861426100071,0.6042803235371972,-0.11383774462800367,0.9795656260007832,0.9213733225694734,-0.7569410324827494,-0.2815054092935777,-0.35417317941513526,0.8347839758893401,0.804115955626646,-0.8622513356908463,-0.5748636152478231,0.2450731523544869,-0.1990228962148647,-0.20938755907555462,0.24232811631743245],[-0.1915004752536772,-0.7313470280409544,0.8499462119536223,0.3851707248879461,-0.4349321720353012,0.6689752338775319,-0.6550862321886636,-0.45467921227900276,-0.2816168168939729,-0.2923116140497437,-0.28982045375267995,0.5054499299756483,0.01617743774139213,-0.6964556126373147,0.5965115975572315,-0.0649324977141491],[0.08181134102950405,-0.5853153036838934,0.44322278510929225,0.2857289106052969,-0.8894086433059576,-0.7075980341562993,0.5455331800251888,0.8587215374497332,-0.607225896607724,-0.2210278377034831,0.6908157717859447,0.5881146404836861,-0.8357357847670726,-0.3488626979984635,-0.09215014199360749,0.8497049509779107],[-0.30409972151000975,-0.5272264366630588,-0.49051719228295476,-0.9478646991531666,0.9546562209514231,0.8761733285506133,-0.7690713637364429,-0.5758508274219236,-0.3974016604001641,-0.1230567521988678,0.8049105488718071,-0.333828662211927,0.5374475696764176,-0.11648376058623366,-0.7465794485744924,0.9696306027330601],[0.5979029390669932,0.006384408369395443,-0.3728181301941192,-0.02960084523739212,0.22154524021440214,-0.7963460916509528,0.14715430110243533,0.9115176960147099,-0.3426736426213332,0.6593914303072509,0.07566195760881775,0.2362165425112764,0.7253227945669773,0.15619466576063518,-0.8952000669843372,-0.5221774660898787],[0.34459035019950135,0.5126335311728641,0.8956344184799337,-0.22310008731834358,-0.6622848260182617,-0.8388916065508008,0.22433539284770876,0.536280633408395,-0.14190449928674656,-0.4449020044444042,0.7086365153904389,0.16588553830284145,-0.4715089128775973,0.9638166884364227,0.8408356382926269,-0.4360615192123083],[0.5814824309880307,0.27081945303628474,0.9235542073785842,-0.5492829252005678,-0.5944207358235515,0.2610621314900335,-0.8726883296444098,-0.05631615661577987,0.11097178441403802,0.0606524767866108,0.19445864518431288,-0.1793681519748811,-0.48928645611511934,0.9470925698578772,0.34989287972742966,-0.06761850047225151],[-0.9297209263866353,0.4391625681740047,0.7070918716092505,0.31436254981551204,-0.483545549480658,0.6478606511658718,0.8555883559558323,-0.05871137812328032,-0.08397118882148917,0.7750918947823257,0.5113034381999038,0.44811452620486475,-0.07638787775714252,0.8621522420730948,-0.4658211718561715,-0.9641492333523183],[-0.7504854618150695,0.3428691213386714,-0.923896675423252,-0.1897828983750416,0.43090993510155534,0.5553295572247583,-0.8338463991455581,0.18328354332119204,-0.22358277831656306,-0.2117404050890103,-0.7398209255010991,0.7497177021701417,-0.07723625829476995,0.7856096683145374,-0.9044700474157829,0.6820825703795044],[-0.012606008795217958,-0.5140486267044933,0.7982565084135053,0.33954878576433034,0.8810581844853851,0.5311055663082852,0.06042082118858094,-0.32234284336056046,-0.5704651664984262,-0.723104387535383,0.7755976974708799,0.39803489021218424,0.45698085099669006,-0.9965241985997438,0.36277393483684234,-0.12441834435486929],[0.27016863009939546,0.41352755623672427,-0.19169645430534243,0.18824993334929283,0.6117558510317606,-0.6706718288539345,-0.5995764972449782,-0.6524600709708924,-0.7092658037961191,-0.8760015284763952,0.5626590495009558,-0.7613940017946026,0.39240539213738485,0.1379665762839544,0.5396941291710816,0.3638148213400302],[0.5463157320142692,-0.1818165270088541,0.2012971278248033,0.871704822615259,-0.06379214886100366,0.5975962397740227,0.6861268494026742,0.14404743461956251,0.46139438063253185,-0.2712863415015729,-0.6601244501751223,0.9523956687757046,-0.46331057679757615,-0.09665430498655808,0.7727232496769344,0.15738603928283543],[0.38076791027696544,0.08067881580585001,0.7506699577848676,-0.740607861950117,-0.9637768887068213,-0.22141081286408706,0.6037245961521205,-0.8879164668276058,0.4857002986133797,0.16087508295865996,-0.7532377365204651,-0.45673997246019643,0.8180195464895719,0.4975701441321756,-0.2725818447074633,-0.19921458343633913],[-0.5376401500655179,-0.920701341677646,0.1420430811353159,-0.5859876629065461,-0.2228548584102399,0.41966549805520276,0.4601903866598984,0.7150105688130713,0.7986583069156215,0.384543395990454,-0.9087745588637034,-0.210588149663448,0.013343133768871024,-0.14691352813868996,0.8820174312772833,-0.7364171488552309],[-0.10548835481766926,-0.8499236350978945,-0.3129754837690348,0.8101236206242713,0.407239265198329,0.40996750456849834,0.3814035749883679,-0.8382049207482098,-0.5418828907287443,0.28332424999225114,0.13874113074729308,-0.2750986975553751,0.09725428272171645,0.9336691904284266,0.14058225676596287,0.9385662495793519],[-0.007665993558121608,-0.638989002699653,-0.7208531093357458,0.3643952735765064,-0.8765829303326338,0.3574762226473881,0.3748118337809362,-0.6187143622550539,-0.8720118230551624,-0.9630558313368002,-0.35935662111994654,-0.9347668517439989,-0.3273560767461262,0.2876638110682124,0.8110485367696525,-0.6472045993814324],[0.17783170088121436,0.35919879976793007,-0.3519856375975873,-0.9264298122031035,0.7360660983700733,0.282383423538514,-0.9723151359684181,-0.7483710381419277,-0.2934128949182597,0.9723179312985122,0.7269880486007861,-0.6340322625824792,0.5442668814918918,-0.2095196718389589,0.024154060952564557,0.7858714792713594],[-0.46327412658538286,-0.3970475505787507,-0.8446985217467388,-0.8069691092944367,0.868638419047603,0.7755505351446698,-0.7617556496650021,-0.08111657330644853,0.35621059304846864,0.7454049625734361,0.4689983202372929,0.44443717760964513,-0.02244619057168728,0.07273437894512756,-0.04492547985050977,0.910436544746989],[0.8661723816662587,0.010503261658985984,0.2656756973521863,-0.6750585924232619,0.7528213167439323,0.8274936385898288,0.8824310830805306,-0.2573173989777896,0.344212781809388,0.8578955251113349,-0.07415540864986793,-0.42550840610284285,-0.9407778915033321,-0.7988296230830023,-0.3717194216637658,0.5567146980719399],[0.9817580330957012,-0.3065393592104732,-0.09056038110693408,-0.08132167494411655,-0.6580585465482213,-0.20444045173835135,0.2765512443276462,0.5202971068007308,0.3917352984642154,-0.3776110195781494,-0.8144341207170973,0.9960449731472893,0.009868408013461078,0.29956041131232547,0.6952406005235605,0.8678313948937689],[0.10029188462348919,-0.6075992686623995,0.6032704851424114,-0.5961776774968033,0.3124601522887471,0.8253895999256184,-0.9607328132042252,0.608888049512578,-0.17504514011890843,0.7145068946797412,0.11759826867571037,0.45905672331796166,0.8939575838497399,-0.6818807326900737,0.8826804780891496,0.3957274337456675],[0.7071919949238963,0.7510621537958851,-0.7758861212535626,0.9246911108100216,0.41306886738966464,0.6465897927816029,-0.5476099667994764,-0.48126116711750966,-0.9623818108815327,0.07806772231072634,-0.521684233119051,0.3359441754316467,-0.7141173839018162,-0.069086253308323,-0.9575375384113548,0.9269610322485808],[0.8412054598254751,-0.6326832207242654,-0.05724397449872129,0.9336613605457953,0.24166954409795063,0.04481131402655976,-0.28387487732106775,-0.8456449372982641,-0.7818695789650343,0.1800090460976032,0.1493991247907073,0.3001179584377794,0.6655134202534075,0.7605371548386581,-0.12232656242117879,0.6331460278460739],[0.6442847064258619,0.18623340766395025,0.8730939372768319,0.6749750649037372,-0.1375572965822174,0.8428052229185209,-0.2865622010423706,0.7772886494174706,0.1218481798709343,-0.2755423439550809,-0.9647272078710432,0.2731321860788982,0.38229036002308514,0.8075170532930087,-0.46406682229651813,-0.20207351480191166],[-0.43683602277058564,-0.5091810380266077,0.38229236340452466,0.2179460211191439,-0.26869668386255535,0.11412196802172704,-0.6820371559623611,0.48297525642439204,0.7278875157617196,-0.5558842649167824,0.6300166834371653,-0.1269985268668419,0.66923440978603,-0.8639875152925413,0.32042086214176685,-0.7780642899244817],[-0.3595384408220271,-0.48146179779919557,-0.6901340439776997,-0.22067048261441932,0.22154123317843158,-0.5746995004055614,0.6602012955256412,-0.04164442654937328,-0.9955062514899118,-0.7958465089619162,0.3122837763576598,-0.8764634905060708,-0.0819744464949657,0.7429804518400103,0.6344452662155683,-0.23672199435755456],[0.8389438064018935,0.4727295690554798,0.10256662364237323,0.005103393925867783,-0.9129618797045955,-0.29151369505166713,-0.5465913161386695,-0.6305844120823705,0.36716550000345594,0.5552378620743927,-0.5021828392065051,0.5763212459051614,-0.9843901358472137,0.6564799815679341,-0.8249020882998137,0.844964419419395],[0.6587481469189507,-0.7025906023115807,-0.6261786732944561,-0.6728273824196436,0.10920328232888288,0.3305833746355882,0.706999210504349,0.7643644911071121,-0.08406518636460658,-0.6789721696073991,0.8182175121354951,0.3365527220706235,-0.6555716635918113,-0.1410071370848488,-0.6440093292128338,-0.4113330149144554],[0.1729635126762854,0.009388391398539975,-0.9274846408178492,-0.851653134381237,-0.2095698375299433,0.31949709510407276,-0.5924594782257729,-0.3627378630278343,-0.43922314766758264,-0.8190626277677076,0.22003866323271715,0.09328907220311877,-0.6336007563553754,-0.6662427828024341,-0.2509719930826556,0.8674070545786092],[-0.2339400403359626,-0.7138969459169996,0.7149751008092309,0.5942914335030556,-0.38942379848539077,0.7135397846407907,0.8161674727761035,0.26863840560831065,0.871441367022433,0.10488605550717844,-0.58162839877495,-0.8313200575445406,0.6821676127995213,-0.18207817952245386,-0.5241765405629653,-0.8177478070453498],[0.7979863525082814,0.7951337082556973,-0.8608668737973573,-0.21735938044053532,-0.16489768240025449,0.834046914345833,-0.04835242809233863,0.6138006083909552,-0.4424035666225668,0.13820225790621105,-0.20510592135108593,-0.3333741545532571,0.0722088357422578,0.5451483483611134,0.9047526433118063,0.21083462392958682],[-0.07360655213591283,0.8902120731063076,-0.8219030738124652,0.6195245863726774,-0.6109622450628576,0.008406737715354344,-0.8598455100266147,-0.8982790169507245,-0.8044356351075154,-0.048004119656919926,0.6292749883287386,0.3453350324450609,-0.28435805883110016,-0.6040806280564833,-0.49195334960770737,-0.8381533053348255],[-0.6846063709421629,0.9739518924278184,0.8816707512482016,-0.7087968724656138,0.02709883747722867,0.2329877443601648,-0.39134680057988164,-0.48430446618631995,0.04742284993726291,-0.35198315947918857,-0.22085050007830442,-0.4402986169801763,-0.21752126310266223,0.21271209859641196,0.405443433807359,-0.27671720364194635],[0.10308529718854044,0.3391746242272455,-0.9424094408810799,-0.6794345983371799,-0.3939590188115248,-0.526054451884309,0.4959540066925098,0.4938302533195513,0.7464267103275332,-0.2463263714609632,-0.38257575922111114,-0.2687080965685961,-0.45867964496861463,-0.5416752734681475,0.666353110547608,-0.2741803308266716],[0.8045728138260764,0.14270043600298102,0.773817363442736,0.682427621543374,-0.0129621218865834,-0.029624667195039183,-0.6857163205538064,0.7416491956567791,0.6387548219818072,0.18000702064960863,-0.15813871011658262,-0.5124558725596259,0.7843679392947712,-0.9935153550015846,0.029357227473409356,0.4357939993366983],[0.9979332158624441,0.11744294582693766,0.272830737394263,-0.631067610193146,0.2870199264914521,0.6648011217377342,0.5235936527332403,-0.7085456515840861,-0.9292642405122187,0.21753583596434442,-0.4974519807781518,-0.6432153473380582,0.5325820621649825,0.1427845500985545,-0.837134038306849,0.028498920607891994],[-0.16414085351880287,0.4771211027389286,0.04625453494315094,0.041144995697678564,0.5222943278983528,0.9017449321785439,-0.16544053254221894,-0.2253893999627815,-0.5681993610446171,0.7335962078230426,0.2953295191322112,0.739529602810723,-0.8959297931413112,-0.0703051559436833,-0.5695735272911877,0.4567824267908033],[-0.9305281081955852,0.305115452920775,-0.3369594931177947,-0.504342867318468,0.25507193467666905,0.48387126869543434,0.7760899700975814,0.42070001349415287,-0.3644973056797908,-0.14066455053495922,0.06664390708316911,0.852049726371116,-0.9693482423384618,-0.6814583053835821,-0.25947660518013704,-0.6260276648622585],[0.46288016095871026,-0.2864240935680982,0.8547117175355203,0.0594393502911549,0.14992598428590032,-0.3365199706418849,0.44657326449142365,0.032396448807164926,-0.32394716068998125,-0.2164254491323321,0.5955905034858758,0.6372155367682709,0.11171022265581745,-0.6772004363992709,-0.8795040770955534,-0.7172485009930655],[-0.9579855544596122,0.8137589118406067,0.4054456437963019,0.11715520727906581,0.5211030302791245,-0.6639333675280061,-0.4803181419488958,-0.5692679672873735,0.48220264991321504,-0.29141951676325506,-0.06892132861516097,-0.4858954103947526,-0.8890265491529127,0.059213192993703694,-0.4497678501176306,0.7484654920305689],[-0.0037974119587737857,0.7429200731732207,0.11275667056512911,-0.7847537846847275,-0.5213817330286017,0.7535077608833584,0.9278897132480229,-0.23752158313920846,0.43909283092472795,0.28578084597183445,0.046867419105436035,-0.6664585159664136,-0.22946796622746118,-0.6287501443579249,-0.1868514141577238,0.7292704505246081],[-0.5263150645764949,-0.08232045788845531,-0.9344355455123555,-0.021599302661287484,0.08165023901594558,-0.18577572356515856,0.3504998798414195,-0.7369731650187796,0.77327286609406,0.4578135233361996,-0.14103602265797635,0.5587865587313842,-0.7812477945114236,0.49475790605504877,0.6817336658689291,-0.1236934833234993],[0.14978505181784624,-0.5086903637510933,0.9392272794848923,-0.46656226151201,-0.4877230077019725,0.7285313318426105,-0.19619728855080715,-0.5027368126895013,0.25338514045702093,0.7609379451204403,0.21996995129221153,0.8088693314043092,0.12087691626901839,-0.8012568029403364,1.0047673600688256,-0.8042918742581848],[0.817891638744211,-0.7474859821130162,0.373844750123964,0.40627019907348827,-0.6314097886054957,-0.03329234358374525,0.15220642001205095,0.9484805472792714,0.9184494073796352,-0.24397507196999352,0.808542107772402,-0.542413036943081,-0.832439014490863,-0.16951211017231427,-0.5466015119774358,-0.4873211165553897],[0.2743713786308915,0.9622485600507056,0.4052517573132008,0.7355527921869769,0.20422662038839184,-0.8264725783692461,-0.9815236697793542,0.6797018392369806,0.29564916465363367,-0.31465592361819233,-0.08215309075750982,-0.8741341693233485,0.2724918790664591,-0.9914053867464578,0.7241223574161458,0.21330426298656455],[0.08685201926261404,0.015219796875255513,0.23550727395260748,-0.529026495065026,0.13246581115107897,-0.9933645605716436,0.5492375630665884,0.6290401031216367,0.3209731459728409,-0.5763742944924326,0.892049398274477,-0.10924109506828897,0.1305830285070178,-0.7742620839715735,0.7066538922793073,0.3001798253317628],[0.34964169229681663,0.9602771095684612,0.96568051869514,-0.5462772058082067,-1.0152256575275198,-0.3975512422925838,0.10715518236727521,-0.8341012926548361,0.4891562710397725,0.6311337341707004,-0.05526815924911693,-0.9731616184669187,-0.4732313537041265,-0.058614156361014795,-0.5059487493423408,0.6304620891590511],[0.26387435880300314,0.5147780075132866,-0.25803520784659756,-0.4109401909889851,0.3989044517751716,-0.11850569380131837,0.9774870687798933,-0.44157204530454736,-0.8181963282359879,0.29566184094713865,-0.42311236658479173,-0.6674515622683896,-0.8351622375267774,0.7959301349598699,0.8957021848701514,0.0997348875451607],[0.4520492351753835,0.42472665075527516,-0.17121557897838033,-0.8644589417864655,0.8593909710849833,0.15335533585822433,0.7726170367260856,-0.02681242399931959,0.4331762389424802,-0.5190604667578,0.9696586174104199,0.7268668372687459,0.019090766233064722,0.8627195716733977,-0.23875037921864256,0.6573574379332795],[0.021405293341103665,0.2391480840558081,0.8677343609360624,0.9312734408086794,-0.18008337352164586,-0.600094869169848,-0.5200030272261309,0.9195949711453426,-0.08433001198340577,-0.7079583449693307,-0.9747059414042695,-0.10816241539959043,0.48129040237009474,0.025326414600544758,-0.875984920478925,-0.852090591231906],[-0.7856300930179058,-0.7664545616556222,-0.760878290838501,0.820119996647864,0.02823294989938648,0.5675119764622653,-0.056991817997843974,0.3546712891750781,-0.06247313580372194,-0.4239007483949194,-0.17649260481622642,-0.47350439625642027,-0.8508180109298081,-0.006335202420856358,0.16657286968459092,-0.9599782862050464],[-0.20421955150415974,-0.31475494799367787,-0.8996785147840537,-0.8602496261094255,-0.6239899924915144,0.18366339034164866,-0.3870787271946231,0.7172537947318345,-0.49718844903523307,0.6215745300423983,-0.7812541441298857,-0.7870930163666546,-0.7173593623735841,0.7129914778947175,-0.7135239054671113,0.3266198975126092],[0.3518266588549207,0.36769692053486147,-0.8556460231161912,0.2961886291101644,-0.4601486735732086,-0.7323913415674683,0.21536709692543707,0.7663442667414233,0.9081278672735275,-0.19686161728475313,0.5277956536345524,-0.060982187002024166,0.9675390995257492,-0.7560575908672307,-0.8515636803955129,-0.7485805763639299],[-0.45169194199140134,0.3950454641951449,0.18515440021444907,-0.859195489370544,-0.5397379335667236,-0.8489572311481846,0.900317614618551,0.9554726221886713,0.11058745251296968,-0.35993982919940204,0.3971223155333235,-0.43488767937748907,-0.5263551111117738,-0.9369318923881702,-0.6017021364248573,-0.899509610858845],[-0.18579135830252538,-0.07351901407583537,0.028239417933330544,-0.5490994606914525,0.9514539624418632,0.08489984754738472,-0.7329885714415852,0.4926899764629158,0.548783044326924,0.9596376744581643,0.3156859521847074,0.13901381796072448,0.8075847359386057,0.8430121250028219,-0.4182972126723286,-0.15504726495015286],[0.8761808890272775,0.8474360405688341,-0.3369498734068823,-0.9434812376012472,-0.49924872978555446,-0.4058681136955824,-0.7410284978062979,-0.8709750742982025,0.7970717464560046,-0.2709216770114944,0.6624683689616939,0.08901892746287343,-0.04023215595643603,0.8683223910016578,-0.25057765340925087,0.3149812814383681],[-0.03379366595009048,0.8977340599045782,-0.09184189936697573,0.45180248816115887,0.320348612647666,-0.3772701413264825,0.6248632537316825,-0.6076087409665849,-0.4997813149819995,0.5294449941857928,0.5631733469493563,-0.7947383214695092,0.3513254836906332,-0.4572989574900358,-0.2809487019111163,0.3016365698080681],[0.43746985189498866,0.22745679189798262,0.5706616693971034,0.6108171612074678,0.24805778975042414,-0.5508149487668719,-0.16880456878282346,-0.9185466924302963,0.27090969368392126,-0.9445531135166777,0.6557075612506398,-0.6851088039973325,-0.21826196052984426,-0.1564921434766111,-0.628172482190734,0.05146115880993252],[-0.8672510653280112,0.9817784724275767,0.12753316209728635,-0.16577956943680072,0.22328294901270934,-0.23801347470826864,0.9124350230562628,-0.058824424547473865,-0.12531276036024547,-0.5665618319094431,-0.8251180715332648,0.7931663768248152,0.8680987606231866,-0.2523793124846283,-0.06710852782819646,0.7475909060817658],[-0.04255733481693227,-0.51201566760213,-0.6826540118241097,-0.8091836606059825,-0.9999218348183357,0.7783746260036305,0.48706992342565497,-0.046856893371959016,-0.34716627016753177,0.4551737097712527,0.7633665735223624,0.11269139309835599,-0.1926204404849795,0.41321140403385526,-0.529633590549906,0.7146477433194205],[0.5056926068272367,-0.9599637906367557,-0.2070442229965088,0.771436536897805,-0.7491977185694326,0.45273700039766684,-0.22881790234918895,0.16682382352301567,0.4909094277976992,-0.00035260705655444673,0.21081876989305726,0.5897577486559891,-0.48667568557356167,-0.693189341234443,0.6657505838532406,-0.27981512795769176],[0.9231449174143107,-0.025999202487173603,0.5479977719078473,-0.8778814404492596,0.2967833618438621,0.9322452889897025,-0.5793045730570957,0.17925806193082283,-0.8054705346412786,-0.2610831500482254,0.3762413856069667,0.48570894635987744,-0.8316411240310808,0.08881677790769174,-0.0052450515100619785,-0.6549583365306417],[-0.10191937889504947,-0.5688357520287572,0.6312173688359987,0.16363075790160073,0.7266033490740766,-0.6694112587232754,0.4486995779400785,-0.6960810841849531,-0.6452846990284682,0.5935014325886065,-0.7083201467734112,-0.6392033703506357,-0.4365441559358551,0.5278011513301334,0.7884039099762288,-0.8297877551716082],[0.48421410952104704,0.05851895713535072,-0.6472725580167554,0.21323476380523368,-0.17949926809229708,0.842177838295903,-0.6500988896577178,0.9148494507679531,-0.09573290612841816,0.6828213599800389,0.8427658396177251,0.5913351964695173,0.2507873425546021,-0.03745657347251206,0.626009588002982,0.503161676770439],[0.19161696752341487,-0.30484984131381976,0.6442810182214345,-0.44438126383323373,0.04436334602111762,0.6979864885895029,-0.8906560040891265,0.06377894561781565,0.8689797456528225,0.140351486638485,-0.019734017603057492,-0.25221526709324477,-0.5991165729507062,-0.5465929673621961,0.4701933106138894,0.6669216447732257],[-0.6537741871846577,0.528899326197324,-0.3895390632140411,0.5645236066552447,0.21982091571931225,0.3220127686878473,-0.741362561628169,-0.7518624753535701,-0.9093314100237304,0.18019227782208094,0.9316789228596947,-0.08322686465341603,-0.3012550988307499,-0.2599781932301015,0.04927965258205701,0.20374103369119922],[0.23201144887212427,-0.1526358484912075,0.29350463067297455,0.5927047774651221,0.9103483814324729,-0.6372889613011289,0.06545024572256722,-0.36584988617780484,-0.591929365672866,-0.8970706063762424,0.5519948076154465,0.4220202050922863,0.7809368783003127,0.6763536017425261,-0.6148982451559852,-0.5549277047288577],[-0.7185485534345879,0.7467000645521759,0.667114572296951,0.964083487101556,0.4374998406192798,-0.6987275190162204,-0.9137906507965591,-0.37670521719262223,0.7328085776927813,-0.5570406182134588,0.6120797359911759,0.8503816235797331,0.31121712231770865,0.010131025145974356,0.07971100064215558,-0.9098813463792235],[-0.338142729701654,-0.06960361941985288,0.3574452848071807,-0.23265786927153684,0.8047293265928556,-0.5558219267884088,0.11186196802882614,0.9837536966763062,-0.8454046978420979,-0.7436050606582032,0.22390318106930396,-0.6542879387759509,0.269632720845845,-0.19248832146824282,-0.13077932185257068,-0.14792221566330757],[-0.09754969301983117,0.018393190831588097,0.4094390641607241,0.48712514908013654,-0.8550354301017544,0.7357584656329621,0.8157577253843796,0.88474441518252,-0.6174157110232189,-0.8649686678355397,-0.39993454823456304,-0.5860871181564735,0.601856840714729,-0.24631316429423653,-0.010238160528353388,-0.05637610956878818],[-0.8370386546644697,-0.14106339607081997,0.2278708956931303,-0.6284901812611232,-0.37194944983538547,0.4393525844204339,-0.5101412047509336,0.6207917300462614,0.690803291239814,-0.6074213420899888,0.30054166209989386,-0.6311838631042379,-0.4074694748092172,-0.6674001548225993,0.3893244844463119,-0.06851576350052169],[0.11058694320291067,-0.9916651389809286,0.9751262723982767,0.618633972998229,-0.501566414270564,0.7674142772165367,-0.8107763381971584,-0.15537262635404722,-0.9339442977203684,0.21171873106394568,-0.3853671012688266,-0.44588744180491185,0.5261989000036377,-0.539235655298352,-0.7018579083758951,0.4322385483961884],[0.07777122430040145,0.8462101615706652,-0.7063050789708883,0.17387270962114731,-0.2644309873812881,0.08235902762162055,-0.2758111478680628,0.899775904134077,-0.32552540320609213,0.06795168266190003,0.8197286588747006,0.8562685544719859,0.8839111694947991,-0.2644728986907344,-0.1489962557015775,0.6373952721220945],[0.8362421713033417,0.17376385914670542,0.858660298754829,0.24679731197870658,-0.7360015023336027,0.4815117355343861,0.298875540927599,-0.6746045600493967,0.8576101789422886,0.24461762794578037,0.9355803349924144,-0.8844432707650116,0.9733649279936967,0.11520336680692826,-0.9028866106440406,0.807409493312428],[-0.0036343686619632627,-0.05692185684023583,0.7934069382336835,-0.2508673808468084,0.8935113614209141,0.046961854293657894,0.2878937204212124,-0.22823967361891392,0.9473572599263391,0.42290314859836775,0.08375459142482215,0.708401811856074,-0.7346867904321633,-0.10498127349066023,-0.10161363671002926,-0.8691809001589597],[-0.3641401094573172,0.479124361565686,0.5467207144482552,0.47853894340078307,-0.7523572466412068,0.01876872752157416,-0.36658608610869925,0.35628721872880437,0.042876174102680846,-0.6531602340201327,-0.7932038718298792,0.9399332055024104,0.6985912774977981,-0.19644217381900453,-0.7881826098400128,-0.4878411977634308],[-0.4359586469552232,0.2608035386577819,-0.6883749979616337,0.43891366214287675,-0.10539794987067332,0.9217247372792061,0.6052556877266025,-0.9700525023770603,-0.2232165427258646,0.4105055826981893,0.2088246721597272,0.5609817677533618,0.1724837635048565,-0.2735820751413377,-0.9532497176639447,0.7210793321179056],[-0.9781964760207131,-0.9007472744567504,0.6045392874966135,-0.4384913814081147,-0.1526953575869358,-0.9297630004842768,0.5282759266513832,-0.7850174844437248,-0.7057183904480869,-0.4853058999310261,0.2978813544882994,-0.12480852317465445,0.49828204737784193,-0.06377374031020176,-0.569002209471307,0.10611141267780817],[-0.6364856147042212,0.19803257112031966,-0.49744342609095865,0.9582990276658692,0.6298748323715567,0.6565883860141414,-0.33971344442776386,-0.89225033698108,0.82282124394478,-0.881093524992549,0.08600039113547668,0.1739154758655462,-0.8789534799900988,0.8067224640585582,-0.18797372120229222,0.5682538421930025],[0.4686257859302652,0.45187463202201084,-0.8323699777342846,-0.23533069380704053,0.5758835161286516,0.1010195952780435,-0.2597996287904017,0.8597429027170066,-0.5930358528172133,-0.9227704374065356,0.7187120127667569,1.0009019471661662,-0.4569815328821874,0.9045138404119392,0.6187541298260273,-0.09236066038621892],[0.28603350077923945,-0.45575310772903677,-0.6475494368989869,-0.6577435959814628,0.2182612506816091,0.823835294892159,-0.47328008660339227,-0.2033855426928779,-0.4827880928535614,-0.3909568437747459,-0.6408943867159196,-0.8943858187335834,-0.6083039186538303,-0.21350128202151386,0.14821712274558171,0.1225319423418508],[-0.42704607263571226,0.9540490756685471,-0.6313147442594816,-0.567158214774372,-0.32293769932706684,0.8312852336628656,-0.5444088889502371,0.8132101331049565,0.18499427442215854,-0.7186002606306913,0.9145824246714698,0.24434811850193278,0.84955012618515,0.8414741791107494,-0.7122701921815929,-0.26254476168446567],[-0.7933556332610141,-0.1252722152693609,0.5587218421833949,-0.8049360466678909,0.24561104402126177,-0.8181287897965377,0.9240703782855194,-0.20715691449274976,0.4826034778261974,0.8531195842105952,0.840286365652492,0.60748739970119,0.32267725856330465,-0.011858628231013371,0.6026930776468338,-0.07808922125048307],[-0.8476414493506967,0.7710023009083244,-0.7865940452490905,-0.785785008122113,0.9691972024595352,-0.07867297394139361,0.9214700646332792,-0.2806114429983364,0.6450600110204239,0.8946788422272909,0.1885109260624791,-0.7969750155680697,-0.1141089615943418,0.30900773187587394,-0.3697217383280963,0.7125445798563512],[-0.44736101359471725,-0.9468902358537961,0.4790184886562725,0.7710467696986378,0.5834660081115859,-0.8530625104219944,-0.13147194177446508,0.9156463965380781,-0.0660784324007474,-0.4708101849401417,0.5926795488189345,0.6438757915254103,0.5367909602526533,0.8260154592925755,0.3104465228088418,-0.8635549218689813],[0.0031655891813178183,0.11018722649206736,-0.9591871136609404,-0.3598351531475015,-0.5397173061686182,-0.349351421626914,-0.6637124613224121,0.8964080791438036,-0.9452639091505035,0.5167106601953091,-0.42584037195231783,-0.5453459506599911,-0.20947016086870351,0.8347416593854975,0.6180494770491727,0.8804132537359433],[0.5748482327374969,-0.4770873420808085,-0.9661681577602215,-0.6781089711077406,0.8497170124058835,-0.259048001482689,-0.07621797539805236,-0.664606576101989,-0.7125876504622243,-0.8509981688210156,-0.8986643978232883,-0.5933695195340809,-0.25138113627961833,-0.8466954166524421,-0.6404768704986572,0.9093646416131508],[0.7671499166212752,-0.4208217911881561,-0.3038761335943611,-0.8504840390056607,-0.43274898456956334,0.08209435459659525,-0.29204882047033764,-0.4397698998712024,0.9368419902767895,-0.9921448051197308,0.38200320583065167,0.9947999551350294,-0.690221838461096,0.1500138265762539,0.007227768813298023,-0.37715785396486873],[-0.7110144440311207,-0.587010805173121,0.027619923151725737,0.8690057554700553,-0.3450469543865911,0.3908696836115903,0.22880799933483764,-0.9990362776779884,-0.8028312704971992,-0.205829886532075,0.3016159297782012,0.592733312594563,-0.26458680026739234,-0.3843875607922459,0.08462484743148435,0.8821225494163906],[0.9288781369888918,0.29702468079572314,0.10732556419889853,0.622543514964163,-0.5130180762172966,-0.6211071036213276,-0.9440771741299488,0.6122466864711802,0.8414100678162177,-0.5500363446767396,0.17921486093785408,0.3989567658589324,-0.17461216541532953,-0.8599132025441182,-0.7194167680274288,-0.8784461757338264],[0.03245180250980244,0.22299329745461693,-0.6426420982291718,-0.08979627959810826,0.9669769940749277,0.04457153618674894,0.8992671434426556,0.8981836407915436,0.5705723404253259,0.6854190512568787,-0.06014964201558649,-0.8444820732491429,-0.8190778287859618,-0.40095950943307573,0.4484725215535124,0.7289008365700174],[0.3995067914489346,-0.7434522748198318,0.46600641965890893,0.418995577604263,-0.7256043452974842,0.4538997937777369,-0.9934406254150903,-0.3085464731123756,0.15892490984168456,0.6732767508007385,0.6388181972469593,0.4318114696736539,0.3210239762338641,-0.9129159291397976,-0.9340187272926624,-0.5928939707432154],[0.9435442753921197,0.3393445363271928,0.5264694319041872,0.6376772739688183,-0.9671373524349647,-0.27464076295593476,0.8698646617239953,-0.5241701043583714,0.7554835813632291,-0.5777896832153587,-0.1130113393076314,-0.9307077400425183,-0.8374578530751048,0.5879615415223468,0.8133960094629723,-0.3759134076378124],[-0.4878957909986123,-0.754567963663543,0.5294812733049767,-0.17466752876399738,0.15216928631289625,-0.10977317980350822,0.9588273381704857,-0.9229303868213267,-0.9808019495856721,0.32422421424811193,0.825245083332233,-0.4631795879113947,-0.6898776873770145,-0.05421759728958405,0.6503418050259936,-0.44102382796801687],[-0.45763541125847085,0.7899405924877958,-0.3886127034536657,0.30372976162783566,0.27932319287469726,-0.1127674023379394,0.7328593134864876,0.261240841249781,0.9908746003095088,0.7091986470468168,0.7055526655213938,-0.05949229656468476,0.6075858117933937,-0.20972354116549463,-0.12300179789440847,0.02215667226600364],[0.08558709006656871,-0.22262636412720066,0.5633983338519226,-0.9381381263954909,0.20138450287553672,0.8279324502444497,0.4727058352729878,0.5849598100879462,0.24641413191374995,-0.45435192009519504,0.6463364242193413,-0.1315414775679038,-0.37121935045585275,0.29712330491851446,0.810314664997164,0.3849528472928106],[0.5897300884216707,-0.5170379281334083,-0.5638079898869598,0.7864768694376812,0.3894061263084024,-0.5087287541850924,0.8604224203379857,0.9723272773909986,0.4228313849108043,0.8561842408080756,-0.4559803366918749,0.21991708967151075,0.6926960813517229,0.975858299704116,0.88994256864382,-0.28553334335484165],[0.6805578422441442,0.41369288353473804,0.5774655000508936,0.3123580581485976,0.7366690519862289,0.8820984489795718,-0.5962700386646048,-0.3905034168103427,-0.646615520563035,1.0788327869417194,0.3576070072688171,-0.766265444941876,0.9113626784011458,0.2364102722298165,-0.6179430507148396,-0.275544796422967],[-0.3586152946574057,0.5234100252694148,0.7047201171408731,-0.1401079389327149,0.3718147753398941,0.25513016134858196,-0.01842901447196546,-0.08369300850382011,-0.9507183698038548,0.6247026543725784,-0.18776804456562735,0.7170220113068163,0.7988807848307006,-0.6209341287520244,-0.006828850047917019,-0.11158421832767886],[-0.061518619081948826,-0.6186806778845487,-0.24165855919157847,-0.8162886322548096,-0.9768515465607067,-0.17108543687905806,0.6779087918146312,0.4648387627838722,0.20092117612697558,0.5375784528514466,-0.039143445087220535,0.22617570008678073,-0.40463834051139497,0.2899278209928081,-0.3105311510762234,-0.9562849379312135],[0.8679125381596681,-0.8826113326407644,0.9095498783848176,-0.09498081521009044,0.2688273376047335,0.6201345853809045,-0.6097434931293365,0.026564917329375434,-0.09565475834909987,-0.6143222152462323,-0.7071626016871987,0.5041101309723527,0.3866127074146052,-0.4332146716664215,0.33387398363386384,-0.11770021239219597],[0.08962145241095552,-0.811642425761333,-0.7162877395444603,-0.47696630514978566,-0.3902395258627286,-0.7022811726762704,-0.0723563807122879,0.5629404613365583,0.744607924156497,0.2773776431672063,0.2619878474707309,-0.7596266776810965,0.27385244233372186,0.9337518455758189,0.4229802624493845,0.5518371158010149],[-0.37448718097285943,-0.42614782719332905,0.3890925923526337,0.8570627023095275,0.6583249346224871,-0.5528019296484363,-0.22882834082975986,-0.4082518857575584,-0.9819043610857704,0.14713270914925983,0.26850814539940565,-0.9420882169906278,-0.04331024301195307,-0.020437270128027846,0.03026111101850241,-0.7413739082515395],[-0.425427143177269,-0.5931275130503066,0.4379356956404089,-0.31049037307703004,0.7692818020291132,0.4265828875564494,0.8653414647126717,0.10331828262235869,0.04062218156412429,-0.5268629695625049,0.27600203781840754,0.38192354066451784,0.46424232220607314,0.11039299796245387,0.7717096256731769,-0.27461142905273656],[-0.12198268305458258,-0.6343865857555723,-0.32158412158304656,0.5998145021051161,-0.769750049082899,-0.04165086788804275,0.9038926412887074,-0.6874081783759979,0.21559927294052805,-0.9605752949853282,-0.3717681061438373,-0.42304270436084346,-0.09200042177054904,-0.29225840443512324,-0.2654883005934436,0.22638163163958258],[0.11396019569830027,-0.812199103256477,-0.6812091041880644,-0.7868947345770777,-0.4522316808443642,0.7813841219213674,-0.3303346354815917,-0.47750814675179215,-0.13512145101731196,0.49521427671890833,-0.879197479862094,-0.9869918988445981,-0.37311739524750676,-0.4313601684826139,-0.13597183079666056,-0.3975123465890807],[0.7231317561276815,-0.2023129937728112,0.8565272651231886,-0.03281662372060478,0.6606624266608421,-0.9188171480801435,0.8029578023620323,0.8311335056286305,0.8246995114741235,-0.3385470980744253,-0.6765855335680094,-0.6042987073802603,-0.5796133269354045,0.011038795677551443,0.4297801472620035,0.675594463665263],[0.524378150284748,-0.8320793962151769,-0.6767821496721361,-0.9531961879306584,-0.6906069930022855,-0.21672260804170695,0.8431573654850173,0.45114185333427054,-0.9493263971515986,0.6417710137732305,0.5233949714101348,-0.1401324161197681,1.0103919369477763,0.14432995599335324,-0.9487583859835365,-0.5788313987804148],[0.5624595086148295,-0.5549096190140927,0.4106441544647141,0.3840624618807709,-0.4007581913941473,0.117281976241692,-0.44356927200765855,0.192418668666005,0.16421793110327423,0.26868867060705615,-0.7360115478240826,-0.1221577475639851,-0.7851479536898616,0.17048004435917502,0.501283278258613,0.9434147673238593],[-0.8079122094294919,0.4581785690344982,0.5018362129324521,-0.04112201231769983,0.7336167684596497,-0.9163516439693894,0.5943368405305806,-0.8605592685429704,-0.4949489916325158,0.6462578349661711,0.07172961322397833,0.20872556941995576,-0.8881997167831441,0.05189617922024272,-0.6297780420936847,-0.6930172949274725],[0.3250939076632938,-0.4027312618039664,-0.6219843518372867,-0.3957215094798448,0.6288172994100119,-0.3145282850485502,-0.3681739634996458,-0.9002128447910624,0.02029483903104593,0.336003503654356,-0.5765574511444947,0.5307846779405526,0.7843930221487773,0.15692118576833136,-0.293386504672576,0.5693003590777843],[-0.047978692468213735,0.8066276374227365,0.3294767988387743,-0.12660993192314243,-0.5140055594865824,-0.44143673778763426,-0.9179443429019957,-0.8201176985444557,-0.7939641784535523,0.01833854477478776,-0.7557775576274492,0.33346920168272,0.8538714336580806,0.6206540286300162,-0.7075983593688973,-0.8233835797401233],[0.07809644242659974,-0.9619384165676024,0.08364484230226132,0.6307368211591322,0.6287678627431244,-0.20339087080368345,-0.8411593129118715,0.9769183145728513,0.44802590340749626,0.9327303999721679,-0.445256389419202,0.1448868229728597,-0.32861033143876606,0.047909554582047154,0.5606499004925833,0.4679118289928472],[-0.3338331819203837,-0.4647477620582784,-0.032233305756111275,-0.9487718138605225,0.6539847132069918,0.6635621980128634,0.166502389668721,0.08280526897069307,-0.5322668037993213,-0.6470504150013674,-0.5545485706788249,0.7952836313262972,0.3338193154585638,-0.14924231504520513,0.3135476211614663,-0.1712133191391888],[0.6717009891882639,0.9458934354907353,0.9648268191192898,0.8386826456560272,-0.2163006485893167,0.9554527028101326,-0.04260544226731135,-0.8426587029635204,-0.8643484284869237,-0.1560979811877695,0.4014799617305718,0.008517372378718625,-0.5789735376309219,-0.36874736230536836,0.3221538919889204,-0.41355498752370556],[-0.06744406471045734,-0.912633559304262,-0.5788158528434161,0.335569519735839,0.5740007287313533,0.6216699219609952,-0.6850666340153537,0.3535942929649003,-0.6940003276040368,-0.2824062395885641,0.2962414006033434,-0.6548113201046687,-0.33501831704614843,-0.532657679564692,0.37927993008395855,0.9816381813669137],[0.7166552989849747,-0.8972534633967453,0.9815922720563675,0.9243880010474207,-0.9484444272285548,0.7510409554552188,-0.49936259642875847,-0.615204961643134,-0.2878259132231899,-0.1143782467185912,0.5353013053969037,0.8761910162568914,-0.15718440360581815,-0.8998635621184037,0.39487974938872417,0.42359303104276896],[-0.2540068337703876,-0.33282843010371377,0.4068082398778214,-0.05662916184320552,0.757415673862615,0.4108898731433374,0.5357997928978299,0.5812753985421211,-0.2893316770610371,0.696754609908386,0.10212800564676196,-0.8513729269979226,0.665971114944659,-0.7825899957451822,0.1628879059521934,-0.5422908202294214],[-0.06739810782579451,0.018102182573479113,-0.14004309230088605,0.4293998067507303,0.23749235058364868,0.6973315588889769,0.49743802347072497,0.995005327337512,0.972160011381445,0.14530303551323126,-0.7529873568087483,0.9339637482833546,0.6924455049372794,0.13599497706767613,-0.6741316723146112,0.36507531018316064],[-0.8098109188625968,0.6049358674111399,0.5939263077257945,0.8872185195615705,-0.4131628514946556,0.04761044998747241,0.7980916167445922,0.16138041554495322,0.8173908266156485,0.6089345284889877,-0.6033546229781529,-0.7248751110214378,0.5801776682649423,-0.3739810439644059,0.8600399992037969,0.7841497818229856],[-0.22108219696412834,0.033758111376064284,-0.4263982103783338,0.1973213839067252,0.3777872221230407,-0.41627051082349387,0.3639587856976698,0.9045127869316727,0.8047887414448711,0.010588818101363948,0.8130917942946887,-0.5072579507120052,0.9199292464075477,-0.39100162080382755,-0.30902236117987536,0.28898086912217974],[0.47357652720106,-0.6967909149556413,-0.39438504784463435,0.369318158463133,0.35194034823944703,0.2884568542376735,-0.6148045389748669,-0.9339327611743524,-0.5273382172128335,-0.9304237854393453,-0.8504953173548788,0.40387934169203615,0.4433399749360464,-0.4246985609895694,0.3769919850654915,0.8037083387761726],[1.0035370604427178,0.36673561837755014,-0.3469132981874983,-0.9971270791834357,-0.20417156534142492,-0.08245594873626295,-0.12052603443134795,-0.387562034349148,0.5400240254032277,0.606919323412512,-0.7172010171452766,-0.7745427960449736,-0.4600723301037386,-0.546295883302556,0.9903791381887076,-0.8134751716697052],[-0.25332119608242404,0.662746010608716,-0.7537468944965329,0.056768579257097135,0.341490613551307,-0.9249936892151558,0.07465238930567254,-0.6309680138470202,-0.6792801142416739,0.7442397383867676,-0.980962513585694,-0.09471765960755894,-0.5816413674329454,-0.2835317775233186,-0.4073855992101784,-0.2893706245797236],[0.882491246722039,0.8128740828457486,0.03709752956307034,-0.5046964682402408,-0.7875581484108723,-0.2969484818664053,0.9360855319353736,0.9963002195263396,-0.1761951311423982,-0.6275462123341563,0.6528737748573118,-0.7893046034140838,0.41072847838400217,-0.8046061358973194,0.5544825157744256,0.2100779070054081],[-0.2217249022601792,-0.3898888901056343,0.7255522291256592,-0.10680426635305718,-0.6091224771725463,-1.0073453349005284,-0.49682108819290044,-0.050087353713024606,-0.4562853442882304,-0.36522354754466274,0.6741710225038055,-0.11628340564743195,0.2683411086582073,-0.7409869330993913,0.35200565396320643,-0.458376951551791],[0.18148739153121982,-0.32734224342286095,-0.6030224760408196,0.9484866520602292,-0.5107008732918576,0.04435583655827692,-0.656712934595062,-0.60974151995799,-0.6804916519035751,-0.2799648703711166,0.7494620145655156,-0.5688682861651356,0.34559114414958275,-0.1285768240014707,-0.466815114923148,-0.16004175628492281],[-0.42868826459117804,0.5892015206807047,-0.30416880485613884,-0.6848762348857798,0.5885202565336712,-0.8168930193055598,-0.2201605604693969,0.8496847678279595,-0.33885797092557224,0.6916142358194401,-0.9856001957030305,0.2699671472738868,0.5411016188110365,0.8021999799355658,0.25314240857717385,0.10718065077770479],[0.2961171559942161,0.37281218637386976,0.1710405143610512,0.9278212046706437,-0.008058256873087965,-0.4271787174556356,0.5597621432111645,0.0901893453059465,0.8695355755968506,0.5107706756653746,-0.7617389409125411,0.14543980596185208,-0.6472837430225759,-0.6662260809431539,0.2665754680328201,-0.18588712098239238],[0.9282475734788178,-0.8271915536005007,-0.8066146370879639,-0.3075793271918707,-0.26999899119535825,0.21022603280988428,0.7783027968000699,0.20660618064507347,-0.30146256967353113,-0.09945791061756067,0.4029132506388008,-0.15079373013120975,0.6709513737863112,0.5932386913143187,0.11732725369944078,-0.22900610747086775],[0.06693163432922339,0.007839782472101448,0.09141636489708699,0.7032168154591182,-0.08483502375437468,-0.46909958786318057,-0.27017808356134043,0.40255565366393425,0.6173023594194309,-0.4584415248460572,0.5884070763300471,-0.2503999140030901,-0.9416970598262627,-0.18829776544125523,-0.6571238678934711,0.8299877793554139],[-0.0913182545608768,0.8553902847768982,-0.284730896906983,-0.8578108833591764,0.2134494311611167,-0.9625178704073091,0.1425458163441425,0.4506920323507769,-0.5809792379450966,0.41492465219389724,0.7572861750235623,0.35882671370151514,0.31035617026271967,0.4782881536574308,0.6852294739246586,0.040041337273689755],[0.4087350817752345,-0.44591370672495895,0.877076938487695,0.7143547352280305,0.5332087772398855,-0.19871252475131382,-0.5259012964406261,0.33080553707628385,-0.757881756346308,-0.018838613110826092,-0.6116708206974297,0.1713900956952825,0.7192872577304807,-0.438244984080221,0.46357859308716937,-0.7450528731826715],[0.445516750075956,-0.24168534034526634,0.7523101401792175,0.7762800440583576,0.6563030154311701,-0.1963541595600296,-0.11641823248655125,-0.32661648311932107,-0.3797937012595502,-0.32738024166560936,-0.9650778711009936,0.963213082278143,0.5311418018450452,-0.4412869051592053,-0.8695238962815975,0.5462375405770089],[0.6176498113805376,0.27688312166811524,-0.7220518911366022,0.8666705075564384,-0.6361103100538635,0.4636203926184516,-0.7539731993596419,-0.13955924143048778,0.5014919718454609,0.7714375274770254,0.34872286498224736,-0.4814170926826308,0.17240064151161083,0.38068918972248833,-0.7173100947036667,-0.97003197939933],[-0.7802736303349154,-0.66895483657363,-0.9017661168168132,0.8153011004836482,-0.3229694290891312,0.5366398778817967,0.511497350247211,0.2505691278671888,-0.22915869615403667,0.4006151353479467,0.01880559323993847,0.8964793135329224,0.13963399862721868,-0.11294946150330834,0.7179880476605114,0.5556739985230343],[0.974542293032516,0.38534422996849355,0.004631673652516609,-0.44715322107669736,0.08665663275444686,0.4116311616644582,0.6197753946067702,0.22877139980791997,0.16490841950230078,0.18561427890513474,-0.4278208160371627,0.21141955325578726,-0.08831707868783427,-0.11708717656665055,0.25187989921513,-0.5474475279781725],[0.6606843446478299,-0.5080295182426692,-0.8540428824351628,0.4738401831183455,0.534756180778485,-0.2166256817862757,-0.9831121918196606,0.6894151563361223,-0.5601517092376186,0.41945443755179307,-0.5026453946380119,-0.7575730738347508,0.8645953687416561,0.9059076862219547,0.8307689936999804,-0.8329556229620904],[0.299268374203085,0.42476090701520186,0.5644713537240278,-0.4213838049801934,0.7890837243295167,0.9834930857689899,0.9894951916149572,-0.5948699414994011,-0.5714219591630104,0.8753602672552647,-0.49721703423086183,0.6360877756443484,0.9794172531540066,-0.3685541592859983,0.9027935637563579,-0.5414000186150961],[0.4565464437015755,0.8858481471740961,0.19451271750134816,0.5067632918582392,0.07116414108524134,-0.619395810349541,-0.8194429953227316,0.3920801743723075,-0.9311300901880297,0.034878285842104374,0.4280026171909217,0.6380315857191629,-0.08182650377481004,0.29168732892978366,-0.551201948003022,0.5078751062818547],[0.2884989517221688,-0.673345018026114,-0.7930196969737391,0.6262284413102215,-0.17680157775841732,-0.4224877978779784,-0.4826034016360544,-0.9322205902692957,-0.7700124344648851,-0.15502615047387136,-0.7762239369453042,-0.9358763498886844,-0.6102914705920459,-0.14624430106312236,-0.8151825702819893,-0.8145153149098695],[-0.9467630747598603,-0.6360289523804572,0.7187521333158138,-0.756364454875249,0.5540722685513583,0.9619066284545468,0.07205166653677973,-0.11338294021976825,-0.7634177897176568,-0.502127548235257,-0.4383216681171374,0.5501218659737522,-0.24709441882348218,0.027565285174092992,-0.6932255472529454,0.4735855719291121],[-0.7952852726226414,-0.8606469478195841,0.28443280418936523,-0.25275588364301677,0.9731200660991164,0.9669093932906818,-0.851371496193959,0.3698154326779082,-0.22743939612290848,-0.2685542176743763,0.11423684214918482,0.11787069784651513,-0.8974541422278328,0.9884177028261331,0.5064526529127874,-0.3298213333955259],[-0.9038060664653961,-0.04027500711301533,0.5171733732739078,-0.09746725446768488,-0.07734741994544647,0.3059859410843006,0.6355622661692121,0.861870154029791,0.6927162892113087,0.14370624361610665,-0.7690164113866925,-0.6178535553803175,-0.3752445577053678,0.5617759729748687,-0.28196606238873184,0.5716718925132067],[-0.3963334666582646,-0.2931792697267604,-0.2864667656071049,0.016041940196407804,-0.1424553309953531,0.6945748622363214,0.4348362819333922,0.5084726464352933,-0.17832509624842965,0.11272142786177018,-0.24380850737136722,0.8617652617105783,0.030781223877670807,-0.029754086192803578,0.5785681251533554,-0.44965946647088],[-0.918567037867144,0.42969102134925524,0.00736802990325324,-0.9655751450590815,0.4804191588324088,-0.5124926016738329,0.8393787205201255,0.7107114357377392,0.3658228442572592,-0.3339268865779784,-0.30684300360129035,-0.19427736671206522,-0.6944589146125929,-0.035482103692627734,0.16658950928398286,0.5484748350868679],[-0.6775518601533278,-0.761342843625304,-0.6397432542050406,0.7762949807640266,-0.3538224765495359,-0.34006188254478864,0.8840633589954232,-0.294974747955913,0.7160204758642664,0.7365061975014683,0.07522063582794579,-0.7404543023196953,-0.3832804830581232,0.02506909688476589,-0.47709816106042086,-0.06574147856434831],[0.27913319211094545,-0.16625793835194,-0.4650896392931179,0.5561805280454487,-0.6141918179530873,0.06124705746500684,-0.24330322331766818,0.38080301991657156,0.2983837416233966,-0.9424364929366242,-0.5757333315688025,-0.7646678243496438,-0.22131530318560083,-0.2769119226704331,-0.47589513712805037,0.7890216148892212],[-0.1536131628375419,-0.6613351548295999,0.5458534047453288,-0.06124548903314234,-0.6217113048231678,-0.06562017134928756,0.0694554751221445,0.9064571254303703,0.8933626104956235,-0.5412912989943467,-0.5991217530202253,0.4772933049681551,0.8340327507692585,-0.6886659249499268,-0.6463509904860392,0.9627821462881299],[0.6169947247865986,0.7502495444550081,-0.829065016303501,0.8905050967322644,0.7136592588650023,0.26960594487886225,0.4959757033296388,0.894182333158873,0.6916675893308426,-0.04229347029940839,-0.6194733121085784,-0.4706340795686746,-0.12103725213555484,-0.6722255258611928,0.5267006914429714,0.0206377583572895],[0.3741813666646984,-0.26980698450392615,0.5489914825586792,-0.9696752984332353,0.1628186334693786,-0.9162218391487865,0.06583233151447039,0.17788383505963296,-0.4576543049106487,0.6033207169340015,-0.9160876198508215,-0.0894288593925476,0.7066587753555955,0.2233770108766139,-0.5464779175345629,0.9347211788631934],[-0.15081338996680754,0.8828443303231955,-0.02089262783560788,-0.26397130488306886,0.6581345534590652,0.09262803382340573,-0.5747122051214688,-0.6357783566127373,-0.27794976829010964,-0.9104594392676902,0.4227826676567306,-0.018857945395881565,0.9525530148997309,0.785989891817219,-0.2253308726985576,-0.7747253065624626],[-0.2448286184480851,-0.5266024432624218,-0.3354659039339849,0.773903762167496,-0.46961852196805803,-0.7980585772194981,0.02645727528613388,-0.4152853655511507,-0.6077396293736714,-0.15829938088218742,0.10011292413026485,-0.7912986570799969,-0.8424490093292056,-0.874560090565374,-0.8898423203370042,0.3288704730291246],[-0.5406454503029319,-0.9863790944989436,-0.9451283589408135,-0.12305863260647878,-0.19635740385838768,-0.7742357324050684,0.32570722045353423,0.7241718362226525,-0.7565931585230424,0.9253532339383551,-0.5968418424933029,0.35028693438445263,-0.8461007182237935,0.739989229712251,0.20511760749110947,0.09093027396248791],[-0.8357629030129297,0.4431230480629327,-0.8791900346088515,-0.09417886577577499,-0.358200329059297,-0.7452166674128327,-0.5279052624356099,0.5297059163235955,0.4065778376815315,-0.5408655225491924,0.1285867628392473,-0.36060348206216025,-0.41336596002885695,-0.36269257940387295,-0.9104173656485962,-0.2373591517920448],[-0.6050986753556904,0.8929378087665333,0.23775921366163283,0.44855152441835366,0.902283535554461,-0.6736659165641379,-0.8496299359988484,-0.05895699586447609,-0.5581055170697078,-0.7434410239516087,-0.8724380581043917,-0.9895281044455038,0.8341342864997947,-1.0341545127765774,1.0513763364681483,0.08736360609558722],[0.08401882963737231,-0.11791566941585697,0.5462853815351922,-0.557466914952283,0.7986028339227592,0.353213543998252,-0.8351874524787778,-0.05473889480286729,-0.7846029477489326,0.6064757335022253,-0.034440454290762035,0.9269869016850958,-0.36828669292832195,0.45169108562278987,0.518426277592937,0.3754784334915139],[0.8808993281135554,-0.035531234145926405,0.06844889369779152,-0.23777246808259134,-0.673947245162638,-0.643889701726258,0.7756829472105583,-0.7681243149833951,0.7045334608717911,0.3583940949217932,0.23139589013394948,0.08777940738432606,-0.5107188148354914,-0.7791195893770839,-0.48904648375697674,0.5650936896066926],[-0.3026336317753271,-0.36397444210744656,-0.6520079746703261,-0.8362514643048874,0.5903345515900097,-0.2855693218737453,0.9809360661291215,0.12445210143162493,-0.776883141250629,-0.9095052447278094,0.5892236436868354,0.11770326494854338,-0.9488438772408816,-0.12486955311510134,-0.7245344349440712,0.5507367581137819],[-0.8840248533068983,0.7867638355038629,-0.0994545077527924,-0.3142599609465418,0.8778900952104821,-0.048642339383679845,0.42527891481421987,0.3910998551996599,-0.3219971973317609,0.4273089424675106,-0.10546598181772324,0.642440344838343,0.6413909761564762,-0.5875576648727814,0.43823027906821294,-0.26633509334379524],[0.9491031689724598,0.496922961120309,0.861638162048488,-0.7194189819074135,-0.9007977568283917,-0.2946390924634055,-0.6828695175731947,-0.832722736241499,-0.4444269640436213,-0.18205411074646657,-0.6929817690884652,0.5209117357558445,0.25037886483336325,0.6440429190003787,-0.5960546729314935,0.8097897768261949],[0.16904929956890433,0.15980107362829882,0.11946868458727551,-0.3299977585385657,-0.8775357016266234,0.8682676001413033,-0.006878095433884639,-0.9874841028223077,0.17497926125098873,0.01578474216736467,-0.7618658510921971,0.07698873257372423,-0.17208280354895303,0.17969833137838143,-0.7554042251472551,-0.40112580416252724],[-0.7529143862919881,-0.2439854505534861,0.12174147660679804,-0.872021179379825,0.3814235212522168,-0.8055892918875414,-0.7504773566191987,-0.6103803846245759,-0.8086053068095426,-0.8371227748518743,0.2236760729981889,0.6802857385432699,0.6186364819782292,-0.20406909851364094,-0.16853454277635058,0.6225382236053824],[0.6644128339484154,-0.7222445613441685,0.2120423244104452,-0.32137349012353256,0.9480182346613941,0.9213940589388443,-0.25552831265394427,1.0027097453438316,-0.5308914353998524,-0.5972634044016748,-0.21040060347469722,-0.9868387598911433,-0.46922892582590253,0.5815958125583728,-0.5932465008135549,0.17000404530058602],[0.15770828071008078,-0.5062699418190387,-0.5882252135566495,0.21576135728492482,-0.10468110316618738,0.5836024297508903,-0.14565925098550456,-0.2624145325069649,-0.112679640727787,0.1319591887987352,0.4035719255676424,-0.5457552509123983,-0.9463784379768636,-0.7466482024937553,-0.9559072345985979,-0.5398889663027626],[-0.5506203570994223,-0.20104847745451065,0.6636567943061691,-0.5938414933024208,-0.5162496196567488,-0.32371314773712345,0.48401886943882005,-0.3535063164447585,-0.40080549257238357,0.9387256028342827,-0.4205442817200952,-0.8286042433457939,-0.5161470691716953,0.6969773543589254,0.0440136284839063,-0.49550742725447317],[0.5747463912559568,0.3037085815689332,0.4506681044259865,0.09480751449014109,0.013780376794158326,0.7781496148391519,0.6041904123772125,-0.15310161054765264,0.9633243832997661,-0.9635338847361702,0.7733607586948134,-0.8384351655928818,-0.852716676910551,0.07923379649717198,-0.13966794980469635,0.8949254224440397],[0.6557658266535802,0.31901769401459856,0.3469544040723491,0.7820903201504099,-0.9771618693960653,-0.9888540059276176,0.26102841145406863,0.30226107095473487,-0.171808456616387,0.2463689387060557,-0.5451364859683143,0.18741136285821502,0.16311464233468964,-0.47948047494491586,0.444091783577619,0.8974616499140213],[0.06067609091320825,0.282827347183054,-0.29570628483579786,-0.8698473292728175,0.32583027394759956,-0.7864183959487911,-0.09296234934263037,-0.7758073228298721,-0.03366596392992227,-0.4367849162951042,0.05737573237036164,0.2833446288869459,-0.8119803209844885,0.4992855198212367,0.030865925844230757,-0.2214932996879766],[0.45593319460239656,0.6297817064005821,0.8724467902177364,0.9904413837518389,-0.8747786150428254,-0.5728076624720895,0.438562684379871,-0.09003303147510326,0.36463165545246334,0.4278623413825658,-0.6365227768953264,0.11571066518736509,0.29834463981195397,0.7671240774222483,0.6010069701224864,0.016486617856655728],[-0.04222173955737656,-0.2902322142307599,0.4161602048770472,-0.23390331114562923,-0.5057049657931981,-0.7862931982688737,-0.3066751834050364,-0.8733437220587755,0.1409548515272061,0.5201054115586704,-0.27858264078201633,0.13421628110435815,0.7614956078605034,0.5897259002194976,-0.8722071552478996,0.5204183786356865],[-0.9451243692047575,0.6161308310981014,0.8234305069247208,-0.5530111450296135,-0.48440469289226173,-0.03513867913576742,-0.5126147667850245,-0.3053037333986592,-0.727219318544505,0.458692697001724,0.04169200889478994,0.6299137184774003,-0.0246242846990504,-0.8171108934986916,0.571971831696376,0.25323876648531873],[0.44633309219750955,0.24649435671558415,0.8264995473281843,-0.6332637256137815,0.9658851999122032,0.42503747137531994,0.5562626543009184,0.1723079696461111,-0.7171406794380238,0.8172944514949709,-0.39850450846219,-0.49145623256901516,0.6757866023240441,0.5633378477497999,0.2671714277293794,0.9965649223737764],[0.4753756644329286,0.14098294308199613,0.6457001160740082,0.9270021688568112,-0.8353169603098997,0.3168065178530062,0.33498867157265566,-0.4045670206049309,0.9049897509682209,-0.8879558332844762,-0.1825616093951438,-0.7175899577677433,-0.24306049951265285,0.821886538821044,0.8852787639727709,0.8548193050035355],[-0.09845356357525685,0.2909112716022696,0.3567708991493905,-0.7326099552847712,0.7646363590025409,-0.5287087931458734,0.3117801281450218,0.0836484939936035,0.5911818830589664,-0.22975388316737744,-0.8317310426722717,-0.8131148898537199,0.15804721421540585,0.7382536547252491,0.6930433627821722,0.5947972683382687],[-0.27569242457487797,-0.30775618817193573,-0.17862694421566572,-0.05529545686795778,0.8255996093633514,-0.38234363890096074,-0.6580128100398741,0.0065961890910669375,0.5765899553773839,-0.49388910750422965,0.2416548904549947,-0.09763645652010684,0.12108900815620986,0.5416306971816767,-0.5873781222121327,0.8092827443428449],[0.27029871089268265,-0.807535526332374,0.2882297414316857,-0.4063315810140285,0.3864635723923694,0.3176490341000286,-0.6950091887591873,-0.31568316607984637,0.708648880674313,0.3169373095710107,0.014673312951094869,-0.7603362018910688,0.29104621597523295,-0.4427227351201511,0.8980443238997053,0.12329653560134032],[0.9072956823989584,-0.5611095607106885,0.09155668405308924,0.05603673155220886,0.8840622844630779,0.6125712560593649,0.31721925712404636,-0.25583640872871355,0.8534528172334721,-0.5574532639885396,-0.9665773702818796,0.7858376189447311,0.8713804320407839,-0.12798786541980584,0.3012478206120526,-0.4022085225932758],[-0.858221863749458,0.0004201809460824218,0.4831815028337335,-1.0272408757718754,-0.5048005772384994,-0.6099807865264779,0.7201841310847936,-0.16415640915019866,0.5034183139118813,-0.3918416016212847,0.2487124356828594,-0.02044320581356565,0.33741046704455574,0.7570846563006965,0.03881494614494115,-0.8688921309369664],[0.8014032058922856,-0.543457756099944,0.9657884958149039,-0.6264086026131097,-0.25399141066340836,-0.7682330821059584,-0.8010063367002896,-0.755408712279443,0.461321986113593,0.6588556666516913,-0.056067587075372925,0.33763817584667394,0.04969373937695175,0.25323613858710603,-0.5746899371845873,0.613851693163929],[-0.5430223875883902,-0.5233692728341629,0.2987039257000407,0.01930036810580052,0.7575874234410431,0.3529016611400568,-0.24613469217629355,-0.8077194178923318,-0.16880227775198944,-0.16116757465284043,-0.43248992790936713,-0.43914070505118485,-0.4042955390050627,0.23847196738545937,-0.11866907925786453,0.5598396912432336],[0.9110612246932963,0.9810969711629051,0.7906060796468298,-0.710553846219251,-0.8904312373982521,-0.9952526114931021,0.7504735717085588,-0.044764954192952164,0.021876446562553574,-0.37779564370122243,0.2690792606915329,-0.8624466828795513,-0.5077187531249818,-0.8813595573190562,-0.9247717783230666,0.029034463355142263],[0.7290032114018828,0.3904692566188908,0.08255173985226431,0.2829019132374816,0.19767730223063557,0.2550080431075941,0.8842989547112093,0.8920406250477607,-0.2332044950849815,0.21840635313587423,0.5515782459161255,0.7251877290851527,0.602088251198392,0.4386274032887476,-0.03304964281287359,0.1390868900250754],[0.6799572996858874,0.731075551231067,-0.06876682025496635,0.9432829194571433,0.2548060478206905,0.29516776678213763,-0.7672151434846233,0.15307268793851725,-0.8197370906153243,-0.4642507769709603,0.7948133766546985,-0.4498044321572647,0.3467529216562264,-1.0444765378764271,0.8107025878830533,0.7837010917832706],[-0.4516166632052713,0.518126704538093,-0.46189151252213423,-0.41899131813064894,0.5403086331916211,0.1006706392751574,-0.13418781002580116,-0.9973820160526334,-0.8344096362815382,0.2507486997688197,0.2798696062735635,0.8584742872605476,0.8453503407407285,-0.6810152187480217,-0.24893526105550914,-0.17046695372801457],[-0.7888456122456667,0.18548878220515447,-0.9986562941994771,-0.09460935916613135,0.25839584441273666,0.4235001694760002,-0.5843091530430845,0.03916698805404188,-0.09741763132663146,-0.5958810733936843,-0.8317209366838687,0.6897968209950472,-0.9662717022850638,-0.018070548178654194,0.6490748510531283,0.6041595275612839],[-0.8470768924613894,0.4385649780022055,-1.0253126205848213,-0.6992078706570679,-0.2930330140650973,0.8262157470580717,-0.7763105774878749,-0.1355489136135475,-0.9644031692925237,-0.45552031152518047,-0.34365890351214784,0.06380196972375311,0.10327741787989687,0.3258547206799734,0.6421716874887532,0.7231233950822643],[-0.04471637267545934,-0.4151091341775996,0.7695419174051129,-0.19944277219177556,-0.24467286256347492,-0.44115640139467166,0.24471382688256693,0.6032591409586202,-0.9903610776281928,0.06708490542910588,-1.0450049665222676,0.726771279422304,0.5016233884863374,-0.24449642801078364,-0.6588456756410068,0.19475831120474735],[0.2853721377498931,0.32191323031418406,0.5604754789192599,-0.11844555346346554,0.03566027852666863,-0.4889497367120299,-0.4975852276094098,0.14609069851541293,0.2273616557858413,-0.7452959064298408,-0.15136873137813836,0.21294646487001728,-0.16074079066966085,0.8127901536607757,-0.8512403757345114,-0.1725523545512816],[0.2345272331106023,0.37362458845092633,-0.015431936706432189,-0.5741014630113559,-0.49593935134038997,0.10050622667397799,-0.8343594343345252,0.9233749540555487,0.07524540387129852,0.5514452519023791,0.14536821161673866,-0.5791826426995341,0.21451517972296683,0.33385656466746777,-0.6678839903379749,-0.024164887123127594],[0.15696816798178828,0.45200653635586235,-0.4987800841649667,0.3694290660311584,-0.05895831100506738,-0.8325312155979272,0.40629791659619435,-0.6853639057348813,-0.4317206952372082,0.8134425478402668,-1.0239071054122244,0.9024142023961252,-0.5932172906887219,0.37421843250556125,-0.7237948050305032,-0.804411905052051],[-0.8757812064904257,-0.5362488564663861,0.8947404559646327,0.7709048787085312,-0.1724662838983463,0.0733978606984491,0.8935626471037472,0.002527098586049834,0.46474957803083505,0.840222085527345,0.27290791147102994,-0.9198013041530135,-0.6336913973202991,-0.37802272729336717,-0.20796968002351798,-0.11021996746287382],[-0.008259798432091101,0.9300756131444943,0.7714053665009479,0.25162500888479167,-0.9907220743712543,-0.904491686263953,-0.9165167559025491,-0.4411931269526863,-0.7833037463211007,0.33477700399783494,-0.15948082187523285,0.09433842328922683,0.7931087661214519,0.010379294201961589,0.5964358788273177,-0.3972282677437102],[0.21432204642098013,0.7232150035355743,-0.3600874423062777,0.8092993328321824,0.972619480382836,0.05374023113359673,-0.3967204719811454,0.004867715532275644,0.7500199342866244,-0.5565523690832719,0.5227339958771237,0.9752454726839145,-0.6601674923223616,-0.7893976362049228,-0.48684743981239026,0.7027821189679778],[0.5372305266038638,-0.542576956283957,0.3109473219151584,0.14867101237432528,0.03491217184999914,0.689278352293465,0.8815803678174579,0.22351982124352313,0.5142094720020947,-0.7990691470658504,0.032863966526069675,-0.8958606739804126,0.6820907189484359,0.6352480556431636,-0.9061277156048361,0.6736072219310177],[-0.8567103994343013,0.21231721025533834,0.08033663457275209,-0.10792435105327725,-0.23847553377900066,-0.27512408107292097,0.5247353732235429,-0.9443560410031844,0.05647728548221154,0.8106904829902064,0.909238912122901,-0.011907437356145745,0.5846868798065403,0.6741646405654795,0.9692365927478468,0.5647157400682177],[0.8202460208639464,0.6326674130539404,-0.40363372720117174,-0.9289338659630216,-0.7821426133982552,0.7820548597674613,-0.17838299689034948,-0.5000153754456773,-0.953904756697293,-0.6868598528427399,0.28600059184892884,0.8746057392920146,0.1559926705478444,-0.7597872437696233,0.4838560643398289,0.8330687449950243],[-0.45369843751908917,0.8741217904297683,-0.9284368880615075,-0.9562558870713197,-0.9519458348662789,-0.9446338742719136,0.3984683504538628,0.3727081553064627,-0.6966097927998913,-0.6868451963899569,-0.7026102478747197,0.10894377337240613,0.5867757137269808,-0.5789877944974874,0.09759789178620164,0.4897076517436296],[-0.06144418754504004,-0.5281837040040063,0.10634754605166127,0.6762365234774603,-0.9667854580715215,0.7270147413598103,-0.2250797496412237,0.1307427175924437,-0.19505672891022333,-0.9990608889611402,-0.17718787568834793,0.9301641648176077,-0.41821544366014674,0.32052060471592314,-0.329799031574574,0.10570848339531536],[-0.8477091491984194,0.9077882542354095,0.04880813712977087,-0.38969747630105733,-0.6275974696825147,0.014772487140285865,0.9448730884495308,-0.13363332241371229,-0.7779640096141387,0.16612806696466198,-0.8204646579118565,0.6895939143330234,-0.4466731568910241,0.2761459440194297,-0.4622057562464864,-0.9551642982381661],[-0.4955154045117417,-0.8776235687471938,0.5560609715429286,-0.056820504290226025,-0.5345151737369725,-0.29407310085098065,-0.7657736747344498,-0.13429689379969342,0.4016693630555816,-0.37640724092625966,-0.07776208784815031,-0.35483829087519514,-0.8389681989284632,0.8787094888054438,-0.695145663804273,0.6528437564534681],[-0.33433278832159374,-0.08543381914647014,0.009679791497028186,-0.9934942815272803,-0.3762562788938088,-0.3535529638841908,-0.3786554022697642,0.40042185936811814,-0.1132442851994584,-0.5087443487211344,-0.37519151180183014,0.07195384906546007,0.44717831410587866,-0.5049555155846962,0.07152736410878141,0.03685469485870877],[-0.7840941997687201,0.542601404898258,0.826053151225286,0.4484035285621782,0.06111516417497485,-0.15141137419262032,0.8461241294916936,0.15496782524531558,-0.670823601375072,0.49646268809816124,0.37241934142097505,-0.05474953448476514,-0.4139954701660176,0.2045442375896549,0.483219094316764,0.010033648680322957],[0.38663785018938157,-0.2982700381861034,0.6702394823552318,-0.03500735884696064,-0.7404448571510723,-0.493443595625599,0.6384460154889992,-0.005362463110812123,-0.4718452394760881,0.029525024685653663,-0.9672921252790913,-0.648647585583952,-0.47347294799120465,-0.48046978312095084,-0.2497855866121727,-0.05405352289495915],[-0.34263194796023994,0.033281654252575246,-0.24579419827607,0.13054017272072252,0.23190699169564816,0.05680762498073823,-0.18416657340869005,0.7689525587505367,-0.4506923850474517,0.4351331681989372,0.6504897808612374,0.38455487993624365,0.11488484001982734,-0.2629230794322532,0.395666756991122,0.4957175640164185],[0.3178655722439073,0.11245264193397649,0.7208987003877585,0.5763211409603866,-0.3418546235135266,0.12472398847859933,-0.41037775350749905,-0.5124868067721204,-0.7345543363519528,-0.8517364492057975,0.03992591821946002,0.2664343799121784,-0.26399119893917256,0.06082136097645942,-0.13091330001027524,-0.3336846392004345],[0.3992505386231779,-0.3501094093089052,0.1657901762485032,-0.6698307945644772,0.6896864464861784,0.6787441930397898,-0.12205452823262589,0.18100559736009353,-0.5641534529506316,-0.7282936286224808,-0.17463582213063786,-0.5395555340309294,-0.7163437740323962,-0.7228660245334418,0.4820107301277454,-0.8018889907492737],[0.2794051922021069,0.37653523021799196,0.019229050254401695,0.7832395112946466,-0.6310146802506182,-0.0947799549655507,0.712641694508238,0.9602042357807107,-0.5144513597559206,-0.2766243696713697,-0.7352441529152088,0.9121514727594169,0.3943551889673379,-0.6455219712521253,-0.7922695368189211,0.4273985915766109],[0.5616418736837325,-0.20977072669968724,-0.3229262759886235,-0.45983332060287924,0.04071977826248589,0.7709224589735778,-0.9422204885866446,-0.3903917673189117,-0.3506070426373169,0.14804227008484194,-0.7938887460848928,0.16349735199439486,-0.017804152159690733,1.0237113562593032,0.5054483641500208,0.4530903129920735],[0.4482959577827751,-0.1546541134608884,0.2606132344843424,0.8868058964670974,-0.18338209794824945,0.653123379117037,-0.8058863657131177,-0.4977989528006291,0.8260371402284444,0.9425162530044399,0.8577397881214445,0.7368923743909942,0.44753793159289723,0.08340387330069925,0.6843443190231806,-0.07146397775006845],[0.12233739286347774,0.7744603392108083,0.8995347649420699,-0.198573759354441,-0.4937262031167056,0.010796168602600374,0.9204950073043167,-0.7556904146763095,-0.2727006050979859,-0.050447016127279136,0.07354072367036213,0.7551666741760777,-0.5033821153782729,0.36018143516904716,-0.8267471497773137,0.9598382323326071],[0.1702031939694037,-0.515562334028556,-0.5944547811502013,0.33507565045834087,0.890430995310774,0.7262942069047416,-0.08472645944954071,-0.8131802337497073,-0.6392295551638598,0.1846890851086174,-0.11281303126230197,-0.8858586892149604,-0.31426509996801616,-0.4583034312489955,-0.7599284144700212,-0.2321650361324729],[0.7247784711163474,0.9812348229706409,0.512195646809768,-0.267037615769986,0.8103304231610085,0.9404166123219745,-0.8884008055749443,0.38451997526009274,-0.793391236540147,-0.25862114585073237,0.957721615715348,-0.9447677821101393,0.08486915200539658,-0.5310245384461425,0.5048758006044625,0.41439503536136785],[-0.11505265785805911,-0.7882186808466652,-0.699115527774016,0.7148031264203155,-0.1509205358834872,-0.524738244772962,0.8436131422214875,-0.11936623154172178,-0.2320429006341262,-0.6106643121480309,-0.3440226584347453,0.7127455009254017,-0.03446100205893093,0.6676332375483431,0.8797417250778353,0.913184918268594],[0.6518991863324188,0.3423023911610923,0.5399270427946519,0.5978593213431718,-0.8640812156795101,0.5951373586862562,-0.24656942388222944,0.19235373081595705,0.8538470650788552,-0.43493876515536595,-0.6645472596847563,-0.0046805404429196215,0.002685761602747057,0.19593102987946315,-0.4033169383892622,0.16489656504699704],[-0.9625286945753189,0.5506511003876682,-0.9636163850926378,-1.0447883235347597,0.9935339125990261,-0.31376153977402793,-0.3319492134419893,0.19063843955828969,0.5399148402414317,-0.7667446787481357,0.019931931389705226,0.28811009268930887,-0.3276466154934541,0.47861572448684375,-0.6046225945378608,-0.19913452618474067],[0.4358745277094164,0.7886079264374485,-1.0028003607943663,0.3957677286562343,-0.07635331488817974,-0.4280964437585483,0.218324630860473,-0.8951021349020891,-0.5849170956128632,0.8708710655946507,-0.3594879751973949,0.24596891029630774,0.07913389181194962,0.6322575874556855,0.3611384478488679,0.49925195769444297],[-0.42791998629566674,0.03389526019271567,-0.8497334015803351,-0.7927368349890591,-0.8521865959524638,-0.1404553781538306,-0.8800741419961374,0.22253527691532685,-0.9786513675468859,0.696407367398213,0.36267823262683446,0.05356899002386367,-0.8888100427479295,-0.2547321407615702,0.10246692658374218,0.8736551436567511],[0.13627830931825677,-0.2100241386928723,-0.3820864938157398,-0.8959782549034416,-0.5487194396432578,-0.19379514246176507,0.9830088193618092,0.9872056642746444,-0.6881352514703157,0.18931783040191252,0.4417387578757504,-0.9055944811231667,-0.44183973963376766,0.1888066753645759,0.7302513666555389,-0.6427386518477294],[-0.02427603829817475,0.3681928029766441,-0.6430332041189963,-0.7194859512447426,0.6948378578214796,-0.8227723402315196,-0.47228353296960746,0.6874335996626181,0.9852898201866587,-0.2533442904498407,0.1817718047244335,-0.27509584031935996,0.9482835836919341,0.22402059403638527,-0.5524618953756207,-0.14236103954542745],[-0.6759814938883338,0.4454094636781168,0.6517328843089432,-0.9736212840847749,0.8350571262108674,-0.12948805232706634,0.3403448305986815,0.7618255848731076,-0.43663647056954297,0.3946971593684483,0.8652542016345325,0.07665793408902394,0.3454934059318273,-0.655579894089044,0.4483044808121194,-0.2383069274667496],[-0.3533084111934298,-0.19305053217487594,0.6517394530043046,-0.7996990221923415,-0.6828698375753165,0.2321748985497843,-0.5825422143724435,0.22273648548386352,0.9555876339661841,-0.034286918886152436,0.7445950388733562,-0.5847960687383066,-0.36284031105532055,-0.7071592296864836,-0.4167026060720643,-0.3259336816018603],[-0.6026499238588657,-0.9341295524974749,0.7589420126153072,-0.17686004114686082,0.05010478403523995,0.5102585025360485,-0.20602521831380696,-0.8499728217901122,0.6028760493465151,-0.019218040077203565,0.5243208642666386,0.9583821269163318,-0.6645237803409882,-0.3289409558922825,0.3513301992540653,0.04785506830156399],[0.8479478153623397,0.9534249435893376,0.7077967923636532,0.647817099302922,-0.11469845711938031,0.1268129549579755,-0.2437361056188755,-0.6992518164679649,0.8920209565628419,-0.00047416472829608924,0.833447007384825,-0.13713069778733455,-0.006585476457413919,-0.8503137239489302,-0.2727037962864637,0.7846708892773235],[-0.6858832707867306,-0.7977791143753536,0.37035663797142565,-0.41088415673976614,0.23242176357848737,-0.7248474329545388,-0.9602772131304256,-0.40230110274930225,-0.20372385903326953,0.6033128407994719,-0.6752182636896725,0.21856634647942297,-0.09405057517098496,-0.6060118388841497,0.3345604945414734,-0.1914273393932956],[-0.15780379264208969,-0.7413780489010111,0.5203417636428315,-0.021157339154577876,0.6914210396471824,0.1536863399530796,-0.2024738633819817,0.12939689878760524,0.6752458817883805,0.6710623263422364,0.41182482317125396,0.05874274413875678,0.40497234236324736,-0.02251745067663911,0.33469409775400016,-0.3736229769028192],[0.06391315626858296,0.6885743744018572,-0.9365912409418714,0.18797789849252977,-0.4879147807442672,-0.12454437551828722,-0.6092950284554511,-0.8552073981914063,-0.9448550724306313,-0.8820493343773881,-0.8092260214077847,-0.45957626229984455,0.195860047523466,0.19057997766632456,0.9647263153149124,-0.35043720914719895],[-0.7697017996018891,0.5183764724679821,0.204504860909729,-0.4434087576353838,0.9943027092261532,-0.6297094337763196,-0.06287245535695704,-0.8240706064652733,-0.46875891309980944,0.37017851630137916,0.07864612535312823,-0.46339203910335586,0.35115820669485603,0.3753155823029629,-0.25675175502409164,-0.7054470919503807],[0.9371960118527858,-0.3301263139691297,-0.6385051431224708,-0.21680131814671727,0.13184977401250922,0.6251016852493687,0.4366090898181127,0.3782910444450707,-0.6117509040930778,0.9090119548502728,0.7863748661049744,-0.8129528887485101,0.08879228802159236,-0.7944830590480891,0.7719390398744995,-0.8188408871407477],[-0.2428400658929528,-0.9402568185663259,-0.6876746253445334,0.385873062394407,0.007166567786214787,0.7468705377472046,0.7600608305587578,0.03286392444374626,-0.4678113449041603,-0.04282724575463719,-0.7372326586015712,0.21241377331337052,0.5931455780426524,-0.9124828445266848,