{"layers":[{"weights":[[0.17755814417151639,0.5154314867758338,-0.3361201329790615,-0.02521429724302804,-0.7875242241600175,0.9491107240082279,0.9089542440646114,0.004719048275015902,-0.3920686894059501,0.19102347231983363,-0.09072901452459814,0.5009013086095924,-0.6077125294169935,-0.33176429352339554,0.40479684407114847,0.5317641699368898],[-0.9179560662796517,-0.0050190310017294015,0.17186440395743796,0.6921574891042697,0.007172257177146202,0.20654343962974075,0.3400050081964605,0.01884783293066916,0.9553027972370864,-0.04959457137137402,-0.6030999830007087,-0.19644345678223463,-0.7989415003913183,0.8473601713065804,0.039261607005848465,0.7063857101399384],[-0.8562287845910661,-0.5155051869878104,0.08240716861673025,-0.6460126562258288,-0.4384533601992081,-0.5990610279138484,0.9340334804421446,-0.7633638688192534,0.610014813770547,0.2684884785062114,-0.8113828077034013,-0.6378536464822728,0.5825153577991367,0.8129777050637537,0.7667892956020261,-0.45125928402471327],[0.5339415583451939,-0.34354534621515564,0.26068273152256505,0.914416435134791,0.2111130641825092,-0.926098526421049,0.8510869247145425,-0.4464524627879506,0.11278672288767377,0.7906134881966811,-0.8773151318902686,-0.1972263004617888,-0.8536122058767882,-0.6286411805211758,-0.11138705961005158,0.9768183380257425],[-0.9014485682833234,-0.24414947407513365,0.2552305624146156,0.5826017575257465,0.6688340816967349,-0.5921456066854975,0.5475210303196316,-0.2718732167370027,-0.02619817900760013,0.9602321889066288,-0.6853933100054941,-0.7303838877614512,0.37277695973067404,0.6754878729933351,0.5680054256543543,-0.6405096257294107],[-0.348075885953417,0.04313706096407821,0.5733872827018551,-0.00941233942723474,-0.3229794499105678,0.5372689708775231,-0.9755636835357006,0.812800259242207,-0.6064422110125619,0.3107176773765672,-0.9007880016699378,-0.39969473397345034,0.43483602322397563,-0.45805726361370513,0.06063864522643314,0.6425508566398876],[0.9701817035536195,0.9051847578516159,-0.9735395675401853,0.9021912030420225,0.9341934844545059,-0.04470420491169402,-0.6428187692737295,-0.3245918356462344,-0.9971109591411011,-0.9352288599755749,-0.629093671044844,-0.19810590576292286,-0.9911618018481703,0.5944719107795842,0.4211245362745246,0.17983798551365648],[-0.3959053351524776,-0.23695834597431042,-0.30196170569488856,-0.3558749851565226,-0.8941162796198001,-0.3956690269502201,0.41795447721050794,-0.507337440507178,-0.9826595233672576,-0.02729739575986634,-0.025046959065388452,-0.6361044578422348,-0.04669962033941388,-0.5078921371641998,-0.32829121189578025,0.49974056030611536],[-0.9005802040456702,0.9577087247547269,0.7860895915823474,-0.15452722700057886,-0.7685781269187937,-0.5982363855458035,0.21094543450090364,0.2204041672965531,0.3833716499541755,-0.6660146190160954,0.0880789463818441,-0.8023671870130893,-0.4140972175701043,-0.45301229667524445,-0.25715875497886853,0.7108604245404062],[-0.7258602416728903,-0.20742721539336595,0.08182206893424593,0.7646153968594109,0.9556982824372586,-0.4356083857992703,0.17428140769446343,-0.8486464590992063,-0.9206974105540185,-0.24611363897384775,-0.32782848427436706,-0.5121956837885993,-0.15673606524091965,-0.6450842943252457,-0.9579416708824885,0.9145072437424713],[0.20349296983494103,-0.09094965508717567,-0.9880604343433215,-0.8370550721125003,0.4697186227281198,-0.14642023907342006,0.09141169818649608,-0.7143032912697193,0.9297196808875163,-0.26798770076967204,0.20798943434282635,-0.4787531101511573,-0.5384521621924137,0.19632665496148483,-0.9603589866125766,-0.46962321618088676],[-0.3243420353738321,-0.3865412293870659,0.5080900134090753,-0.8924155868088899,-0.9878824893328745,0.9701578281680856,0.8291430742615569,-0.48692816658268134,-0.6466775255495112,-0.8653805646418503,-0.4548625459218689,-0.13022354577212758,-0.5776050666242861,0.3766699188280245,-0.9720330098513668,-0.0072286990504845106],[-0.9533229600420794,-0.683146594876026,0.15380703152800312,-0.5665887424566731,-0.11458693776027618,-0.11529793269713318,-0.8430726816146973,-0.9223815006773832,-0.026276337460743426,0.034941955951481196,-0.7442035031245107,-0.22620023564724268,0.8022640272054189,-0.14178569388659001,0.15958402452971043,-0.5676850534825051],[-0.6872394893724656,0.9233623584375541,-0.7973575125436101,-0.39682568767891535,-0.49335060524444585,0.6740410782741575,-0.0912050069734478,-0.8675755550468227,-0.4455991580363359,0.9924681214580631,0.5219478809842597,0.5145016869131949,-0.6695745697568984,0.3442021717057573,-0.8453473904381261,-0.9144221953649178],[-0.8169840089124553,-0.8307915133567487,-0.15151620803005816,0.306877894935607,0.7194808012430933,-0.8208292153760927,0.09403975545151155,0.5336202446062213,-0.5214803170047143,0.41204109015503954,-0.6246459258835045,0.7295914831243415,-0.7808323669158073,-0.04253891810893029,0.743648795291618,0.7807191171593588],[0.8225568094395832,-0.5741991100712676,0.6866746124283758,-0.040139309614961594,0.915585564410121,0.20383183714180797,0.37702742562490865,0.06659329639123435,0.22113729232043844,0.41649177084513567,0.7844198438266385,-0.5371895076414521,-0.4490971227405114,0.8883123360054159,0.41972172978321165,0.31022287221170175],[0.8294613258119026,0.0864703064255743,-0.3267641241321173,0.5521576579437395,-0.17301452028239817,0.41994562345554387,0.9730759886899385,0.7210955041093265,-0.6682440683563445,-0.12648156058345061,-0.27359059698581256,-0.673526723717119,-0.68399241272546,-0.612409810355124,-0.13769416377772303,0.5617887059048696],[-0.0526899122878397,-0.6442991698367051,0.34261595147783686,0.12308436870718586,0.2857068540927521,-0.15635265743190085,0.12435475230419768,0.5383311880465276,0.20179179459893692,0.6943308607183074,0.8609557290845344,0.5386892461863761,0.39673744486492946,0.17314664422215276,-0.6756148141229594,-0.2881106656455019],[0.9885281491971241,0.1189883654559909,-0.40534884641196056,0.28275364510843226,0.18833690378271828,0.9607340982000967,-0.8887217798683428,-0.030079520787149483,0.3309169212965839,-0.573806225123725,-0.8604813291972881,0.43289191342559263,-0.21654768344785447,0.13359833747781735,-0.9143308437961764,0.9128898707744153],[0.05264184021048335,-0.23264674806624963,0.6106539115359326,0.5006157250612115,-0.09346926356361684,0.39922177949884063,-0.24009363690395547,0.8945816996947777,0.7968305450849378,0.702649104270455,-0.0631973282728332,0.8929488984369436,-0.5418344054100264,-0.3697649973303848,-0.26358229260127164,-0.6896043893367072],[0.15293347982360683,-0.17961536682192947,-0.84179441157812,-0.9101018467499418,0.9942189957919618,0.5529434995506628,-0.8266387757969269,-0.027799868503492253,-0.41709939642674265,-0.6817219879858765,-0.5138249041111325,-0.5734768181915753,-0.6065391505167537,-0.4166032715777882,-0.9395298436002479,-0.79358576787337],[0.6009833224122334,-0.5623272031370211,0.6833529116973993,0.010506975003754304,0.9165052957444011,-0.060811631875490546,0.9824757538654263,-0.6328480446864143,0.2576318221435099,-0.005679471886567478,0.739656548825864,-0.19079668409693828,0.20427648499807183,-0.6620252969032272,0.4633201749358886,-0.685454729797996],[-0.9330986775146326,0.11940025683464484,0.30219326322069073,0.4508522997847071,-0.4049041547835358,0.3124713140132238,-0.5491732394086073,-0.8753861821607622,0.1448038356121648,-0.09441996789277529,0.4639687889553461,0.021126020243915633,0.7447806772518812,0.18412831201410307,-0.21024210062354898,0.5102886518045742],[-0.053648946366109396,0.8678356864805499,-0.11401301394869245,-0.06614202403749436,-0.21486530788935032,0.3200283093936873,0.6496578611664743,0.3044189928585752,-0.9975453726935878,-0.1996492460368431,-0.7029320791843031,-0.6773006011160558,0.06951350582275229,0.1731579132253107,0.0831432151995335,-0.8292860238949238],[0.3638434556144492,-0.23696999588840173,-0.3191895770464044,-0.548237069299555,0.7968181221731092,0.5059462010422471,0.04518065277728289,0.6858684540194777,0.5947816668054005,-0.8246661563518765,0.1513749692362616,0.7499712909338863,-0.22184993197296277,0.7756129604650721,-0.7856734543040736,0.9611179418680806],[-0.04254902109622449,0.6543099021791992,-0.12142171297288584,-0.5108188220815821,-0.44115694399976957,0.612010088568558,0.7268978756512039,-0.5172631924586665,-0.4444720649367534,0.4831790465317569,0.8307449937941251,0.9499477399280052,0.045719108099918415,0.3492502976903926,-0.5830951433550078,0.9068636241866572],[-0.5029772704015381,-0.2427691254963955,0.9909296827348553,0.7687614512484342,0.9698192411893136,-0.5689268454764629,-0.22985961624880302,0.20479528568908356,-0.055387016877246564,0.7183276767462154,-0.981468911274089,0.7427164473304135,-0.3049121933546439,0.6998685718047752,0.7763487695606186,0.671148444372764],[0.11583954147800779,0.8302281777515208,-0.9469433473176059,-0.4348511842241749,-0.9148605260601549,-0.22749802713631562,-0.4420140513414582,-0.3134370545453564,-0.5475254960113789,-0.8334106122299147,-0.9884832613116518,0.6819597974801248,0.7440086238756816,0.016001108575612877,0.9259162842882407,-0.5116391710525561],[0.5809900768012692,-0.9028261573532718,-0.9883747491931425,0.4738415309571855,-0.7766331014114586,0.21686254405270455,0.6046742394588303,0.8994165081062431,0.8968724105026911,-0.44949606966669486,0.9270396669986842,0.034385770109661706,-0.28948548682475717,0.8707655490705584,-0.45577086669195954,-0.4667575226476218],[-0.29212817423610393,0.21092630886050245,0.1250591637217715,0.1831326145600214,0.32265196150292264,0.18810551016968935,-0.821955592288615,-0.1669464247147303,0.9098398852673546,0.34954840193947234,-0.8914942601190388,0.2870373266223061,0.5586586769477737,0.7394895692074157,-0.07501758126309965,0.03364816914948077],[0.46795248494853836,0.4065493668460052,0.956269651631019,-0.9891406660848953,-0.8972269622130445,0.23016152681324709,0.30546746929430757,0.3149238989292289,0.29029745202991064,-0.1718485072124044,0.459687801757682,-0.37065325182427333,-0.7004362203648482,-0.0927764694638441,-0.7139800618002099,0.952340643830756],[0.2854502523715843,0.017370038208258443,0.5146528219406739,0.8385200825699233,0.8353145410471199,-0.3417914823357907,-0.2906464251180395,0.6533141386012147,0.10511488053254547,-0.7801962801163067,-0.777585007146739,0.20059916805503852,-0.7952686565906129,0.6105444056962357,-0.29301580008725436,0.2260397035749815],[0.9064698218863783,-0.1679213322549692,-0.6788826061780018,0.569300960548828,-0.20437332391942542,-0.3935596921451202,0.8158006052560176,-0.3277072745038696,0.11414838634158886,-0.5956234706545358,0.6739470277325934,-0.6367540553383315,-0.12899156060488504,-0.8352013257496065,0.04518937833848846,-0.347257349336174],[-0.01936667273722903,-0.4095891944177399,-0.3480672712195978,-0.5766858596246158,-0.4984721110660919,-0.9871119335233756,0.5526205643790869,0.14066789724895168,0.6366910727865487,-0.3920368521437221,0.5822523141197173,0.9179592718919549,-0.015413203749532478,0.3607369052994702,-0.051352715609293775,0.678614204599808],[-0.07882636276950428,-0.4095899618275417,-0.12376892619010482,-0.2588887220522802,-0.3662324759020621,0.17104552368216464,0.1508398536363802,-0.8261735429177869,-0.7916035753635706,-0.24815461656458426,-0.12177019897930796,0.8575277327827773,0.7164354974946172,-0.7059840465458036,0.7821972536771546,0.7811749911779422],[0.5967174859702202,0.14641093516089532,0.7936218771122499,-0.30829295111274946,-0.18187589905312096,0.15518109181671447,0.0167532521378031,0.837841199635454,0.9214450306824618,0.10546997427263771,-0.8728224215436831,-0.39709457913278345,-0.03343398544631615,-0.3897389030967554,0.5989940285677995,0.1285160673449357],[0.267843500370087,-0.9438724713138642,0.9040304580256484,-0.2664413634997054,-0.7064260522399219,-0.2709126757788065,-0.8594687151999533,0.8733298051512473,-0.47642207028177663,-0.7568923624962999,0.40244713304678315,0.4866792901822734,0.43528607833911015,-0.49793174560085485,0.21718224008436415,-0.5860797518799452],[-0.5802191037592568,0.23666860407063206,-0.34254890370301383,-0.7283624670134683,-0.15367110686081975,-0.8761738379840617,-0.026950739802304113,-0.9493293557080111,-0.7055877483010236,-0.5968763742581366,0.23093262278983961,-0.19931020829794477,-0.7122726290078241,-0.6182675629939267,-0.23087404725648186,0.6978154879518856],[-0.8698496817936421,0.5887233473308027,-0.8219193768789617,-0.5692360035931859,-0.007279140412471796,-0.6712935751636018,-0.11614843509911954,-0.07834239447412195,-0.15195797623691987,-0.2478888543545682,-0.7415463271278637,0.7149806794314555,0.7782030570219285,-0.669689154098597,-0.48766285529717,0.328047125287376],[0.4292307269895592,0.7035309279819628,-0.6042177675311536,-0.5951257774583649,-0.6738527136267408,0.438144460990161,0.6617955740828978,-0.047403892058601516,0.7404405538646692,0.7088874931022933,0.6430276602707001,0.09363083033525887,-0.8744886358615424,0.9818206792612656,-0.1774428455054028,0.33479891034532283],[-0.594784485918835,-0.10101813687990335,0.1809531139121172,0.20136633943829985,-0.2031557956725153,0.7831340831625899,0.4933991699914444,0.1294117789386826,0.013167805510185593,-0.38118595880511497,-0.3022040581806582,0.06887987119559202,-0.20604178179336796,0.48484237374963346,0.2651991626551371,0.8493209536417019],[-0.5893326455677546,0.7549403569451256,-0.5567666373945617,0.4162398294621332,0.9357849927320074,-0.8309647924410947,0.4281542112250598,-0.2985948553767963,0.6080297946967324,0.5737934334081567,0.29186868634627605,0.8683190121633555,-0.9477265951911577,-0.8781487503452919,-0.14892276523118964,0.7689008255344354],[0.8633523070548439,-0.16735632399439637,0.8053925800162334,-0.9486683588235958,0.7075729359442242,-0.3622476828108764,-0.4905940524724285,-0.900999549730215,0.2744978336964259,-0.647144554018576,0.06785927296982108,0.6938265691016925,-0.9681246364340766,0.6641936812848754,0.6969414175008151,-0.05770921011348684],[0.7105068581693372,0.5412289423594385,0.8063434491894876,0.5367197280455007,0.29222271558466484,-0.25101743696770507,0.2686477234906739,-0.005255706145081529,0.2502396876226365,0.18178246597842418,-0.6507449269531038,-0.4247517806593104,0.6329311913032696,0.3798893156367771,-0.10375513746578024,0.9028585785547545],[-0.0781055954648674,-0.7394350486525498,-0.2379178373319646,0.6620754737696031,0.7991529068905641,0.5586147418052958,0.7728227636650311,0.00946399150856947,-0.0443287068253051,-0.486849598347605,0.6255573125675122,0.37654151645327993,-0.07708910250900736,-0.13290466141556612,0.14852514171438536,0.660094290813475],[0.9598053125477422,0.15570840852135248,0.8159132151938571,-0.4165991402308452,-0.006900618321681651,-0.34846928685366607,-0.9445581463838733,-0.9131722235647832,0.9482179777455599,0.6649402546067444,-0.40156332841215814,-0.13415117521497943,0.0920799547303841,0.9977889219288663,-0.984136389561061,-0.8723302613349306],[0.6143369356237058,-0.6520969977844958,-0.35893617074887085,-0.8215987532500172,-0.7160456821862822,-0.3497871828031667,-0.14207770356073868,0.8511474401928241,-0.3051497784001519,-0.8556685270069486,-0.8582226326028921,-0.7030927835512407,0.790862478218443,-0.43183930657423997,0.1705651204895997,-0.3349285020189958],[0.268496728790999,-0.638532026409543,-0.41342139386344295,-0.833414278065622,0.6516759279268909,-0.6667027557771614,0.6559034463268062,-0.3014740128941899,0.6912323607815669,0.07799459664147962,0.567136524043583,-0.7695205223963811,-0.32900166918775625,0.25371461662493516,0.00010335358160282987,0.8615472100618873],[-0.423372323332151,0.7291126953188503,0.9613579747175267,0.5194206471857056,0.26316664305762233,0.8227468472745858,0.3672868710684805,0.2134388891921666,0.9494786504242774,-0.08336866632094062,-0.5687132047342877,0.12179070499857159,-0.738295375576264,0.6502427189797918,0.836136535374577,-0.47997692601921277],[0.660723323906797,-0.22978396670426984,0.3830124073054925,-0.37547976879089384,-0.053039795327839354,-0.6966442024566578,0.28702485770230723,-0.20000355362361086,0.5228240372460896,-0.1178781572935764,0.49666039622233915,-0.5642474464447925,0.009345890337702502,0.7070903116244027,-0.91746466095391,-0.7077038280324086],[0.12068568315388895,0.6066459853233053,-0.7611030916502248,0.20356698855923816,0.4012786389334493,-0.05495345734756141,0.4595498170049628,-0.812773245299595,-0.9249440906219856,0.5454324463128264,0.9707570755718076,-0.13809905812987078,-0.6864144754067131,-0.061487534577719605,-0.865630022187545,0.7913200528320483],[-0.34054703979778433,0.1378963948869596,-0.8936765603226035,-0.3743113909728413,0.5377052098222568,0.5611862929357152,-0.039446298517028966,-0.23039688879176834,-0.4280857310761166,-0.8795368931626607,-0.25049174448963807,0.12389681820007814,0.28338634189375966,-0.3963208568265293,-0.3104916593574414,0.017273141544905002],[-0.7963610886579198,-0.39731465810784816,-0.9285699631686183,-0.44720882803537365,0.7247231843530775,-0.6341934481794915,0.16382039485677158,0.7945926011514814,-0.28765922285973056,0.4408315575871764,-0.4684007789326835,0.6124845275713524,-0.9595328718235404,-0.04059289630530072,0.799134341906353,0.3763347525970706],[0.2105695433963879,-0.6406948955919104,0.811634586104953,0.5171656597019945,-0.15902954487084853,-0.26973302069573335,0.5848719689924604,-0.751856447081946,-0.48844995325824714,0.5274332815443321,0.8690364788607865,0.6970746068735953,0.33356086971869736,0.2812824348366272,-0.2082311730870191,-0.31688795206923404],[0.3827286546038131,0.5840143559426136,-0.9752443954233286,0.45298175674536356,0.2799765380471835,0.8092108032709038,-0.5945397436593378,0.22915027347819428,-0.020635441420895684,-0.05142109331275391,-0.49340956075741427,-0.3182578968434864,0.2592447396643669,-0.7954775541068416,-0.15614038387133755,0.20079141724891558],[0.576574821759283,0.07775868991285506,-0.019473044676460827,0.9642787277532177,-0.7040295199044186,0.009922355883718703,0.9264784901991852,-0.3624329070385699,0.35029948845053993,-0.8032970557935988,0.1696144366495378,-0.30830200729346924,0.1880109855849348,-0.6697389966201684,0.9414766691352598,0.21721889973488584],[-0.984857388765019,0.8755807121636257,0.8696711407367472,-0.7586948106804373,-0.5879235880393179,0.8940721256165169,-0.1108217523949322,-0.1057659849085687,-0.18950103837507826,-0.9551746034785987,-0.06706877195605487,0.7824305229738497,-0.5437221776431995,-0.3367681407075227,-0.7504962923706027,-0.8039029416646356],[0.1974201617750433,-0.3833408734683603,-0.8035798174345772,0.42012936781166554,0.7764119476901423,0.08091066269246427,-0.7156243807243297,-0.06778286167782865,0.6075601864641347,-0.5318622754569455,0.8915492714809017,-0.960553045366217,-0.48699814802361563,-0.36018020816155716,-0.31635391959750747,-0.6219732601297895],[-0.8299018972692555,0.8934246496732461,-0.42012769143103046,0.46265350443434605,0.4142949420094,-0.43204472746329603,-0.1940937280627404,-0.1323209168074284,0.5180050560822733,0.6152796445485575,-0.028690101126530254,0.05280240860432506,0.36823772609617444,-0.404254140986248,-0.3257136053059779,-0.9842996038423384],[0.14110045281290096,0.10154062374566708,-0.6233477246124985,0.09342057960732864,0.10999102569650443,-0.20415569525405564,0.8206231546684275,-0.7546100242783362,-0.5817261140708467,-0.5229468576251282,-0.5161383037996191,-0.6803316276894564,-0.6729421483692444,-0.6737624246970575,0.15110056900936208,-0.547373249916068],[-0.8450986954076148,-0.714369850511947,0.5826958184131893,0.22182621600554434,-0.29279962448883484,0.10612970244253685,0.25382261928489624,-0.3919949661673802,0.44894480544205906,0.5925623085473173,-0.9193190903958145,-0.1424112305740547,-0.26027030405917434,-0.15790449709868848,0.28429088422348275,0.9714023873770875],[-0.14565783792438813,-0.9250434198999048,0.9734037797774207,0.3370423872661974,0.8490540105146607,-0.8172061777753784,0.7991952820677288,0.9888452188991221,0.5504145368702777,0.8981817522543398,-0.6406104097331923,0.11993429675695211,-0.7351704257238518,-0.4215291977960287,0.49520825198628393,-0.30852284343378755],[0.02310458804625304,-0.33413218862103866,-0.31358695650174606,0.1702834838862919,0.8825168217916586,0.38746842899707534,0.8132802377516777,-0.40675394861342107,-0.8795319338699485,-0.5778013260931714,0.04791337393592743,0.3295097720481035,-0.7572141335146567,-0.37865768623475804,-0.8725203452038208,-0.03350191704626282],[0.3915437791757457,-0.25322835776405994,-0.33898066642401303,0.6623539410305396,-0.0912315685810492,0.21363395915961358,0.032884185685074944,-0.6126493968019838,0.4735317507028966,-0.015566643312663454,-0.02042636747326195,-0.08940219217429465,0.027298534955780156,-0.19250525370431798,0.8178592404862944,-0.32278774149455336],[-0.1938144030273042,0.38601910829731545,0.1255479795893914,0.7537615759807612,0.8529246525865704,0.33422042933752544,0.8688072019583787,-0.16357035355374272,-0.2109948681774989,0.9257334192957187,0.21248388437829285,0.8584584966201145,-0.456278073086608,0.4476908200099356,0.7560385565985466,0.9621666011575238],[0.9177434811573013,0.8914340141847987,-0.5029086042449188,-0.6753458761654105,0.6343776648626696,-0.805000890230611,-0.6182233878902331,-0.36743801103691764,-0.17542606506360225,-0.4876634873482042,-0.014362706479742438,0.32068302609458965,-0.7423447310891031,0.5857310661435416,0.3326907555194443,0.3043369614894702],[-0.23254493940126097,0.779847018542458,0.18672766518164174,-0.46112206394559785,0.21395720302929713,0.3629708384232694,-0.9879193903158617,0.84172118213613,0.23906712327947188,0.7309692077949798,-0.12858858463959139,-0.49379737589841954,0.5526038112074194,0.21192457656350083,-0.017270603393315914,-0.659976717019923],[0.0635556770218475,0.7236653564190049,-0.4984124107116652,-0.9887269674959043,-0.621830384355996,-0.1293225624550345,-0.39798265375883796,-0.062031780260736094,0.33700233724198736,-0.5721377837244828,-0.3263136114061134,-0.14500777279845536,-0.18140474494705278,0.4976353088433679,-0.7893411944046086,-0.24631546330231543],[0.3895034507308739,0.3305341385734179,0.324655916936825,0.8647281344319911,0.8683971274181681,-0.4979375165040995,0.7558933068536048,0.9594924757412291,-0.6540457120535093,0.24193078885536082,-0.3561033884595126,0.6561168186364454,-0.38589565967282324,0.05020421454808965,-0.6278049263132156,-0.6956474874004989],[-0.4162052795798925,0.019382948407867712,0.05484461700847078,-0.37848845788345303,-0.10359886544121251,0.023234289594492398,-0.9278180912532465,0.6963923740546966,-0.44297296493120525,-0.6917314536431175,-0.7513893280977276,0.12543532056652146,0.2535145151700208,-0.6525082996184696,-0.8566288561573318,-0.3481871901786729],[-0.44810881748869125,-0.6328273353093631,0.7841106057906246,-0.7652264537460958,0.6161296500549046,-0.5268606910571663,0.2313445085075822,0.19376194659243148,-0.3024833645653323,0.17593389553152156,-0.6169184865112357,-0.024312043685740713,0.11584597885228183,0.3870021499365937,-0.7987323610705693,-0.10422621643553062],[0.40658073297337893,0.8474049153297402,-0.9773285509605241,0.28929540444504753,0.9713437302311667,0.29331106604452994,-0.004484678260819645,0.6711171277730305,-0.9626894558786161,-0.523752334661961,0.4963417170849347,0.5248143381790851,-0.9740255598667298,-0.9912488139813828,-0.909396399621375,0.8635304393105561],[-0.18778997783409815,-0.23593882146756925,0.17608521553457712,-0.30105436980041067,-0.7216180981355239,-0.4880537606135159,-0.7650342909519762,-0.3814197185498042,-0.6462591596389352,-0.04763311222214651,0.6027000803396307,0.8218428066788509,0.6166216155119801,-0.15175991013215565,0.8065656035333015,0.38355173279295],[-0.4445121022432331,0.4101341250404752,-0.7913256849132146,-0.11824315487962733,-0.14731751038804958,-0.47926589128637265,-0.5536611950862268,-0.9795146936490277,0.5904861005475526,-0.27383235822286767,-0.5038359262863172,-0.6626527609076642,-0.3432940676379902,0.15638423593250855,0.2561359960516761,-0.4220704116922049],[-0.35574450857107437,0.8627082817218875,-0.5622811127446917,-0.6967486469417306,-0.8965342011814015,0.6151049581588347,0.26288848406846177,-0.23236847013373735,-0.21634551199752547,0.09121809912389006,-0.7612654605180779,-0.1777367938101644,0.6640623825637991,0.14997522941121186,0.46585616717315875,-0.5390354920111324],[-0.26148450751416075,0.061769000789519087,0.7170468816987541,-0.32389011360044084,-0.9480217202600179,0.38357178427466654,-0.25801484014787335,-0.7285960787991002,-0.02514537428086564,-0.25180126577517964,0.19427434540802893,-0.4424940011756287,-0.6588899650846288,-0.5366369323729097,0.2084971246015198,-0.5625013023852391],[0.7343575879725671,0.602030554309101,0.8781148326961099,-0.04067635161937442,-0.7975774562567272,-0.6990517595641135,0.4691861362451406,-0.7318098627531819,0.983123739585454,-0.3570020743141916,-0.32816112738462755,0.11532596381561949,0.1720884053585795,-0.3263498220597697,0.7668039704740225,0.37224632380989026],[-0.6459755235755265,0.575182787295953,0.49631654131931185,0.9141468196991073,0.2979919757948235,-0.43681820712547426,0.17884318432816718,0.1298813726485368,0.8945585978557913,0.7250886450896861,0.11473156234457653,-0.554169043817884,-0.8883250237005034,0.8042263713776663,0.8935642093209119,0.6074267110655922],[-0.9764835587614331,0.6059283036361109,-0.8757189500485358,0.27178920093733167,-0.015224733149187876,0.7612837268491036,0.8754565117170685,-0.7050449039659255,0.04678319643358955,-0.7121724232402611,-0.3284893669439445,-0.053859092420362464,-0.8534423586609794,-0.6937613574338702,0.934570286225997,-0.48938042086412087],[0.4040378816773864,0.6073172925982132,-0.1351025995831122,0.8683620711537007,-0.19628872245819115,-0.14558459491216302,-0.010265701400634363,0.5990406776268201,0.6465636890591708,-0.4896059099666767,-0.4470617023501136,-0.11587773069261503,0.6860699792737095,0.7778238771188694,-0.8015375094798036,0.8334482031979985],[0.34311404328006967,0.3064068999636951,-0.7624855422240149,-0.6892200688315648,-0.7251112618134875,-0.03820272862827534,-0.13102442078805732,-0.36841063265149043,0.8606777134633985,0.33884757353870554,0.6889676263970173,0.6530405234792458,0.2548566298814754,-0.2189103957353674,0.2463397361553925,0.24179212620565305],[0.22849732787744026,-0.6042371781562628,0.40435086721756996,0.6021757664169072,-0.681861223504814,-0.9022246226213055,0.11423682752728315,-0.49373067333071063,0.25338024704408846,-0.3596537277845916,-0.5486054353176641,0.512236965593061,-0.9759104708097458,-0.5538494789757996,-0.22375218068424252,0.8096012258015579],[-0.4610777317830723,-0.8988853161683703,-0.9083034367804897,0.045728543328926285,-0.17807299046687453,-0.05025025692314389,0.1906979676292735,0.4731243399312368,-0.49700793693634115,0.2500912944088183,0.5802299434227076,-0.43983094926915645,0.48230453835907605,0.36572370462386106,-0.9101959773852472,0.9683376690225385],[0.9202438145504537,0.32695774609547,-0.3713873240032174,-0.15067867056963902,0.2764030645025908,-0.08649367982824041,-0.6823507061611631,0.09942008419866677,-0.6259519269810765,0.6683926413154195,-0.5696207292236484,-0.40136678675253257,0.7011686655232536,-0.8363275098783558,-0.5383042830686571,-0.7590537014226679],[0.5871861426100071,0.6042803235371972,-0.11383774462800367,0.9795656260007832,0.9213733225694734,-0.7569410324827494,-0.2815054092935777,-0.35417317941513526,0.8347839758893401,0.804115955626646,-0.8622513356908463,-0.5748636152478231,0.2450731523544869,-0.1990228962148647,-0.20938755907555462,0.24232811631743245],[-0.1915004752536772,-0.7313470280409544,0.8499462119536223,0.3851707248879461,-0.4349321720353012,0.6689752338775319,-0.6550862321886636,-0.45467921227900276,-0.2816168168939729,-0.2923116140497437,-0.28982045375267995,0.5054499299756483,0.01617743774139213,-0.6964556126373147,0.5965115975572315,-0.0649324977141491],[0.08181134102950405,-0.5853153036838934,0.44322278510929225,0.2857289106052969,-0.8894086433059576,-0.7075980341562993,0.5455331800251888,0.8587215374497332,-0.607225896607724,-0.2210278377034831,0.6908157717859447,0.5881146404836861,-0.8357357847670726,-0.3488626979984635,-0.09215014199360749,0.8497049509779107],[-0.30409972151000975,-0.5272264366630588,-0.49051719228295476,-0.9478646991531666,0.9546562209514231,0.8761733285506133,-0.7690713637364429,-0.5758508274219236,-0.3974016604001641,-0.1230567521988678,0.8049105488718071,-0.333828662211927,0.5374475696764176,-0.11648376058623366,-0.7465794485744924,0.9696306027330601],[0.5979046726589579,0.006396449639646473,-0.37282287579626905,-0.029667616369979277,0.22155135088672462,-0.7963227367942793,0.14716030803842495,0.9115176237707574,-0.34267348579255563,0.6593842411690318,0.07566187487713139,0.2362171687354413,0.7253420565861008,0.15621445940631173,-0.8952123317379562,-0.5221772126491075],[0.34459881547121274,0.5126513482596033,0.8957041184863561,-0.22316744980549785,-0.6622029559976434,-0.8388768322015538,0.22436136343719504,0.5362593641207829,-0.14190306381411066,-0.4448575607709855,0.7086153643711541,0.1658297400762465,-0.47157548809031746,0.963754950074365,0.8407205845418948,-0.43604390855694375],[0.5815750203629457,0.27083379817688497,0.9239326344342141,-0.5494868844462176,-0.5939528299525619,0.2610746743894426,-0.8724250690506922,-0.056392794696781406,0.11094606251938748,0.060644740786940494,0.1942463511283661,-0.17939269890914564,-0.4896131055685376,0.9470289772538311,0.34959880286552303,-0.06758099097844796],[-0.929587114094293,0.4394061193780127,0.7075467758263139,0.31371060041090043,-0.48284495413436357,0.6480436029197393,0.8559373501003107,-0.058885516221964654,-0.08398230725316007,0.7749739478609204,0.510899062884374,0.448095563164416,-0.07683803115448469,0.8622384954691698,-0.4662740684229635,-0.9641064388719788],[-0.7503319259036553,0.3431933599447834,-0.9232139716806022,-0.19064562857128595,0.4320136486103572,0.5555023582047557,-0.8336132384771332,0.1829957495156635,-0.22359308218508225,-0.2119970450544433,-0.7403758688963887,0.7494537427331667,-0.07816382034602863,0.7858780577259254,-0.9048840234215909,0.6821386438583665],[-0.01213250445549861,-0.5135218029568258,0.799071022623418,0.3386339847904483,0.8820067511181319,0.531349839306887,0.061082198932828194,-0.3228589674027752,-0.5703844217204493,-0.7238205361828498,0.7748007302821458,0.3971077131334301,0.45536061174909204,-0.9965205771203399,0.3622757597081597,-0.12412793921243763],[0.2713547826176721,0.4147410208409913,-0.19039971456778654,0.1864336755120478,0.6134655676178244,-0.6705107617452124,-0.5976726707054892,-0.653167927206058,-0.70887938888998,-0.8779682887553779,0.5616423994221418,-0.7626341290864174,0.3902099185980878,0.13816695146284713,0.53899506131214,0.3644583066727849],[0.548223906712459,-0.17953224004271304,0.20352661199414693,0.8676628138566825,-0.05990790268123908,0.5979279926902742,0.6891215974869372,0.14274904124395177,0.46229594276026453,-0.2743035204586969,-0.6620717437301566,0.9506951909643836,-0.46630491751997755,-0.09620562403479174,0.7713662981160236,0.15839471350571582],[0.3830807280268411,0.08315466417398895,0.7532417496090015,-0.7467372597753804,-0.957356238406117,-0.22104604404018385,0.6079507117239028,-0.8893944120419992,0.48681079987211195,0.15705569882546525,-0.7560564781377579,-0.4592156336297052,0.8145079899359317,0.4982051614827198,-0.2746407764090201,-0.1979002856332898],[-0.5347698145008265,-0.9186852696811881,0.1439850255795555,-0.5941049641200339,-0.21413243273026672,0.42034932897882665,0.4661964762312333,0.7137815876231347,0.8000808820676154,0.37815756430368347,-0.9115040249956977,-0.21381374031597325,0.009338190498484066,-0.1471563289451895,0.8801682632593855,-0.7344746398861125],[-0.10171241044640071,-0.8475049216707291,-0.3142939676511641,0.8006737882176943,0.4197026165059162,0.4109614002412179,0.389528610286925,-0.8393562694125253,-0.5400366894320009,0.27302147695877,0.13676290936464372,-0.2780053270462453,0.0932870859198835,0.930913596613828,0.1399497999206257,0.9411176457874589],[-0.003147700997306939,-0.6354687406371252,-0.7274980793250531,0.3542706084551249,-0.8620605831432923,0.35846753924588254,0.38169705709567964,-0.619818963592678,-0.8700595468008194,-0.976294545072391,-0.35965474478039156,-0.9374477033959941,-0.3301829993827188,0.2823486823548358,0.81254962734136,-0.6447021878669337],[0.18289785368166436,0.36504960291922794,-0.3619976421785066,-0.9373076274084119,0.7514753702144167,0.28328063146407595,-0.9675411004408674,-0.7494085694397931,-0.29154613942152846,0.9593524819522613,0.726862278526795,-0.6351182519121473,0.5435653857340734,-0.2156744298195546,0.026503785294055778,0.7873212810860787],[-0.4582476468738868,-0.389434680222767,-0.8546079565379731,-0.8182925980597019,0.8826973344638616,0.7765313654306635,-0.7564256231168426,-0.08202662060450017,0.3575714225893058,0.7354627303685075,0.4683417006920598,0.44547472148995043,-0.021127337361411293,0.06742543152882514,-0.04400282187328157,0.9111975782267313],[0.8708477503314676,0.018201478537407882,0.2599095845599651,-0.6851843252089268,0.7642730729106506,0.8283911650839962,0.8892153111309548,-0.2580247338747531,0.3450739681524645,0.8516890299415593,-0.0753757107517022,-0.4234953085968005,-0.9387104813228186,-0.8022450606430491,-0.3729178892502468,0.5570822259736152],[0.9853803965754939,-0.30015285351474863,-0.0945662356923661,-0.08841176460689515,-0.6499526117957243,-0.20378101555342393,0.2828037145559004,0.5198361336220744,0.3922858060834926,-0.38080914961700435,-0.815506525204994,0.9976408658676493,0.012267562485396694,0.2974605372420934,0.6933456011665624,0.8680444373352358],[0.10206110613970402,-0.6040798431318937,0.600421510122919,-0.5990328636256363,0.3166862260045501,0.8259116951410073,-0.9563132532330718,0.6086077842487176,-0.17479155439626384,0.7128758153738827,0.11707812351017435,0.4598754375153877,0.8954887233718132,-0.6827746030291038,0.8813045492930692,0.3960667334880257],[0.7080598058621635,0.752852477410353,-0.7772062662332518,0.9241437235609694,0.4151415677409721,0.647047474857101,-0.5451614013310156,-0.4814161844965121,-0.9623143455654878,0.07721241233131096,-0.5219059087670429,0.33637629353653076,-0.7131587633802683,-0.06948161205523869,-0.9584375486074932,0.9273424840947564],[0.8414441085060058,-0.6320255833704242,-0.05773169924461518,0.9336722421041328,0.24211292237857385,0.04505061446834627,-0.28251440146087897,-0.8457200419748503,-0.7818365551499707,0.1791519280735365,0.14926490465734712,0.30031175107798636,0.6659646007448988,0.7603265580159174,-0.12267268840508395,0.633430580839443],[0.6443150794608845,0.1863951765708278,0.8726589706384856,0.675156811604856,-0.13769553358002085,0.8428613508246801,-0.28584751195088715,0.7772684832312825,0.12186379352853169,-0.2762690064062359,-0.9645438174059988,0.27319827533148505,0.38249245739558524,0.807262204978599,-0.4639979876518008,-0.2017563770412652],[-0.4368570480699661,-0.509075037859373,0.38193376839912,0.21791913865246865,-0.2687170449666877,0.11417531045638443,-0.6816356061177835,0.48297363438789487,0.7278873010526498,-0.5563995212397701,0.630033725786208,-0.1269947099584914,0.6693534260348005,-0.864114409977638,0.3205502921625077,-0.7779626107140039],[-0.35953747078754816,-0.48142992029033127,-0.6902166212397705,-0.22067656704256156,0.2215425349872291,-0.5746974887208536,0.6602532433626489,-0.04164471339510978,-0.9955062502974208,-0.7959056719187207,0.31228402969999425,-0.8764620664885556,-0.08194270501003731,0.7429769671256548,0.6344666944977206,-0.23672198934327904],[0.8389438064018935,0.4727295690554798,0.10256662364237323,0.005103393925867783,-0.9129618797045955,-0.29151369505166713,-0.5465913161386695,-0.6305844120823705,0.36716550000345594,0.5552378620743927,-0.5021828392065051,0.5763212459051614,-0.9843901358472137,0.6564799815679341,-0.8249020882998137,0.844964419419395],[0.6587481469189507,-0.7025906023115807,-0.6261786732944561,-0.6728273824196436,0.10920328232888288,0.3305833746355882,0.706999210504349,0.7643644911071121,-0.08406518636460658,-0.6789721696073991,0.8182175121354951,0.3365527220706235,-0.6555716635918113,-0.1410071370848488,-0.6440093292128338,-0.4113330149144554],[0.1729635126762854,0.009388391398539975,-0.9274846408178492,-0.851653134381237,-0.2095698375299433,0.31949709510407276,-0.5924594782257729,-0.3627378630278343,-0.43922314766758264,-0.8190626277677076,0.22003866323271715,0.09328907220311877,-0.6336007563553754,-0.6662427828024341,-0.2509719930826556,0.8674070545786092],[-0.2339400403359626,-0.7138969459169996,0.7149751008092309,0.5942914335030556,-0.38942379848539077,0.7135397846407907,0.8161674727761035,0.26863840560831065,0.871441367022433,0.10488605550717844,-0.58162839877495,-0.8313200575445406,0.6821676127995213,-0.18207817952245386,-0.5241765405629653,-0.8177478070453498],[0.7979864095328313,0.795133723781972,-0.8608621823884837,-0.21735935156110642,-0.16489771249000806,0.8340470333742196,-0.04835242454351507,0.6138006083731542,-0.44240382753424523,0.1382055688361663,-0.20510593019663637,-0.3333721511687022,0.07220122174928023,0.5451479710383098,0.9047608328539696,0.210834623878279],[-0.07359594342931919,0.8901433646167365,-0.8218932672505701,0.6196504429074239,-0.6109374675950676,0.008420438975291544,-0.8599408948141807,-0.898264353116166,-0.8044354411794038,-0.047956271585056665,0.6292863449218153,0.34535185310307503,-0.28434131261163453,-0.6040763564426808,-0.49195794364994294,-0.8381988135344344],[-0.6845798031097399,0.9738370950068639,0.8817072097154318,-0.7086858048688064,0.02712662388582532,0.23304413595773119,-0.3915026849157036,-0.4842785940746047,0.04742247384353227,-0.3519112227882245,-0.22084035307404742,-0.4402334042709207,-0.21747177734512851,0.21272962259806683,0.4054042554467448,-0.27682130226037877],[0.10308331523928907,0.3390317448001334,-0.9422003864514537,-0.6794153495385774,-0.39367824226131776,-0.5260370054351263,0.4958665291796428,0.4938250189682394,0.7464198495328132,-0.2461255887899715,-0.3825603451307389,-0.2689223623264235,-0.4588813738690031,-0.5418567977173923,0.6660962489725802,-0.2742785855908866],[0.8045903943377481,0.14249480321988717,0.7747115925238617,0.6824128195781108,-0.012410927465101376,-0.02960941865383536,-0.685689672310688,0.741533172207668,0.6387473793913787,0.18026950367830405,-0.1582607761013751,-0.5128728467641693,0.7831854750066032,-0.9932700715559084,0.028388154536144343,0.43563085899788],[0.997893630735843,0.1172424873051829,0.27511957502638934,-0.6313675362539343,0.28800297572171807,0.6648728351956295,0.5234711174300125,-0.708875206515953,-0.9292568477408175,0.21803217293288837,-0.4977691019358331,-0.6441311933477005,0.5298297192455376,0.1434498566262129,-0.8391003157070237,0.028358553793859147],[-0.16402001740501893,0.4768471691057241,0.050248134230853315,0.04073660735569565,0.523714087678088,0.9017029178718005,-0.16570738810442182,-0.2260704621426505,-0.5679332067059331,0.7342848415368071,0.29467735383848037,0.7373447722841944,-0.9008117127265808,-0.06891999096464088,-0.5723917475835182,0.4568618442015023],[-0.9296814461503049,0.30516438396729917,-0.33061207403715814,-0.5051473231094973,0.25657884857373453,0.4838147909869912,0.7763192522384712,0.41956808683749325,-0.3637728877212715,-0.1402569874357794,0.0661524887659321,0.8480464138509685,-0.9768538665079076,-0.6789657839977452,-0.26364390629257817,-0.625796898188309],[0.4646980859478205,-0.28527573777829274,0.8638786022202884,0.05614381211644241,0.15338840077107066,-0.33658192227328576,0.4482168736494833,0.030626561569473337,-0.3223424460652366,-0.21700816317175128,0.5951611972059041,0.6311208873245625,0.10162026564506862,-0.6715425830255808,-0.8855963642277022,-0.7174221342548969],[-0.9555238128958452,0.8162095659464734,0.4172768471207655,0.10877336660535333,0.5267081090131711,-0.664010443670593,-0.47744061921013264,-0.5718902528481551,0.48461864989273007,-0.29495891504068256,-0.06896608933420258,-0.49355669488390547,-0.9013654194022387,0.06890510077098436,-0.45811311805267796,0.7471470764095697],[-0.001050165629718844,0.7457543513564472,0.12305698056799047,-0.7990499163443916,-0.5138546315188942,0.7540283198820515,0.932450360375591,-0.24057078591477993,0.4422385075743075,0.27500476719854017,0.04878920761986158,-0.6764310876955472,-0.24238748592092801,-0.6171159318625015,-0.19637985010783052,0.727242014006547],[-0.5227202382249477,-0.07961791822560287,-0.9293897696396528,-0.03911944650414574,0.09164867760321871,-0.18465285666303202,0.35792808638155443,-0.7396587137341583,0.7767037677093468,0.4374637507140031,-0.13418614802367076,0.5475492837221341,-0.7926493551028206,0.5036196285762102,0.6737642513417121,-0.127046228686683],[0.15384474165672465,-0.5040772763218798,0.9394611244086943,-0.48380967487602455,-0.4740871569611067,0.7309120232269668,-0.18841613971247506,-0.5045883585183973,0.2564958538513528,0.7325104651931755,0.23169608071558426,0.7977851933466323,0.11493169173522709,-0.7982633870122892,0.9991047301478646,-0.8075454596629646],[0.8218852189574092,-0.7390005136929636,0.3678385388482126,0.39115815467844595,-0.6157200413581299,-0.028779284307298314,0.1585168607998199,0.9477082983570707,0.921288383330503,-0.27717079528057487,0.8237238234654443,-0.552691658172879,-0.8298396697149766,-0.17139977312050775,-0.5510860260571281,-0.4890110330001924],[0.2787383218318121,0.9741715836060864,0.3946113411506776,0.7211395013960623,0.21849637636215338,-0.821629593080586,-0.9748566880114276,0.6791280701535938,0.2981065601623127,-0.34683895612498283,-0.06778730466893318,-0.8819821811479608,0.27971461196775227,-0.9960763756219206,0.7214956936040268,0.21381666915608655],[0.09047226586524829,0.02617257439682844,0.22446645143905633,-0.5429613336910709,0.14383766697103487,-0.9909018558021969,0.5585136105098452,0.6283459451794395,0.3227193841117109,-0.5990212193591989,0.9014087889035026,-0.11307326378129624,0.14077444072370618,-0.7715547665787466,0.7019460331821794,0.3019713273551842],[0.3522800971167573,0.969298801779446,0.9588223047466422,-0.5591657186599049,-1.0076996445456825,-0.3971542808922437,0.11764331957234037,-0.8349021838339344,0.49029763171114427,0.6182489497849442,-0.04796271766000301,-0.9726884420159911,-0.4643190517794655,-0.04743374227217829,-0.5125771220569999,0.6328926735736641],[0.2652785902618221,0.5227138619716092,-0.2614711718541177,-0.4229628796075109,0.40340996017083364,-0.1187949380534397,0.9862242630649669,-0.4420868733532207,-0.8177149561664254,0.2881934198807288,-0.4171197570399512,-0.6638978424003251,-0.8272976035888411,0.8090507594681886,0.8902226838269622,0.10281916725222323],[0.4522851224728931,0.4296535356055761,-0.1749513112706021,-0.8716941131641559,0.8611129579985428,0.15287105667253847,0.7780975211525833,-0.02717647828133902,0.4332505388098,-0.5244653452237922,0.9744044458468373,0.7296586627919629,0.0242468577099514,0.8710250670565869,-0.2423997862251107,0.6601482909824008],[0.021109210291862978,0.240587475907436,0.8644747938951222,0.9298058770410255,-0.17975879074795614,-0.6004435166727702,-0.5166885189029594,0.9195090777053042,-0.08437892958795992,-0.7112493618639117,-0.9710729818003081,-0.10739587850631702,0.4834054067002604,0.027858913019833068,-0.877902473202381,-0.8497443204065912],[-0.7860705192221895,-0.7666360716343846,-0.7625542378747743,0.8216937950867738,0.026894789166622825,0.5670108211190338,-0.05510085804337104,0.3549399043811757,-0.06252931633141998,-0.4245302347959282,-0.17414508865562697,-0.4738335853701973,-0.8508365072691125,-0.0059275433956722315,0.16614076084535948,-0.9572947009832687],[-0.20453720613511225,-0.31511193046060276,-0.9007362283310094,-0.8591350314990639,-0.6249820969149716,0.18335328817422505,-0.38580864482737387,0.7173969681959184,-0.4971608384990103,0.6216927348689675,-0.7802991957557218,-0.7874816847614302,-0.7176517730115988,0.7128261709351885,-0.7134787197163364,0.3281644515565877],[0.3517812280510889,0.36755784445580336,-0.8557338091809493,0.296801636767413,-0.4605267888829738,-0.7325033218816223,0.21609310510601054,0.7663389790097713,0.908149831741568,-0.19693370124950998,0.527678115622721,-0.061076495556243525,0.9672456077750713,-0.7562982007193569,-0.8514605390928432,-0.7482949692896982],[-0.45170114727796673,0.3949259397240663,0.18520070249360124,-0.8589035245614761,-0.5399299564969152,-0.8490023723390623,0.9004853155997782,0.9554700284034917,0.11058417161863783,-0.35986097297130354,0.3971078529327034,-0.4349354243128302,-0.526517797692631,-0.9369638788584985,-0.6016509499063233,-0.8994824551712738],[-0.1857913566848184,-0.07352428091934118,0.028245359940910778,-0.5490794425601071,0.951450273423269,0.08489958313956739,-0.7329802986970371,0.4926896567475042,0.5487830490580404,0.9596534154588238,0.31568595786625153,0.139011958525596,0.8075733156466922,0.843009570622475,-0.4182970058601336,-0.1550472628276563],[0.8761808890272775,0.8474360405688341,-0.3369498734068823,-0.9434812376012472,-0.49924872978555446,-0.4058681136955824,-0.7410284978062979,-0.8709750742982025,0.7970717464560046,-0.2709216770114944,0.6624683689616939,0.08901892746287343,-0.04023215595643603,0.8683223910016578,-0.25057765340925087,0.3149812814383681],[-0.03379366595009048,0.8977340599045782,-0.09184189936697573,0.45180248816115887,0.320348612647666,-0.3772701413264825,0.6248632537316825,-0.6076087409665849,-0.4997813149819995,0.5294449941857928,0.5631733469493563,-0.7947383214695092,0.3513254836906332,-0.4572989574900358,-0.2809487019111163,0.3016365698080681],[0.43746985189498866,0.22745679189798262,0.5706616693971034,0.6108171612074678,0.24805778975042414,-0.5508149487668719,-0.16880456878282346,-0.9185466924302963,0.27090969368392126,-0.9445531135166777,0.6557075612506398,-0.6851088039973325,-0.21826196052984426,-0.1564921434766111,-0.628172482190734,0.05146115880993252],[-0.8672488649087601,0.9818133743255409,0.1275405095708154,-0.16578089329920398,0.22333172698200499,-0.23801228991992116,0.912443822193887,-0.05882443037019301,-0.125289050607801,-0.5665816174562925,-0.8251191953923437,0.79316552715323,0.8680939385148206,-0.2523752792845398,-0.06710866789210657,0.7475909157950453],[-0.04255785655349398,-0.5121736300700221,-0.6826062545564986,-0.8089910493274177,-0.9999911841005046,0.7783747519265742,0.4869070646757758,-0.04683766283413282,-0.34716723549513484,0.4552899130877526,0.7633778451771371,0.11267923522399692,-0.19271523840386195,0.4132374922806572,-0.5296790262356769,0.7145447766941715],[0.5056652677837803,-0.9602012859944378,-0.20686391902667783,0.7717390019354177,-0.7492505570512605,0.4526917433722991,-0.22904741214189506,0.16685684493933722,0.4909144327752948,-0.00013400823013920646,0.21079818203868425,0.5895682748088685,-0.4869661781151204,-0.6931082667052857,0.6656234962647016,-0.28004843110153527],[0.9230179194745957,-0.02657047033209679,0.5493596749629157,-0.8767936544701654,0.29680910377994174,0.9319206237321783,-0.5797369673427599,0.17926558550442787,-0.8054704434261238,-0.26030019103473484,0.37627257377335627,0.48498573292835934,-0.8329078050690526,0.08875665724819709,-0.005823221123745661,-0.6553632088353555],[-0.10219623206019302,-0.5700195191149886,0.6342585406663687,0.1651998521393851,0.7267241341214636,-0.6698550901483332,0.44796185806031813,-0.6961333976199786,-0.6452464804143135,0.5944526166923655,-0.708378479457524,-0.6408870136767777,-0.44059380293848854,0.5284307438938594,0.7864081572660976,-0.8305455420097929],[0.4838055432750406,0.05673660219732067,-0.6408123415687187,0.21507782334485304,-0.1789550457851148,0.8415158274734248,-0.651392654934772,0.9144386644102285,-0.09521715237365806,0.6846190845750726,0.8423782672821852,0.5879494231914569,0.24349456878782919,-0.036235029847027596,0.6222496367916552,0.5022170514268335],[0.19135820516365667,-0.3071713189805331,0.6534453236767083,-0.4421139307406642,0.045254840624019604,0.697212023956501,-0.8917954802160719,0.06279473595137049,0.8703627022050934,0.14236891087487813,-0.01981067005788653,-0.2583082081196902,-0.6099386406294693,-0.5450666814082656,0.4649652481845232,0.6667072830246331],[-0.6533223609057813,0.5269952262421019,-0.3769229430543551,0.5660516039670516,0.22119756474708568,0.3214194931207349,-0.7413704857298815,-0.7532456744847462,-0.9071762330237501,0.18097845651273733,0.9319689271807089,-0.09288674561301467,-0.31587288690564713,-0.2556309203316184,0.04182967873860126,0.2038691404824935],[0.23351634619621853,-0.15337377315258258,0.30824573467903194,0.5905673993492565,0.9136392484492949,-0.6376685033365956,0.06845402321726583,-0.36736047636326485,-0.5887406871019281,-0.9002140648565871,0.5540666574153875,0.4093357328819609,0.7633442418316587,0.6855397011633667,-0.623771320293658,-0.5551395486143427],[-0.7163512382423324,0.7477816105201198,0.6810745359559328,0.955249508378746,0.44291771633453053,-0.6991141994061432,-0.9064437029337389,-0.37926196441961846,0.7365141428307176,-0.5670179000115544,0.617597464068375,0.8346837776373353,0.2905734898633668,0.02323066703053581,0.07087551851144648,-0.9116162692014277],[-0.33570459793664365,-0.06639464478008647,0.364994554886466,-0.24869258441347752,0.8107562938341925,-0.5555151499686503,0.12379372068437605,0.9798512549763502,-0.841710690464413,-0.7672722221380069,0.23640691586406892,-0.672446292693929,0.24869483143142393,-0.17545728297453533,-0.1392077352382741,-0.1536261921289253],[-0.09440455967524827,0.024469560803246145,0.4094296919617462,0.46688916625355187,-0.8490324999159886,0.737410362766797,0.8311645850746103,0.8803806074599204,-0.6142067320229871,-0.9021905961517043,-0.38019225921346067,-0.6037328340783558,0.5861516369328498,-0.23353030295159954,-0.01769233904976706,-0.06609780889463034],[-0.8345731813499259,-0.1290517657142885,0.22165392719526514,-0.6509111962439688,-0.3639596868172067,0.4447574831097481,-0.49428136045464055,0.6168356290187522,0.6935153221652908,-0.6549320343524119,0.3266052880596682,-0.6464676418316607,-0.4104111990513845,-0.665404589300296,0.38417692783492896,-0.07896960223253717],[0.11227967630140884,-0.9725134892621036,0.9666013823271453,0.598004387158022,-0.49306783423682893,0.7766460541330826,-0.7937712822954359,-0.1578973892595127,-0.9318732689590099,0.16303203592919466,-0.3557861110161925,-0.458486329213222,0.5354615214539223,-0.5458498717144948,-0.7063502226117019,0.4256677927463253],[0.07795941484216844,0.8659892874251515,-0.7184821585057404,0.15667872168848193,-0.2622736351253542,0.09010187821894208,-0.25670215751090575,0.8986085820456322,-0.3240975168249276,0.023234555672603848,0.8530873879672719,0.8448030043933,0.8988408236608105,-0.2735152261721827,-0.1506942944676166,0.6366976787433831],[0.8347883294467179,0.18664628497330202,0.8486079326240293,0.23364000459067535,-0.7426735495561394,0.4845211022067388,0.31984010786131944,-0.6746714797079166,0.8596119079037672,0.21065858867301215,0.9668877358277627,-0.8938984365011372,0.987319881253696,0.11760218253232371,-0.9054643738624284,0.8108757225874003],[-0.006992636045462048,-0.05217357413512419,0.7870850943447294,-0.25589809005038106,0.8827457981578586,0.0455983787143644,0.3072599064477356,-0.2279361246275065,0.9490005342628749,0.40126563057514375,0.10885481310676816,0.7031160075925577,-0.724238000106787,-0.0950752993839623,-0.1041784508875244,-0.8617874147956719],[-0.36799931237958955,0.48138460944803113,0.5429334342144176,0.47640475621049877,-0.7627044168804691,0.015757524469986527,-0.3516528189928321,0.3567040232861074,0.043732791716768735,-0.6673828947248357,-0.7729069827077217,0.9388033817119805,0.7068975854264234,-0.18564714585811948,-0.790290156617033,-0.47808828440396073],[-0.4392415545265963,0.26184263221492615,-0.6927448768266445,0.4400586708235492,-0.11375772519936667,0.9184126965101302,0.6154229896027171,-0.9698836526877103,-0.2232920972600029,0.40503660820224535,0.22550856191201163,0.562021657202238,0.17663275363193437,-0.2690125548081672,-0.955482379478896,0.7293115628599441],[-0.9811348291184382,-0.90292344333761,0.5976700682548756,-0.4312207492366861,-0.1590022309672738,-0.9323080116680644,0.5350443117995414,-0.7846403059058894,-0.7057690952199522,-0.48510871439033687,0.3103349446012034,-0.12552745093754206,0.49831796809855716,-0.06542311855538327,-0.5698443959043239,0.11381061747959877],[-0.6382685026693024,0.19534484718584785,-0.5028275958396209,0.9663031398891431,0.625669909099455,0.6548521599042972,-0.33515059326446955,-0.8917847450083626,0.8229637693831964,-0.8786294882838369,0.09458991567170626,0.17238532171224585,-0.8809335494482772,0.8036018188411277,-0.18770041345147231,0.574510165312558],[0.4681662645072348,0.4507782822650639,-0.8347239777300854,-0.2305881476341617,0.5740807453050912,0.10029207728727337,-0.25651045845648474,0.8595226576133235,-0.5929687031115662,-0.9206849919719308,0.7216407221842731,0.9999978086503447,-0.458986609718858,0.9026424526819339,0.6188208209659161,-0.0891711947563676],[0.28619837536427833,-0.4560958375119365,-0.6471138360766541,-0.654930369664307,0.21746648055004872,0.823520593234074,-0.4713745357198402,-0.20381325954341908,-0.48280472374125794,-0.38953295309793956,-0.6410692554298715,-0.8946365176228516,-0.6095184597861162,-0.21486708962827855,0.14828996153262505,0.12367215773244154],[-0.42690258984936524,0.9539337532247189,-0.6308339917897131,-0.5665886315347486,-0.3230965247355827,0.831177802812501,-0.5438411630309475,0.8130626591356788,0.18499728183345768,-0.7180051029146024,0.9143459760269242,0.2443203785777764,0.849068058176788,0.8410290166271313,-0.7122012631877043,-0.2623779135995224],[-0.7933391768842708,-0.1252859483581006,0.5588459070312551,-0.8048833361309065,0.24562501092988284,-0.8181308695075168,0.9242004666228905,-0.20717741141801038,0.4826049983675466,0.8532209004235387,0.840248391851915,0.6074967029254874,0.3225706233779952,-0.01188741861082816,0.6026914068014598,-0.07807399691390089],[-0.8476414493506967,0.7710023009083244,-0.7865940452490905,-0.785785008122113,0.9691972024595352,-0.07867297394139361,0.9214700646332792,-0.2806114429983364,0.6450600110204239,0.8946788422272909,0.1885109260624791,-0.7969750155680697,-0.1141089615943418,0.30900773187587394,-0.3697217383280963,0.7125445798563512],[-0.44736101359471725,-0.9468902358537961,0.4790184886562725,0.7710467696986378,0.5834660081115859,-0.8530625104219944,-0.13147194177446508,0.9156463965380781,-0.0660784324007474,-0.4708101849401417,0.5926795488189345,0.6438757915254103,0.5367909602526533,0.8260154592925755,0.3104465228088418,-0.8635549218689813],[0.0031655891813178183,0.11018722649206736,-0.9591871136609404,-0.3598351531475015,-0.5397173061686182,-0.349351421626914,-0.6637124613224121,0.8964080791438036,-0.9452639091505035,0.5167106601953091,-0.42584037195231783,-0.5453459506599911,-0.20947016086870351,0.8347416593854975,0.6180494770491727,0.8804132537359433],[0.5748452570172238,-0.4771037248322292,-0.9660767325973496,-0.6780026730513213,0.8497223499462578,-0.2590527158505529,-0.076229305507722,-0.6646057086366255,-0.7125873694720619,-0.8509438772923051,-0.898689775680513,-0.5933795848830508,-0.2514224970952712,-0.8466950449378672,-0.6405601686055586,0.9093443657780738],[0.7671163937855123,-0.42095684512562903,-0.3034911720564082,-0.8501652729931126,-0.4329442444410847,0.08205687305054488,-0.292199175475258,-0.43974390041071176,0.9368381993550985,-0.9920738590844319,0.38204000302685426,0.9947008797874213,-0.6906770354559073,0.15010081192017566,0.007057701706447483,-0.3773780713683823],[-0.7111733250152702,-0.5874317055016697,0.0286931612915076,0.8700311880956566,-0.3453784295946292,0.3906190909424002,0.22818273515440024,-0.9988060155921046,-0.8028470165699885,-0.20542350525439265,0.30185322379372004,0.5922633397071719,-0.26541189566187307,-0.38437805848825146,0.08412103779713792,0.881611443078422],[0.9285898935379813,0.2952360401329466,0.10990581444659601,0.6260476149983218,-0.5135696619322775,-0.6216384756800509,-0.9459255894783647,0.6124387267464247,0.8413475917929059,-0.548673297127936,0.17990115715508692,0.3979652472111131,-0.17665432686113594,-0.8605326119293337,-0.7210707116063569,-0.8791430215008809],[0.03210744476021111,0.21986935457600512,-0.6363498992640287,-0.08424775298993928,0.9665429921563756,0.04372016941006447,0.8966493171677826,0.8981759786884645,0.5706676771744884,0.6882970060652979,-0.05968226995779212,-0.8464681727097401,-0.824352384042232,-0.40039039526666825,0.44472866055196963,0.7278431827196759],[0.39881827697964467,-0.748479218895055,0.4760171290445365,0.4260351809556467,-0.726378809066325,0.45267444388264766,-0.9968342031335586,-0.3088992743249033,0.16005988156577075,0.6774668321962055,0.6397636672294625,0.42693603999799057,0.31203405693731184,-0.9125904577663926,-0.9393214734590638,-0.5937370305185933],[0.9424591074844616,0.33236456311398754,0.5386517405741674,0.6471246733586977,-0.9682256090171991,-0.2759482855169833,0.86624046942118,-0.5245572313867096,0.7576795463342726,-0.5731342775564991,-0.10935567579867668,-0.9389379408231305,-0.8493954917202021,0.5881848467394206,0.8087200429679234,-0.3757902771318445],[-0.48831504912045304,-0.7606706214762973,0.5441321191708623,-0.16544114393445328,0.15226099516190322,-0.11112442150241617,0.958378126543675,-0.9234471414202743,-0.9779961360927415,0.32707115832870703,0.829643896657399,-0.4752816164709572,-0.705397966467648,-0.05260440383119588,0.6458168044988107,-0.43897530346000685],[-0.45724619904915054,0.7862937297823505,-0.3762132099650823,0.30919140178766996,0.2810698514300367,-0.11333107661434356,0.7389018145488752,0.260540030869386,0.9939044775849659,0.7088835224771245,0.7114609850778034,-0.07491010610878517,0.5886502991802854,-0.20635312370504388,-0.12659558529037343,0.02569414354872552],[0.0858696444591451,-0.2221172753272005,0.5717054652853225,-0.9383272719813326,0.20250407528322575,0.8277538056646603,0.4862910815131738,0.5821553167005653,0.2494232351787155,-0.4637098923800363,0.6574733641682123,-0.14902559851760536,-0.39476111999832286,0.30232711050140504,0.808874468852488,0.3866528799694014],[0.5902658685131994,-0.5119212752951567,-0.5604963116243283,0.7835985266400672,0.38736636537921737,-0.508681129694136,0.8797165843581268,0.9645923669281525,0.42477210922722597,0.8374063286119051,-0.4389421716270696,0.2035825224712186,0.6678216011925496,0.9786749269524478,0.8894305734887591,-0.2893622733888115],[0.6816277248077054,0.4267474455893176,0.5775415939509624,0.30400932343417025,0.7329102895330657,0.8845476641513879,-0.5734016034669849,-0.40293459706397716,-0.6459285073872495,1.0494468002494335,0.3759377074437789,-0.7761037606867677,0.8939325171023317,0.23292302986834534,-0.6192910944830701,-0.28623149586026736],[-0.3575702935735204,0.5494856089889403,0.7036230064349291,-0.15531895690138364,0.37077115904321734,0.2625776685766852,0.008696800243763899,-0.09754787003255486,-0.9504008732475897,0.5894730170730208,-0.17192764679637704,0.7140681742884255,0.7977130044859673,-0.6353964521240427,-0.008802851481808854,-0.12464576879374609],[-0.06122933774436171,-0.5838155196598949,-0.24375467210350768,-0.8346600151526156,-0.9760276067682513,-0.15932811812782494,0.70919418473704,0.45274617867506006,0.20100318534658168,0.5026146860312395,-0.02339477784739005,0.22510855157082368,-0.391462134756291,0.2693192241015419,-0.31242605669685936,-0.967223879029354],[0.866123310106589,-0.8522625378663126,0.9064057369453001,-0.10779358522202982,0.2595859143518353,0.6294366479022682,-0.577545414042794,0.018026785154114714,-0.09591882156220442,-0.6440172229748187,-0.6858094222445092,0.5011804689022858,0.4014678809979976,-0.45084388087486194,0.33383960381247774,-0.12112644689644755],[0.08394835954463281,-0.7969038990550558,-0.7251188229312653,-0.4820380909838643,-0.4132320321146617,-0.7010255311984825,-0.04185299715755765,0.5596254131207984,0.746170884566364,0.25072904624306497,0.2933538609959067,-0.7667500537773864,0.2806360437484893,0.9252495941182126,0.42672302078778357,0.5560751820347868],[-0.3827024857313322,-0.423776505982867,0.3824330296722948,0.8630625585323844,0.6320757918494173,-0.55719463068695,-0.20408398521431112,-0.40871972896716857,-0.9795784015330137,0.12679525053042706,0.3054586547281357,-0.9490748360693149,-0.04160860263167677,-0.02451741240281958,0.034360965713732476,-0.7315109120176768],[-0.433185878313905,-0.595831508575638,0.4338838909585346,-0.30074262569009463,0.747196219725733,0.4202257460044404,0.882706089992756,0.10369445819788838,0.04215493629708529,-0.5390621740174083,0.3106178047774696,0.3777914751277144,0.4661050801624155,0.10960110539548595,0.7738568109548455,-0.2620104918673255],[-0.12886055406015834,-0.6397740109787644,-0.3217021054586993,0.6161890291799159,-0.7896281303154421,-0.04816864228703064,0.9152417114634036,-0.6864281864789566,0.21549029297322334,-0.960626675546831,-0.34180927900461744,-0.42539592332931175,-0.09337147514220519,-0.2970673980405044,-0.26711284419082926,0.23911209523217972],[0.10867744950349184,-0.8190270291946754,-0.6838624999856261,-0.7666242023658749,-0.468255435651971,0.776002666396267,-0.3228137213169028,-0.47707198921457955,-0.13541879023346526,0.5043467892635614,-0.8580174804363988,-0.9896313437172615,-0.3784951210670667,-0.4389225653418024,-0.1377271540937353,-0.3855482360510885],[0.7208343107134183,-0.20686113060696945,0.8537550239908548,-0.0173502161012113,0.6510934673131573,-0.9223328986746276,0.8089276760025228,0.8304495263148478,0.8246507953519987,-0.32786480192904927,-0.6646425053979402,-0.605834490966637,-0.5857173734336094,0.00259489387656471,0.42986563106146053,0.6837839016447596],[0.5244071656945827,-0.8341243346900766,-0.6764512087906968,-0.9438091141654681,-0.6945795120297371,-0.218269087168587,0.8480271380297365,0.4499226125099812,-0.9492889922121792,0.6493065282580727,0.5268403015616338,-0.14091548961187478,1.0054404256220226,0.13798573958146038,-0.9487739770800769,-0.5743118847587888],[0.5632008093181096,-0.5557444029175272,0.41355144046966963,0.3887326226662503,-0.4021764406367942,0.11668103780487621,-0.4408236459445593,0.1914478910193147,0.16420092067807746,0.273240849415126,-0.737024078736718,-0.12238913404960385,-0.7884614481235176,0.16705789894096593,0.5011567999541103,0.9457114949758865],[-0.8073784117096341,0.4578798754520589,0.5036908432212959,-0.03968546904305916,0.7332408955110036,-0.9165621863303585,0.5953382556481716,-0.8609850363111603,-0.49494858893767163,0.6483970989893092,0.07058537147787447,0.20869628849496744,-0.890058166485626,0.05053272030605856,-0.6299054393761574,-0.6922128297494784],[0.3251625927149009,-0.40273517820759036,-0.6216560494396582,-0.39552427394255046,0.6287506193084267,-0.31453749450235363,-0.36787064900625543,-0.9003343479730418,0.02029591103497231,0.33656054581950523,-0.5769728328657225,0.530875161351245,0.7839236017734256,0.15673152696611173,-0.29342024673186307,0.5694853523543894],[-0.047976952534158235,0.8066099070974673,0.32947696993568765,-0.1265887930647418,-0.5141144420551669,-0.44143671888924985,-0.917912483177107,-0.8201323169377317,-0.7939641800680962,0.01836331422364501,-0.7559227728079645,0.3334696867193421,0.8538627120917024,0.6206202253795323,-0.7075975358987215,-0.8233725288060366],[0.07809644242659974,-0.9619384165676024,0.08364484230226132,0.6307368211591322,0.6287678627431244,-0.20339087080368345,-0.8411593129118715,0.9769183145728513,0.44802590340749626,0.9327303999721679,-0.445256389419202,0.1448868229728597,-0.32861033143876606,0.047909554582047154,0.5606499004925833,0.4679118289928472],[-0.3338331819203837,-0.4647477620582784,-0.032233305756111275,-0.9487718138605225,0.6539847132069918,0.6635621980128634,0.166502389668721,0.08280526897069307,-0.5322668037993213,-0.6470504150013674,-0.5545485706788249,0.7952836313262972,0.3338193154585638,-0.14924231504520513,0.3135476211614663,-0.1712133191391888],[0.6716829732394232,0.94562802088709,0.9657622733925293,0.8393874959272274,-0.21636788696812836,0.9554137540773553,-0.043013139182242144,-0.8425570558023439,-0.86435190488787,-0.15591459588888779,0.40144491260938575,0.008536231242370018,-0.5790726270429196,-0.3687029319669599,0.3216496209249131,-0.41362256995105307],[-0.06750456990700748,-0.9135039081428119,-0.5763657523297282,0.33693466869878397,0.5738416725451442,0.6215506714117617,-0.6861827174419458,0.3538785352263777,-0.6940688892676964,-0.28204415616219075,0.2966160567513875,-0.6545563267382879,-0.3350919697549241,-0.5322705633267327,0.37807493769543243,0.9813438392537217],[0.7163992534946843,-0.8996355964485346,0.9863880482298034,0.9275463794122962,-0.9488841925750784,0.750651110679977,-0.5018942919631091,-0.6145928320441579,-0.28798883183653434,-0.11347466175098442,0.53620460388819,0.8767009402221196,-0.15710060505961415,-0.8991983874055514,0.3921431974418078,0.42293348070445236],[-0.2543754125181553,-0.3378067370225943,0.4143755432697231,-0.04988727142686334,0.7565684094572173,0.4101633384380317,0.5313176254997722,0.5820488407668368,-0.2898280350416825,0.6990572131498713,0.1036229350559142,-0.8508099700260988,0.6650853622035647,-0.7820061986533837,0.15834412383039198,-0.5430177410262943],[-0.06821435630782194,0.009038755027680529,-0.1276109678897865,0.44179673499107663,0.2363745646536189,0.6961767915839437,0.4902919510489303,0.9957709808445069,0.9714919091565415,0.15072820373380377,-0.7505271707993671,0.9346770099099937,0.6898639288317263,0.13750055153180754,-0.6815445452451111,0.3646348433152349],[-0.8117400136697444,0.5916555457172397,0.6072000302494006,0.9039100400895084,-0.414807751951508,0.0460617361206121,0.7887486490635158,0.16211553135661105,0.8179290212063816,0.6165830370763936,-0.5983839586603666,-0.7264689900470173,0.575382528579266,-0.3745505588190356,0.8516395863211884,0.7849426869182028],[-0.22347747270976165,0.01758541899747703,-0.41354937078978865,0.21832949207693295,0.37594851067711726,-0.41771900698004755,0.3535017422239733,0.9055139422291186,0.80613725371683,0.01924891730582772,0.8226477179963027,-0.5115340442800913,0.9137921830810262,-0.39315906699677955,-0.31584264966277253,0.2917645151236967],[0.4711613808050841,-0.712806771949178,-0.3816408595612205,0.3917758952789428,0.3507149126158556,0.28720365551580196,-0.6223225831992335,-0.9335151026415139,-0.5259929013447326,-0.9213964994727233,-0.8400002210263391,0.3985281058451733,0.43528828419281596,-0.4278802079496738,0.3714608931653808,0.8101836291771742],[1.0011982451359935,0.3541005736916272,-0.3359638818357965,-0.9747984638177661,-0.20617408418718838,-0.08278577949356974,-0.12140425725234884,-0.388114014313535,0.5408480980890483,0.6168238402084948,-0.7020911743112603,-0.7800672324594542,-0.47097870478282,-0.5504327810170482,0.9869464678786136,-0.8047480186588156],[-0.2566533064312267,0.6547044312669936,-0.7459237344817392,0.07830303233553289,0.3363158496811995,-0.9251974645531544,0.08165456054938687,-0.6363918654637695,-0.6792862647711245,0.7489194172280367,-0.9602648701757057,-0.09799691806856875,-0.5964129899699571,-0.2923526250627931,-0.4084658788402103,-0.28214991636219483],[0.8795374676751956,0.8095938911054625,0.04024188205455006,-0.4843457066649596,-0.7994413308650555,-0.2971431357378076,0.9472211412772397,0.9848132259215172,-0.17758758875475567,-0.630205612721684,0.6753526407025194,-0.7864675696981301,0.39555315305277977,-0.8216028512309148,0.5541075844829026,0.20971823389895236],[-0.2238756993881533,-0.38420987902345205,0.7270809008714475,-0.09448620801953295,-0.6209910444114088,-1.005813178751747,-0.4845213988737796,-0.06629327211231983,-0.4585019634353345,-0.3739905676072189,0.6905910693415668,-0.10436816739787572,0.2622411530359605,-0.7622558452001091,0.3477203999000439,-0.4676437220735696],[0.17911856086940206,-0.30697409563181943,-0.6029435971359374,0.9485874233768473,-0.5142029920940961,0.05178959810634548,-0.6422693870395331,-0.6274839651468038,-0.6830228715888306,-0.2922206146469196,0.758386790195015,-0.5490337154933927,0.36028820080993446,-0.14722774193724308,-0.47867196761347214,-0.1755195390290052],[-0.43240190820811686,0.6182930377992003,-0.30085046638588286,-0.6882262443033895,0.587289659271255,-0.8047654559841959,-0.2032799315259044,0.8329244004617424,-0.3423145640134963,0.6823021522689096,-0.9788804598831408,0.2920643204444137,0.5709428986320949,0.7854226402176245,0.2375026920436683,0.09337424648156209],[0.28976967978260354,0.3930834092750122,0.1759985672241338,0.9294584437888542,-0.022207656851593302,-0.4183853274379897,0.5775993619587233,0.07674902715918122,0.8662884499885011,0.5076695858821821,-0.7516415578366542,0.1637953500754108,-0.6211486296953231,-0.6778193113870591,0.25688041845419085,-0.19075300081043292],[0.917863053180304,-0.8280912733150226,-0.8066125737540157,-0.2967786395444828,-0.2983286301754664,0.20932321489000805,0.7944562853963503,0.20029114487803176,-0.30138036611264984,-0.10573824549618993,0.4253887480845455,-0.1398761247502747,0.681374246978482,0.5887128807836042,0.11352059401696939,-0.22392525687687104],[0.054617939425704615,-0.007231626497662426,0.09121252202214022,0.7245836738506692,-0.11653897281077912,-0.4756829139495387,-0.2619549980419681,0.40212839444547854,0.6193567470355157,-0.46504995040015096,0.6279571926660985,-0.24565546578100197,-0.9412160442549846,-0.1919934780626853,-0.6599437114138131,0.8414376678846215],[-0.1030403940818648,0.835731115022477,-0.2801638173264129,-0.8319479166281927,0.18490765965283482,-0.9699155848812914,0.14453655662534182,0.45324907513351964,-0.5796575812746736,0.415145835474009,0.8052976134138954,0.36201747699171205,0.3094853460266711,0.47824536977895216,0.6793514568704428,0.053871266787516164],[0.3987169706486548,-0.46559113090421306,0.8923358457738967,0.7478685672304309,0.5071550970033314,-0.20615050196614784,-0.5268787633077922,0.3331878275928921,-0.7583881750344859,-0.005121365209654349,-0.5699518283841924,0.173816299801501,0.7140317814047012,-0.4367086224304677,0.45088999295658244,-0.7320620366748001],[0.43891849687105416,-0.2572781094339054,0.7659876603409417,0.8077192903105496,0.6343573478881533,-0.20327819137114622,-0.11467517793349495,-0.3258821834667564,-0.38018969481401976,-0.30881595680751106,-0.9346321544374656,0.9640177492825657,0.5225692265902894,-0.44320359503969453,-0.879728355378342,0.5573169668835465],[0.614931521064633,0.2676290095685224,-0.7149430133463839,0.8888323713775375,-0.6509200204279586,0.4582971562376519,-0.7503510112014378,-0.14063627541203358,0.5013203174989281,0.7882718405746119,0.36576006485136736,-0.4814737792519351,0.1636902523301545,0.3738999983048642,-0.7208671357305018,-0.9627609550428983],[-0.7803088090441097,-0.6734882385326127,-0.8968898345429217,0.82802741950169,-0.3295984621830089,0.5336786376815357,0.515846761357593,0.24883409595353723,-0.22919426995063102,0.41229867846804796,0.024158432121808366,0.8963114517326981,0.13311257032053606,-0.12113263993344697,0.717040220248974,0.5598850738510274],[0.975419840718372,0.3827488904434629,0.009578840115966766,-0.44010498222138533,0.08446811850804956,0.410678009767851,0.6224267656504303,0.22751932054650054,0.16492404485845422,0.19295443488058078,-0.4286897471825157,0.21129365490781765,-0.09255728754813103,-0.12137280282673983,0.25113742780545845,-0.5449975070437042],[0.6612614843787931,-0.5095011857504761,-0.8509197447611493,0.47650372155934473,0.5341153575310226,-0.2169323018631927,-0.9822703375412397,0.6887870260253186,-0.5601519215755553,0.4227940863632288,-0.5040047577259255,-0.7575454328988565,0.8623967288880294,0.9043004541103815,0.8302366702916526,-0.8318234657925667],[0.29937237234682007,0.4245063204486133,0.5650719766576501,-0.42100435731768354,0.7889002796017687,0.9834313242516328,0.9896343852094645,-0.5950635922296609,-0.5714210347438063,0.8761220506573032,-0.49779575643315416,0.6361406282023369,0.9790262436053392,-0.3688834073795711,0.9025922154271696,-0.5412007321253429],[0.4565473187046811,0.8858382403318947,0.19451266024006197,0.5067713612256439,0.07112974816520223,-0.6193958044142442,-0.8194258044564285,0.3920731206387622,-0.9311300906963321,0.03489126499504369,0.4279538641813927,0.6380307840360473,-0.08183115584861078,0.2916717702949754,-0.5512014755751944,0.5078810041341377],[0.2884989517221688,-0.673345018026114,-0.7930196969737391,0.6262284413102215,-0.17680157775841732,-0.4224877978779784,-0.4826034016360544,-0.9322205902692957,-0.7700124344648851,-0.15502615047387136,-0.7762239369453042,-0.9358763498886844,-0.6102914705920459,-0.14624430106312236,-0.8151825702819893,-0.8145153149098695],[-0.9467630721380762,-0.6361360538919159,0.7191999087665231,-0.7563636227307672,0.5540959348688348,0.9619039650829062,0.07183692467950142,-0.11335771675843642,-0.7634184601546351,-0.5020531152850265,-0.4383501677952475,0.5502502906835871,-0.24706075771109237,0.027786830918764105,-0.6932515705438571,0.47358522819056414],[-0.7952919790091586,-0.8613635532589702,0.2867715546678089,-0.25219526752388893,0.973342073911461,0.9669511471125801,-0.852578520650361,0.37010305960482487,-0.2274457494246414,-0.2682392696683063,0.11415247158768745,0.11831253884702059,-0.8973193922532305,0.9897384498564704,0.5054546212566946,-0.32985877346703174],[-0.9038643166565049,-0.042725341712132915,0.5229200935867239,-0.09566181338643423,-0.07718217371699689,0.30598571234516075,0.6327951031550951,0.8625262068922065,0.6925974368355026,0.14444627032899132,-0.7689257878327214,-0.6164806844122425,-0.3748068407019085,0.5645921374829495,-0.2845685748531104,0.571403848814182],[-0.39674233736559295,-0.2985606771963958,-0.2768226792867748,0.0200688579112574,-0.1427075602981199,0.6943523073354642,0.4295796165328845,0.5096811222191614,-0.17870547818635593,0.1140307980797969,-0.24226009548523167,0.8637651230525922,0.03178568470332509,-0.025705752652419842,0.5740232756530251,-0.45007160877086283],[-0.9192374642371105,0.4199057364748653,0.02150811452560753,-0.9567892425380929,0.4794756380082083,-0.5131891318320553,0.8302575711395874,0.7128319619435934,0.3649835447582297,-0.331016036891128,-0.30325837704398,-0.191036041716259,-0.6929400519996595,-0.030485362742956375,0.158684339852761,0.5486028366984351],[-0.6788413770318424,-0.7778767099697913,-0.6197260970666959,0.7933732101756148,-0.35502024619711425,-0.3413362476728366,0.8692436261105463,-0.2918990145092099,0.7149630618156,0.742583228126319,0.08160366127098741,-0.73558666125501,-0.38130719300509924,0.03197175485163286,-0.48979883653446654,-0.06481656986008537],[0.2761766938451053,-0.19037779894762769,-0.44315418448713284,0.5814579113623132,-0.6161273605534249,0.05940908411315647,-0.2645469951925713,0.3844485175900993,0.2981838393644152,-0.9333273092533146,-0.5644728548415355,-0.7595075120434401,-0.21892910894188894,-0.27244996355354556,-0.4920672172206305,0.7920078887971126],[-0.15765580354352235,-0.6890681861046354,0.5686403087059116,-0.029337093562942146,-0.6241439575417852,-0.0672940705614935,0.0455520183604336,0.9100895462370351,0.893270533631947,-0.5268262963458035,-0.5823044151342214,0.4833041985091276,0.8372863580677524,-0.686655770612305,-0.6614216557806887,0.9690852983399807],[0.6123858738526425,0.7239990037173193,-0.8070590811848095,0.9268780003926238,0.7105558956218778,0.2684851884378819,0.4761537957905226,0.8966932634844796,0.6912410799572354,-0.023681731978002905,-0.5963188120142061,-0.46385847986479123,-0.11898923399137051,-0.6726085027995278,0.5147630656834037,0.031471641990191666],[0.36997851055586695,-0.291206593386998,0.573672594697849,-0.9333139173962254,0.15808704026603412,-0.9169435968970726,0.05374658026024756,0.17751660866983354,-0.45926554634010436,0.6234943537562672,-0.8862933865443852,-0.07790225176534878,0.706863623566322,0.22030601102779712,-0.5581684304137653,0.9472980860964155],[-0.15532484932366578,0.8600781023464583,0.0013038113225725318,-0.22133893613335728,0.6454481122120705,0.09103750443916946,-0.5824842382236235,-0.64031377461743,-0.2806199265968096,-0.8910971471220406,0.45792587453649836,-0.0012092031544608285,0.9503489378614671,0.7709380330134155,-0.23599384851318186,-0.7623592203005874],[-0.2497451456231721,-0.5490653351884562,-0.31863334180618724,0.8173936923296901,-0.4879829760077273,-0.8002018719107362,0.017062406801384544,-0.4227562935774055,-0.6114498119005497,-0.1406284494402776,0.13230306225773963,-0.7653761035662703,-0.8444073148680669,-0.8982017175292638,-0.901997651591856,0.3334072370087783],[-0.5465046301509899,-1.0027359965796403,-0.9315085722495053,-0.09186908680977678,-0.20934217916723563,-0.774617990712458,0.3118378554569382,0.7154007568938374,-0.7605160106202108,0.9355444791574613,-0.5690816299816668,0.38458582230145727,-0.8334162451311213,0.7260423660117745,0.18174745139878415,0.08354119561722187],[-0.8427919123216498,0.4394046052730534,-0.8644587463552379,-0.07653300106469361,-0.3578444125559558,-0.7375634835728324,-0.5446385944584118,0.5216736305568441,0.4022600232240948,-0.5397961569065054,0.15622774761910838,-0.321621555499542,-0.37397505399442266,-0.3586854409128469,-0.9465704788817801,-0.25478879232422164],[-0.6146728237166045,0.894623479797478,0.2575863639211885,0.46466338516434263,0.9030619595308648,-0.6609922326809656,-0.8675516528351197,-0.06642458677884006,-0.5638138164001283,-0.7389912544479595,-0.8458959947602541,-0.9521048808319483,0.889082227459597,-1.0214718821636355,1.013719809257943,0.07146596307619547],[0.07193913505297127,-0.12410656290031061,0.569286261055561,-0.5379634078349134,0.7866673548633359,0.36131884163002953,-0.8516291451247928,-0.06192232941457737,-0.7890610777148395,0.6175957309479804,-0.010619405526259462,0.9590146284743779,-0.32426852670154466,0.46931414739279714,0.4903596551711352,0.3698761789605238],[0.8673462477440907,-0.05718689568516102,0.08420845262482768,-0.21353978535468773,-0.6991588350412673,-0.6462753111278764,0.7640624097568343,-0.7716831326995992,0.7044373395722265,0.3648942152853407,0.25521840598903694,0.11034708533711844,-0.4911770519925423,-0.7660716921732328,-0.5047978076450509,0.5707860541045654],[-0.3156984249005978,-0.3939103556898573,-0.6428840455803432,-0.8059599483439762,0.5602094618765785,-0.29141923541806997,0.9696907409750914,0.12589552506331664,-0.7746785711456734,-0.9068930903254327,0.6246154270359839,0.13250706859219438,-0.944231277334319,-0.11395497167620872,-0.7353894171227144,0.5630099677718441],[-0.8972882128305566,0.7544794961859106,-0.08779817342597968,-0.2750570439041234,0.847853927719895,-0.05454025918841534,0.41091528630671065,0.39630618714921906,-0.3216467561621541,0.438829499762993,-0.05771309137543571,0.6529305795690569,0.6427174474858729,-0.5758798230797009,0.4217570312266117,-0.25213012730210344],[0.9372972041164876,0.4679840480384198,0.8809043716036201,-0.6770360945216012,-0.9297399616759043,-0.30056464241933356,-0.6955903913557234,-0.8290599056483752,-0.44546494802903064,-0.16282949759017137,-0.6451485711867397,0.5279123281027178,0.24615369620941516,0.6595900669608727,-0.6182108107810581,0.820892817721004],[0.16120253869324813,0.1383042343055294,0.13766438656814226,-0.2958238597584565,-0.9026085033438058,0.8617536233164838,-0.013054232954799076,-0.9861816272597532,0.1743727498957635,0.03564015805642369,-0.7242570438793561,0.08115991834191637,-0.1794666632364564,0.18661166483684072,-0.7713869668742197,-0.39310713438316836],[-0.7567587028506721,-0.25682814599819087,0.13447770287997007,-0.848869168178047,0.3633034651220185,-0.8115531134833606,-0.7519447249751008,-0.6112192321927151,-0.8087538566212842,-0.8209114576024145,0.2495612800363281,0.6821394343226307,0.6113232598975074,-0.20639348470792146,-0.17512395835881672,0.6270132367109068],[0.6633742246330192,-0.7283043720036935,0.2207878840995777,-0.30764630566066,0.9393719372059732,0.9173531321310614,-0.2537133394210238,1.00096981318914,-0.5309799732224345,-0.5857044430736001,-0.19946015819720425,-0.9868964735078124,-0.4750703026795632,0.5756843760128352,-0.5947361406559367,0.17239053496327017],[0.15801111710404814,-0.5096483792718601,-0.5816141579288968,0.22275508234353092,-0.10767596141584417,0.5822500171076511,-0.14399347391459533,-0.2639788952709664,-0.1126620699193173,0.1387427174456738,0.4039239529222962,-0.5457633688534136,-0.9503110824004228,-0.7505817782166125,-0.9564407230811394,-0.5385800377586484],[-0.5501677988273789,-0.20294161947129521,0.6681131183307398,-0.5908973728138274,-0.516758481234064,-0.3241106061438132,0.48454725071035637,-0.3544244617139172,-0.4008376629122182,0.9416169439277302,-0.4219033090797544,-0.8282861621473789,-0.5179567689244623,0.695943359488467,0.043299026892436,-0.4949905196464236],[0.5747596342234124,0.303399196384535,0.4511522468644038,0.09512988870189584,0.013766523229002129,0.7780409176555989,0.6043689677417969,-0.1533112401427761,0.9633250513641226,-0.9628862676859365,0.7730994924801752,-0.8384211409884652,-0.853074058672409,0.07898842404004737,-0.13982434663946652,0.895018620534923],[0.6557658266535802,0.31901769401459856,0.3469544040723491,0.7820903201504099,-0.9771618693960653,-0.9888540059276176,0.26102841145406863,0.30226107095473487,-0.171808456616387,0.2463689387060557,-0.5451364859683143,0.18741136285821502,0.16311464233468964,-0.47948047494491586,0.444091783577619,0.8974616499140213],[0.06067609091320825,0.282827347183054,-0.29570628483579786,-0.8698473292728175,0.32583027394759956,-0.7864183959487911,-0.09296234934263037,-0.7758073228298721,-0.03366596392992227,-0.4367849162951042,0.05737573237036164,0.2833446288869459,-0.8119803209844885,0.4992855198212367,0.030865925844230757,-0.2214932996879766],[0.45592516914751613,0.6296389222283099,0.8732627564451019,0.990473828274046,-0.8747331713674279,-0.5728104000784505,0.4381566669038295,-0.0899736811825883,0.3646307705736862,0.42798198732919146,-0.6365581320768958,0.11585547547594444,0.2983995533075181,0.7675540744175922,0.6009599676360189,0.01646978921092579],[-0.04219695286556135,-0.2912105882221417,0.4187362255921503,-0.23371849502332526,-0.5053213358474489,-0.7862261879709547,-0.3081279926949964,-0.8730439626836054,0.14094570149892754,0.5204408676249218,-0.2788198512799431,0.13491116414975488,0.7617781871964814,0.5921013536307552,-0.873246089733283,0.5203986600209269],[-0.9451396934844245,0.6128028611700185,0.8307232511889308,-0.5517345062501863,-0.4839594466416727,-0.0350415943318676,-0.5164057573801286,-0.3043904843568171,-0.7273445765218018,0.45964214692496397,0.041930300687166855,0.6318608031255942,-0.023729529557668026,-0.8124714962058401,0.5687655886618864,0.2531301912084411],[0.4459045431253523,0.23930261693637994,0.8404409626145454,-0.6294259280530106,0.9659656114843532,0.4251192180567087,0.5479484864596711,0.17425620183328053,-0.7176517415058781,0.8198597682436158,-0.3958861356849259,-0.4881246638293416,0.6786229710007311,0.5717037913041185,0.2611414341639949,0.996542297347816],[0.47472918986435675,0.1275539648945107,0.6651539731365983,0.9356789428810627,-0.8358793067874885,0.3163226441929996,0.3224902460547876,-0.4012678083261622,0.9041197200268575,-0.8839663689020594,-0.1766269368516275,-0.7126519748105775,-0.23866049870255168,0.8317017071977649,0.8751797575017125,0.855539742408168],[-0.09983975249203506,0.2708399550048333,0.3819411268919927,-0.716836177542812,0.7636675946554174,-0.5297047353206396,0.2938218835738836,0.08777341676077355,0.5904368695718907,-0.2236955627426688,-0.8235252447786148,-0.8066152355344688,0.16332819574338397,0.7492093549310368,0.6784434509242232,0.5971605340376748],[-0.27879046670570845,-0.3358801027761511,-0.15081545247259692,-0.030148292049578435,0.8237896278875215,-0.383595872618105,-0.6845787185178196,0.011315022957359725,0.5761865240829751,-0.4824021804694623,0.25661783994310844,-0.08820416468101239,0.1290980960026363,0.5507755766557852,-0.6057794427041682,0.8141373308811518],[0.2659637361683707,-0.8384667079711889,0.3187599929389627,-0.3733848914443459,0.3826293526349127,0.316447645373649,-0.7247505584366208,-0.3114326540409194,0.7083369369590956,0.336386524891287,0.037772613746657455,-0.7475543583557706,0.3004465385856201,-0.43544086910442886,0.8794751239809947,0.13179323592458833],[0.9028484859811565,-0.586922735821335,0.1241998564554353,0.0917564363765591,0.8786094379458285,0.6116895373631793,0.2943998612705785,-0.25401054377796856,0.8527515454284667,-0.5358053340532241,-0.9341309541275756,0.8030634249349313,0.8796580054972851,-0.12473394741704144,0.28384447651737327,-0.38896137129766467],[-0.8622630208879037,-0.024628960876020928,0.5162412347935533,-0.9872482837798362,-0.5152789749509192,-0.6116312938580379,0.7060327254836563,-0.16451142015706632,0.5012627093458305,-0.36824293324895496,0.28883075516719015,0.0030646043692520108,0.343619746807246,0.7467288648503634,0.023731388543554822,-0.8520840601903653],[0.7963839164548947,-0.5746849152823162,0.9944777594015749,-0.5739906098351757,-0.27390823240866424,-0.7718231538175832,-0.8154964135160288,-0.7567519251866065,0.4580077557195668,0.6851765924400075,-0.014974723560113031,0.3675198444110252,0.051728146321242896,0.22413368024570748,-0.587133918409255,0.6303602702226647],[-0.5488254879457083,-0.5539269053392479,0.3213611463408325,0.06650426374813473,0.7395354704944588,0.3492562925709389,-0.2649115186879888,-0.8088568834079218,-0.17226964219608729,-0.14142938030824084,-0.39111025883982603,-0.4046005334846688,-0.3987709159629233,0.21371087914051784,-0.13553965394954698,0.5666604917244593],[0.9038242174432028,0.9559616119536939,0.8112640939599662,-0.6826313355640774,-0.8962405309342315,-0.9954881129363378,0.7264089833858007,-0.04624976066881121,0.018666785107111884,-0.3751738563302011,0.31138882018533176,-0.8253673581582525,-0.48281745158383943,-0.879470451931786,-0.957419185577321,0.0209726949039511],[0.7205280358650269,0.37619671699955076,0.1060525987679123,0.29648313866724196,0.20513070598185715,0.2643312696051573,0.8553459679622755,0.8915887196125896,-0.23714495421375587,0.21190716422730188,0.5920917599818429,0.7631223960127507,0.6560437884174812,0.46908776318709255,-0.07812225597374567,0.12169808382575323],[0.6693913148321737,0.7195938606546259,-0.03917712525387272,0.9545580047753414,0.2609188335761215,0.3090884670345356,-0.8016698304247617,0.15298901205268772,-0.8252095726871894,-0.4659863577600707,0.8315452851328651,-0.41614432149374797,0.4146599800377693,-1.0018887302840591,0.7661914571160924,0.7683112245488505],[-0.4638272671518896,0.4989605259592186,-0.4289389728574367,-0.40118910575154426,0.5348212599095014,0.10940674519649654,-0.16819597439014614,-0.9975699255356,-0.838342728827386,0.25629854055490164,0.3073631191670878,0.8861094754237931,0.8972909613137959,-0.6432091381167703,-0.2808059686693328,-0.1746349300682092],[-0.8011183496081167,0.15392785886779795,-0.9722104724896634,-0.06320333825068686,0.2386526040979127,0.4219740531601066,-0.611718200512555,0.03889259094647362,-0.09696870445570999,-0.5884074032105462,-0.8139669371425994,0.7096642354311018,-0.9458110965285825,0.006181974701928012,0.6331685121684326,0.6118288725645521],[-0.8588870667041187,0.40232334630625394,-1.004665794821459,-0.6590608351814513,-0.3196215304795171,0.8219401617099249,-0.7998102651556066,-0.13232664493334195,-0.9625618796164587,-0.4453172512056938,-0.31935709212711416,0.07887106757213756,0.10934291633237905,0.3418480232831875,0.6300583266712201,0.7375602178186523],[-0.056914188013532895,-0.4490921163981894,0.7870794127116911,-0.15426313793466473,-0.2723928440725714,-0.44534381453621286,0.22240771063449655,0.6097282056550429,-0.9909776992693022,0.08311588382877359,-1.00744030026425,0.7392342278336345,0.5022140547931303,-0.2239727040650267,-0.681383054640744,0.20965462843083235],[0.27417059748779726,0.29265704886795035,0.5794407388844661,-0.07512261491651116,0.008211677505021851,-0.49302763685553846,-0.5169879154031278,0.15069846101898499,0.2258464374776649,-0.7275545071730694,-0.10663323204927053,0.22293284244940959,-0.16418872636727155,0.8378968147414705,-0.8769955127117516,-0.16439866849226403],[0.22632619178244903,0.3521275567272417,-0.005190491470850462,-0.5412118420795393,-0.5222467164528344,0.09484841324570834,-0.8452937338882588,0.9257300156477952,0.07468234018905714,0.5664698776118455,0.18910102884220656,-0.5748003895831573,0.20943482592087478,0.34435136330581695,-0.6833269443832924,-0.019999735027954626],[0.15172958273628245,0.43893993653130475,-0.49398605042621796,0.38958745748348406,-0.07945916967100623,-0.8386575392120664,0.40231334326253587,-0.6850732415157578,-0.431623646839187,0.8242612126086506,-0.9896038178490064,0.902778770391318,-0.5977832241605894,0.3731355942821216,-0.7295406930879679,-0.8021214664413413],[-0.8782076952736766,-0.5424136560131282,0.8993204618955492,0.78170491222004,-0.183233699257167,0.06876607240427049,0.8937531106219735,0.0015629767665974867,0.46486374592244273,0.846988191425996,0.29081016517883496,-0.920418936027892,-0.6370040534786136,-0.38165565821003056,-0.20900745546360264,-0.1096878284328442],[-0.008655908324588924,0.9274494678670516,0.7761829446557168,0.25644237787577495,-0.9935098627957547,-0.9061583752655816,-0.9150222219106368,-0.44220007207540984,-0.7832202405230743,0.33834973378289224,-0.15585328321445346,0.09427929058980478,0.7910356508872325,0.007963698510534613,0.5968767870762687,-0.3971509869184211],[0.2146203720805906,0.7220791106478426,-0.356962805607832,0.8116074337288174,0.972499060330561,0.05339564410195389,-0.3962430258995133,0.0040132054108204295,0.7500425518217477,-0.5549186090056691,0.5221138379597593,0.9755088960394456,-0.661138829155003,-0.7899877335697654,-0.48690944073071146,0.7028894785329585],[0.5372576074389038,-0.5426313055422768,0.31119752363980036,0.14894373981646924,0.03493069981304184,0.6892219762962523,0.8817827976558072,0.22333228986589793,0.5142130463648567,-0.7988534194085586,0.03278170771650668,-0.8958669279804697,0.6818780031959263,0.634984220674988,-0.9059543930329637,0.6736165600507432],[-0.8567103994343013,0.21231721025533834,0.08033663457275209,-0.10792435105327725,-0.23847553377900066,-0.27512408107292097,0.5247353732235429,-0.9443560410031844,0.05647728548221154,0.8106904829902064,0.909238912122901,-0.011907437356145745,0.5846868798065403,0.6741646405654795,0.9692365927478468,0.5647157400682177],[0.8202460202482744,0.6326671846363074,-0.40363314347510837,-0.9289337340411421,-0.7821426157756441,0.7820549578322353,-0.17838330062962293,-0.5000152250286263,-0.9539047581860353,-0.6868597072022313,0.28600065656285767,0.8746057599199031,0.1559931324589965,-0.759787028543552,0.4838557520340456,0.8330687237126142],[-0.4537020956416159,0.8739450107672928,-0.9279087297282688,-0.956221931593596,-0.9519110815375629,-0.9446272430683613,0.39814207674848934,0.3728604742199464,-0.6966100613105157,-0.6867109656737702,-0.7025601285056026,0.10896371915422542,0.5868323732106167,-0.5786061173205292,0.09757899823485827,0.48966300184357126],[-0.06142581810770672,-0.5291836001915287,0.10831507040196062,0.6764461288895949,-0.9665980644877076,0.7270517178054026,-0.22677457561563422,0.13120992149083854,-0.195058367957287,-0.9986734021508334,-0.17712093834276543,0.9307726811918482,-0.4176397219645948,0.3223408931581303,-0.3303195151237336,0.10561622051358106],[-0.8476651296773177,0.9047364826486232,0.054118867859582066,-0.388697533568828,-0.6271341380840855,0.014893256716975325,0.9409435556898084,-0.13257376121817402,-0.7780085769626021,0.16740449611050476,-0.8196951970037711,0.6912220395246451,-0.4450582715121383,0.2805306383780333,-0.4647804999608545,-0.9553484503835502],[-0.49563467549154566,-0.8844992561409162,0.5680146781512766,-0.05405127699297913,-0.5344912876763545,-0.293742729234253,-0.7742458432234521,-0.13200998486709373,0.4013200971471362,-0.37326521266607726,-0.07467517214074038,-0.35205325041298646,-0.835354801848563,0.8872374344199118,-0.7008598864169372,0.6527833445114662],[-0.3346221756686418,-0.0971734069086275,0.025926105434028037,-0.9875625396107477,-0.3768657592831196,-0.3537881010098611,-0.39017872184570696,0.40370038010755294,-0.11397304319896634,-0.503728048524083,-0.36949179868703336,0.07537394796256969,0.4521199442587754,-0.49509498985760114,0.06328684221688434,0.037544120667194966],[-0.7852373535243566,0.5242867946456883,0.8477571621463789,0.46108861105655435,0.05960062336556293,-0.15222124521721592,0.8293249822401324,0.15859096469106884,-0.6711352036050655,0.5047448262290681,0.3816946812986312,-0.04955628212948244,-0.4080851020611795,0.21542797307453557,0.4714148761875361,0.012870833452347859],[0.3843954813817096,-0.31973522800260046,0.6936572405000254,-0.014061370409720839,-0.7436668093045975,-0.4946011972847593,0.6167645804223565,-0.001910489451247729,-0.4715504093828289,0.04371056489094338,-0.9525498496078175,-0.6398935819159032,-0.46621772954794477,-0.4725520429279583,-0.2636608976602645,-0.047978089611027605],[-0.34585256079236476,0.01437114496670621,-0.22023271820508084,0.15690411109128047,0.22615498369765727,0.05530399396669952,-0.2029101908440331,0.7698005188381298,-0.4497372668558057,0.45324624983811357,0.6752199778197424,0.39716269475499366,0.122356735782103,-0.26007026044287807,0.3820155365017831,0.5064031948942627],[0.31386677416796993,0.09620895882553261,0.7453329378193724,0.6088354213906348,-0.35175675092051967,0.12234984357245708,-0.41845465074788973,-0.5138825965879132,-0.7339981336491761,-0.8337270826923974,0.07521462886254839,0.284094116273148,-0.25881507305879353,0.04889530427119786,-0.1400739332182961,-0.31594198091759906],[0.39481725779816895,-0.37076764423107766,0.184117588279881,-0.6253659811703659,0.6715464789422353,0.674564075241158,-0.12256101143657189,0.17955888475197582,-0.5647935788725368,-0.7071785191865648,-0.1372492213010978,-0.5168236188478538,-0.716220146404166,-0.7607492797491331,0.47927655935508023,-0.7789613265466845],[0.2739814515570252,0.3518380363649862,0.026418524975015505,0.8355062033142483,-0.652414717175908,-0.10042967463175403,0.7106301355855891,0.9598934756540461,-0.5161109898389058,-0.25669872907748503,-0.6946113686925615,0.9381607636348319,0.3922999562522018,-0.6955383104959272,-0.7919371331601813,0.4476009022462154],[0.5564919355182546,-0.2316840988523213,-0.31847009700428797,-0.4208778105873837,0.02834549415331288,0.7668346702632254,-0.9494632184262853,-0.39035152192512274,-0.3525821576587931,0.15643432498452398,-0.7515181947737465,0.18825336416123908,-0.013068957125419231,0.9981789986855475,0.4970893331986885,0.46058682436124565],[0.44336456368395627,-0.16822260694059776,0.2722996829584016,0.9006345284258275,-0.18198459361706737,0.6550512671484456,-0.8185022023567876,-0.49896621006818176,0.8239748447971219,0.9344876150828876,0.8940189635196606,0.7611427209223689,0.47369950052868737,0.09637770761626616,0.6581661502444534,-0.07979748813807197],[0.11719817565477024,0.7749725018559501,0.9160353174148765,-0.20382484458988276,-0.48228061079613915,0.023200727163198202,0.9024249454554581,-0.7571226628973254,-0.27624477708422795,-0.07028758322532419,0.09942718842332139,0.7785276834720734,-0.4450418677408743,0.40701159672178744,-0.8638422506691485,0.9412875680354053],[0.16390383120135657,-0.5121108165499698,-0.5693787073724886,0.3276917546880882,0.9014612076148791,0.742448996629278,-0.1088768744938395,-0.8145315479372797,-0.6437229652718252,0.1693205057233588,-0.09535840305323591,-0.8659441412826476,-0.2463058518476505,-0.4047852704780356,-0.7935078398023793,-0.24631880946083545],[0.7166396127960875,0.9730203347478902,0.5471159023167352,-0.258197846635699,0.8093522361719875,0.9493887574337857,-0.9152752926790949,0.3832093411758927,-0.7963494012088719,-0.25844229361247867,0.9672863420397386,-0.9287146410861036,0.13009385573740193,-0.49673729366704,0.48457150337106203,0.4129119947217747],[-0.12408172265313448,-0.8139561183672483,-0.6614496674619289,0.7479916879238115,-0.1662000397335931,-0.525926009267952,0.8182617658513464,-0.11958182502996254,-0.23224593784535935,-0.5956191893862761,-0.34263536438261927,0.7266731279942948,-0.020896574519615674,0.6823088070696278,0.872098456231215,0.9256219251591443],[0.6428830566022072,0.31055732522938506,0.5721294630695111,0.6425978404870563,-0.8850967968914938,0.591892668505869,-0.27069549101365137,0.1966318132932476,0.8541128872541102,-0.4145385700027886,-0.6550171271701966,0.00977234723665592,0.004499069236862747,0.20786583430763153,-0.4147986458769209,0.18364298729697243],[-0.9720729565752633,0.5216764423172596,-0.9434094818814333,-0.9992318614700427,0.9722838863858889,-0.3161734994140553,-0.35507474436271097,0.19704254862231363,0.5384461824647009,-0.7508463863721004,0.0462846367850533,0.3036738197670934,-0.32884255613581037,0.5012600964672309,-0.6291303288252196,-0.1833457372302132],[0.4268965360255926,0.7639489169534642,-0.9919065237965803,0.4345819370170263,-0.09883439049709936,-0.4305967645179608,0.19875469931039513,-0.8900818674115822,-0.5866665925009671,0.8827419054563423,-0.3183192776920237,0.25801380905049265,0.07766125325966416,0.6571337989581194,0.33685784605387653,0.5059181171764507],[-0.43543074288756867,0.016315855918340543,-0.8539448895104793,-0.7675400372342014,-0.8762414282125377,-0.14529690992148955,-0.8907306031317611,0.22649470950960557,-0.9790434790321054,0.7019827190058088,0.40979846520820984,0.056515123391409974,-0.889762551282477,-0.2481265710841505,0.09082021622875451,0.8755076060244802],[0.13038633008845874,-0.22027108487160688,-0.3906567394370545,-0.8827141046418874,-0.5685840236184575,-0.19966812426546887,0.9794414670355532,0.9893573977341894,-0.6876920029514382,0.19144558114411933,0.48153478596631977,-0.9071619300066855,-0.44222762052788533,0.18499764129813517,0.7273327833541834,-0.6423266700184205],[-0.027404984453401015,0.3638378263209324,-0.6479137380502783,-0.7146139077254942,0.6835504134497794,-0.8273046143002616,-0.4722318252856701,0.6879235710531246,0.9856041761841005,-0.2531076968340766,0.20483285694240402,-0.27675207637156823,0.9481325505557402,0.2200941188085988,-0.5519466853328627,-0.14293028837740862],[-0.6768266996079016,0.44395295363033,0.6529606015250986,-0.9718623766751406,0.8329478050560065,-0.13104606087354714,0.3414780259960076,0.7617209619832748,-0.4364916475465116,0.3953883283271352,0.8719468994267306,0.07619231852451948,0.34525730106705455,-0.6567967945182455,0.4493261494803494,-0.238837060975349],[-0.35316452893868894,-0.19347249720228887,0.6530534688014256,-0.7986500163957242,-0.6827837958330476,0.23204789254220964,-0.5820757811674381,0.22263881006145733,0.9556014591434783,-0.03366944982656274,0.744627196847476,-0.5846124343257674,-0.3630861235364624,-0.7075986730762233,-0.4164607401117092,-0.3260513487757756],[-0.602602024377604,-0.9342599780923966,0.7592957223576009,-0.17652258517990005,0.05010749821090488,0.5102147243498893,-0.2059112373767007,-0.849979619425712,0.6028880549608209,-0.01903513866431783,0.5243170901780563,0.958395072239635,-0.6646139964762209,-0.32918014811779384,0.35136777598008884,0.04785967573889516],[0.8479478153623397,0.9534249435893376,0.7077967923636532,0.647817099302922,-0.11469845711938031,0.1268129549579755,-0.2437361056188755,-0.6992518164679649,0.8920209565628419,-0.00047416472829608924,0.833447007384825,-0.13713069778733455,-0.006585476457413919,-0.8503137239489302,-0.2727037962864637,0.7846708892773235],[-0.6858833495927432,-0.7978083518323528,0.3704313549075422,-0.4108672707392216,0.23242145927270008,-0.7248348806634708,-0.960316091757415,-0.40228184936674394,-0.2037240495922622,0.6033314827845113,-0.675209980306779,0.2185689868491929,-0.09399145054351143,-0.6059842899469585,0.3345205194011891,-0.1914300635417132],[-0.15780543776126832,-0.7416303827155524,0.5208688282970659,-0.021089950120584122,0.6914401527919993,0.15371592210313123,-0.2028430631397492,0.12960139155834982,0.6752453742899212,0.671323608454002,0.4119240536410007,0.0587709904922038,0.40516612464802626,-0.022151556341979406,0.3345851503939299,-0.37372063536835864],[0.06390423361279678,0.6878109180480921,-0.93534111458405,0.1882402814092318,-0.4878821495884863,-0.12450359547962886,-0.6106209906772342,-0.8547313605290486,-0.9448560511621197,-0.8812062773504871,-0.8089917287775339,-0.4592145049789256,0.1964890628354095,0.19139859035327692,0.9643819468871005,-0.3505840041417255],[-0.7696557930049254,0.5164067333040195,0.2074316218928795,-0.44272272647474464,0.9944943424758436,-0.6296521445606971,-0.06600409161785913,-0.8231935625186035,-0.4687764324893719,0.3719166654443768,0.0794374197341909,-0.46261211829798515,0.35281826453574955,0.37759980168430596,-0.25819819894129126,-0.7056361699414212],[0.9370534874381939,-0.33499251554889675,-0.6326467211489268,-0.21485611495182277,0.13156226342037056,0.6254210359374265,0.43070170532714397,0.38000326601744455,-0.6120512709279284,0.9127291835406244,0.7889736872046978,-0.811586634888596,0.09179473978046605,-0.7896937230162737,0.7685571869848268,-0.8188702870572869],[-0.24310124430821667,-0.948356282338804,-0.6803073757499607,0.3912621903851175,0.005516654385959185,0.7463846026647062,0.7524100396412956,0.03503281554140628,-0.46808519834075757,-0.03727918812115021,-0.7322290858925145,0.21350340999563608,0.5966560077450379,-0.9071097413011335,0.6897256997164127,-0.9681335414639222],